{"learner":{"attributes":{"scikit_learn":"{\"_estimator_type\": \"regressor\"}"},"feature_names":["lag_1_pm25","lag_2_pm25","lag_3_pm25","temperature_2m_mean","precipitation_sum","wind_speed_10m_max","wind_direction_10m_dominant"],"feature_types":["float","float","float","float","float","float","float"],"gradient_booster":{"model":{"gbtree_model_param":{"num_parallel_tree":"1","num_trees":"100"},"iteration_indptr":[0,1,2,3,4,5,6,7,8,9,10,11,12,13,14,15,16,17,18,19,20,21,22,23,24,25,26,27,28,29,30,31,32,33,34,35,36,37,38,39,40,41,42,43,44,45,46,47,48,49,50,51,52,53,54,55,56,57,58,59,60,61,62,63,64,65,66,67,68,69,70,71,72,73,74,75,76,77,78,79,80,81,82,83,84,85,86,87,88,89,90,91,92,93,94,95,96,97,98,99,100],"tree_info":[0,0,0,0,0,0,0,0,0,0,0,0,0,0,0,0,0,0,0,0,0,0,0,0,0,0,0,0,0,0,0,0,0,0,0,0,0,0,0,0,0,0,0,0,0,0,0,0,0,0,0,0,0,0,0,0,0,0,0,0,0,0,0,0,0,0,0,0,0,0,0,0,0,0,0,0,0,0,0,0,0,0,0,0,0,0,0,0,0,0,0,0,0,0,0,0,0,0,0,0],"trees":[{"base_weights":[1.372267E-6,-7.312307E0,1.9741419E1,-1.34014E1,-1.0853804E0,2.9366476E1,1.199641E1,-8.1358795E0,-1.5447019E1,4.2711005E0,-5.982142E0,1.7337759E1,3.574985E1,1.576958E1,-5.3214617E0,2.104729E0,-1.0795591E1,-1.7247948E1,-9.152226E0,1.3785432E1,7.163781E-2,9.5485634E-1,-8.98011E0,2.7349693E1,1.4501357E1,3.1972868E1,5.2280727E1,1.4163889E1,4.5596E1,1.3412918E1,-8.29604E0,-1.10047914E-1,1.2258564E0,-1.4386684E0,-7.090141E-1,-1.210245E0,-1.8205652E0,-1.0161422E0,1.0036402E0,1.2015857E0,2.3632276E0,-3.3578527E-1,4.5994058E-1,1.1556863E0,-1.824723E-1,6.612418E-1,-1.0489473E0,2.8770876E0,5.147751E-1,1.6467412E0,7.9886806E-1,3.4016807E0,2.111242E0,5.7342467E0,3.091292E0,2.1261744E0,9.647361E-1,1.8197001E0,5.0824714E0,1.5636401E0,1.14775084E-1,-1.0107392E0,8.7216264E-1],"categories":[],"categories_nodes":[],"categories_segments":[],"categories_sizes":[],"default_left":[0,0,0,0,0,0,0,0,0,0,0,0,0,0,0,0,0,0,0,0,0,0,0,0,0,0,0,0,0,0,0,0,0,0,0,0,0,0,0,0,0,0,0,0,0,0,0,0,0,0,0,0,0,0,0,0,0,0,0,0,0,0,0],"id":0,"left_children":[1,3,5,7,9,11,13,15,17,19,21,23,25,27,29,31,33,35,37,39,41,43,45,47,49,51,53,55,57,59,61,-1,-1,-1,-1,-1,-1,-1,-1,-1,-1,-1,-1,-1,-1,-1,-1,-1,-1,-1,-1,-1,-1,-1,-1,-1,-1,-1,-1,-1,-1,-1,-1],"loss_changes":[2.1523378E5,4.123842E4,2.9689812E4,5.7985156E3,1.4163202E4,1.3124484E4,1.478615E4,4.271704E3,4.3200547E3,1.0307423E4,5.8733E3,1.4208555E3,5.5710938E3,8.214211E3,2.3960762E3,1.0874803E3,1.5480166E3,1.2875938E3,1.8448423E3,1.0925918E3,2.8104727E3,2.5554321E3,4.705714E3,2.6208398E2,5.3426953E2,1.4350469E3,3.9054297E2,5.46909E3,3.644961E2,1.4568164E2,1.1978525E3,0E0,0E0,0E0,0E0,0E0,0E0,0E0,0E0,0E0,0E0,0E0,0E0,0E0,0E0,0E0,0E0,0E0,0E0,0E0,0E0,0E0,0E0,0E0,0E0,0E0,0E0,0E0,0E0,0E0,0E0,0E0,0E0],"parents":[2147483647,0,0,1,1,2,2,3,3,4,4,5,5,6,6,7,7,8,8,9,9,10,10,11,11,12,12,13,13,14,14,15,15,16,16,17,17,18,18,19,19,20,20,21,21,22,22,23,23,24,24,25,25,26,26,27,27,28,28,29,29,30,30],"right_children":[2,4,6,8,10,12,14,16,18,20,22,24,26,28,30,32,34,36,38,40,42,44,46,48,50,52,54,56,58,60,62,-1,-1,-1,-1,-1,-1,-1,-1,-1,-1,-1,-1,-1,-1,-1,-1,-1,-1,-1,-1,-1,-1,-1,-1,-1,-1,-1,-1,-1,-1,-1,-1],"split_conditions":[4.8E1,2.8E1,2.0953862E2,2.2275713E2,1.9373219E1,5.8E1,2.7859905E1,1.0324666E1,3.1542804E2,8.266334E0,2.5937146E2,2.1163337E0,8.8E1,9.4E1,1.4341663E-1,2.5E1,2.1E1,6.7246666E0,4.6E1,4.4E1,3.8E1,6.824667E0,2.2975833E0,6.7E1,1.4274669E1,9.843417E0,2.3219301E1,3.324667E0,2.7776678E2,8.5E1,3.149117E2,-1.10047914E-1,1.2258564E0,-1.4386684E0,-7.090141E-1,-1.210245E0,-1.8205652E0,-1.0161422E0,1.0036402E0,1.2015857E0,2.3632276E0,-3.3578527E-1,4.5994058E-1,1.1556863E0,-1.824723E-1,6.612418E-1,-1.0489473E0,2.8770876E0,5.147751E-1,1.6467412E0,7.9886806E-1,3.4016807E0,2.111242E0,5.7342467E0,3.091292E0,2.1261744E0,9.647361E-1,1.8197001E0,5.0824714E0,1.5636401E0,1.14775084E-1,-1.0107392E0,8.7216264E-1],"split_indices":[0,0,6,6,5,0,5,3,6,3,6,3,0,0,3,0,0,3,2,0,0,3,3,1,3,3,5,3,6,1,6,0,0,0,0,0,0,0,0,0,0,0,0,0,0,0,0,0,0,0,0,0,0,0,0,0,0,0,0,0,0,0,0],"split_type":[0,0,0,0,0,0,0,0,0,0,0,0,0,0,0,0,0,0,0,0,0,0,0,0,0,0,0,0,0,0,0,0,0,0,0,0,0,0,0,0,0,0,0,0,0,0,0,0,0,0,0,0,0,0,0,0,0,0,0,0,0,0,0],"sum_hessian":[1.489E3,1.087E3,4.02E2,5.49E2,5.38E2,1.78E2,2.24E2,1.55E2,3.94E2,2.57E2,2.81E2,6.3E1,1.15E2,1.84E2,4E1,3.2E1,1.23E2,3.05E2,8.9E1,7.8E1,1.79E2,8.5E1,1.96E2,1.2E1,5.1E1,9.6E1,1.9E1,1.76E2,8E0,5E0,3.5E1,2.5E1,7E0,6.1E1,6.2E1,5E1,2.55E2,8.5E1,4E0,6.8E1,1E1,1.02E2,7.7E1,1.7E1,6.8E1,1.7E1,1.79E2,1.1E1,1E0,3.8E1,1.3E1,7.9E1,1.7E1,1.4E1,5E0,6.7E1,1.09E2,2E0,6E0,4E0,1E0,3.2E1,3E0],"tree_param":{"num_deleted":"0","num_feature":"7","num_nodes":"63","size_leaf_vector":"1"}},{"base_weights":[2.1415807E-2,-6.966695E0,1.6875986E1,-1.2068669E1,-1.3962935E0,1.3904952E1,3.7258347E1,-1.5270581E1,-9.289699E0,3.3725762E0,-5.7972026E0,2.2191326E1,8.76329E0,3.940702E1,-1.3120998E0,-1.9727045E1,-1.3535277E1,-5.122384E0,-1.1443255E1,1.1826401E1,-3.9907715E-1,4.2681475E0,-7.5160975E0,1.5338169E1,2.796923E1,1.1776353E1,-7.4048347E0,4.6515484E1,2.8112698E1,-1.5694503E0,-2.2603738E0,-1.4007605E0,6.364517E-1,8.843118E-1,-6.8882936E-1,-1.3472321E0,-6.16625E-1,1.3972828E0,4.7646776E-1,-3.3921704E-1,3.3081576E-1,1.3265759E0,-1.3011451E-1,2.998485E-1,-8.6131793E-1,1.964762E0,9.0809625E-1,2.8859413E0,1.7937891E0,1.9427508E0,7.448203E-1,1.3668644E-1,-1.1505884E0,5.058293E0,2.8498714E0,-1.84688E-1,2.9558446E0],"categories":[],"categories_nodes":[],"categories_segments":[],"categories_sizes":[],"default_left":[0,0,0,0,0,0,0,0,0,0,0,0,0,0,0,0,0,0,0,0,0,0,0,0,0,0,0,0,0,0,0,0,0,0,0,0,0,0,0,0,0,0,0,0,0,0,0,0,0,0,0,0,0,0,0,0,0],"id":1,"left_children":[1,3,5,7,9,11,13,15,17,19,21,23,25,27,-1,29,31,33,35,37,39,41,43,45,47,49,51,53,55,-1,-1,-1,-1,-1,-1,-1,-1,-1,-1,-1,-1,-1,-1,-1,-1,-1,-1,-1,-1,-1,-1,-1,-1,-1,-1,-1,-1],"loss_changes":[1.7561214E5,2.9937871E4,2.594518E4,4.7520547E3,1.0618168E4,1.6123531E4,6.47075E3,1.69725E3,2.6068242E3,7.7527485E3,4.5823164E3,5.3521484E3,1.1681508E4,2.9474453E3,0E0,4.4566992E2,1.8374102E3,2.6010798E3,2.0048672E3,1.0702354E3,1.8864626E3,1.9715636E3,2.6212822E3,1.6821738E3,1.7884375E2,6.5114844E3,1.3827073E3,8.302031E2,1.0508145E3,0E0,0E0,0E0,0E0,0E0,0E0,0E0,0E0,0E0,0E0,0E0,0E0,0E0,0E0,0E0,0E0,0E0,0E0,0E0,0E0,0E0,0E0,0E0,0E0,0E0,0E0,0E0,0E0],"parents":[2147483647,0,0,1,1,2,2,3,3,4,4,5,5,6,6,7,7,8,8,9,9,10,10,11,11,12,12,13,13,15,15,16,16,17,17,18,18,19,19,20,20,21,21,22,22,23,23,24,24,25,25,26,26,27,27,28,28],"right_children":[2,4,6,8,10,12,14,16,18,20,22,24,26,28,-1,30,32,34,36,38,40,42,44,46,48,50,52,54,56,-1,-1,-1,-1,-1,-1,-1,-1,-1,-1,-1,-1,-1,-1,-1,-1,-1,-1,-1,-1,-1,-1,-1,-1,-1,-1,-1,-1],"split_conditions":[4.6E1,2.8E1,7.9E1,1.9E1,1.9416653E1,1.8602466E2,2.6000001E0,1.3E1,2.2275713E2,8.266334E0,1.5000412E2,5.8E1,2.9478264E1,2.1749481E1,-1.3120998E0,2.3087763E1,7.2E1,5.753834E0,3.142478E2,4.9E1,3.7E1,1.0737167E1,2.7934167E0,1.1255917E1,1.6999999E0,2.7934167E0,2.7581827E2,6.8996673E0,3.6E1,-1.5694503E0,-2.2603738E0,-1.4007605E0,6.364517E-1,8.843118E-1,-6.8882936E-1,-1.3472321E0,-6.16625E-1,1.3972828E0,4.7646776E-1,-3.3921704E-1,3.3081576E-1,1.3265759E0,-1.3011451E-1,2.998485E-1,-8.6131793E-1,1.964762E0,9.0809625E-1,2.8859413E0,1.7937891E0,1.9427508E0,7.448203E-1,1.3668644E-1,-1.1505884E0,5.058293E0,2.8498714E0,-1.84688E-1,2.9558446E0],"split_indices":[0,0,0,0,5,6,4,0,6,3,6,0,5,5,0,5,2,3,6,1,0,3,3,3,4,3,6,3,2,0,0,0,0,0,0,0,0,0,0,0,0,0,0,0,0,0,0,0,0,0,0,0,0,0,0,0,0],"split_type":[0,0,0,0,0,0,0,0,0,0,0,0,0,0,0,0,0,0,0,0,0,0,0,0,0,0,0,0,0,0,0,0,0,0,0,0,0,0,0,0,0,0,0,0,0,0,0,0,0,0,0,0,0,0,0,0,0],"sum_hessian":[1.489E3,1.053E3,4.36E2,5.49E2,5.04E2,3.82E2,5.4E1,2.53E2,2.96E2,2.42E2,2.62E2,1.45E2,2.37E2,5.2E1,2E0,6.8E1,1.85E2,1.02E2,1.94E2,7.4E1,1.68E2,3.8E1,2.24E2,6.8E1,7.7E1,2E2,3.7E1,3E1,2.2E1,3.1E1,3.7E1,1.81E2,4E0,1.1E1,9.1E1,1.39E2,5.5E1,5.6E1,1.8E1,9.3E1,7.5E1,1.4E1,2.4E1,2.1E1,2.03E2,3.9E1,2.9E1,6.9E1,8E0,7.1E1,1.29E2,1.2E1,2.5E1,2.3E1,7E0,1E0,2.1E1],"tree_param":{"num_deleted":"0","num_feature":"7","num_nodes":"57","size_leaf_vector":"1"}},{"base_weights":[2.9161194E-2,-5.9312477E0,1.6120714E1,-1.087337E1,-8.772612E-1,2.403193E1,9.755255E0,-6.5255036E0,-1.2562975E1,2.1575854E0,-6.6014514E0,1.9541636E1,3.658992E1,1.2852899E1,-4.459854E0,2.1905968E0,-8.792486E0,-1.4076453E1,-7.277561E0,9.657466E0,-1.1879028E0,-4.1948515E-1,-9.447674E0,2.2371838E1,1.089701E1,4.2058353E1,2.6605394E1,7.22072E0,1.9394041E1,1.1165575E1,-6.9402075E0,8.145475E-1,-2.625917E-1,-1.1778315E0,-5.714487E-1,-1.2572966E0,-1.7333542E0,1.2887292E0,-8.121031E-1,1.5537008E0,6.784914E-1,-3.757796E-1,2.7052817E-1,7.7483577E-1,-2.62287E-1,4.2097798E-1,-1.0896806E0,1.6883954E0,2.5899284E0,1.3340396E0,5.7358664E-1,2.6284354E0,4.516561E0,2.8203793E0,8.679337E-1,1.3033664E0,3.5076162E-1,1.6936473E0,3.8265023E0,8.9455605E-2,1.3040868E0,-8.481304E-1,7.50889E-1],"categories":[],"categories_nodes":[],"categories_segments":[],"categories_sizes":[],"default_left":[0,0,0,0,0,0,0,0,0,0,0,0,0,0,0,0,0,0,0,0,0,0,0,0,0,0,0,0,0,0,0,0,0,0,0,0,0,0,0,0,0,0,0,0,0,0,0,0,0,0,0,0,0,0,0,0,0,0,0,0,0,0,0],"id":2,"left_children":[1,3,5,7,9,11,13,15,17,19,21,23,25,27,29,31,33,35,37,39,41,43,45,47,49,51,53,55,57,59,61,-1,-1,-1,-1,-1,-1,-1,-1,-1,-1,-1,-1,-1,-1,-1,-1,-1,-1,-1,-1,-1,-1,-1,-1,-1,-1,-1,-1,-1,-1,-1,-1],"loss_changes":[1.4300486E5,2.7165898E4,2.0060047E4,3.958418E3,9.377771E3,9.378617E3,9.964824E3,3.1017026E3,3.0573047E3,8.868512E3,3.2863486E3,3.034668E3,1.3926094E3,6.6755273E3,1.6665115E3,9.67887E2,1.0723008E3,1.2805391E3,1.6354175E3,1.7355146E3,2.4614075E3,1.100137E3,2.5791787E3,1.4985391E3,3.64854E2,1.8523828E2,2.996162E2,2.1342734E3,3.2939492E3,1.0390112E2,8.6531335E2,0E0,0E0,0E0,0E0,0E0,0E0,0E0,0E0,0E0,0E0,0E0,0E0,0E0,0E0,0E0,0E0,0E0,0E0,0E0,0E0,0E0,0E0,0E0,0E0,0E0,0E0,0E0,0E0,0E0,0E0,0E0,0E0],"parents":[2147483647,0,0,1,1,2,2,3,3,4,4,5,5,6,6,7,7,8,8,9,9,10,10,11,11,12,12,13,13,14,14,15,15,16,16,17,17,18,18,19,19,20,20,21,21,22,22,23,23,24,24,25,25,26,26,27,27,28,28,29,29,30,30],"right_children":[2,4,6,8,10,12,14,16,18,20,22,24,26,28,30,32,34,36,38,40,42,44,46,48,50,52,54,56,58,60,62,-1,-1,-1,-1,-1,-1,-1,-1,-1,-1,-1,-1,-1,-1,-1,-1,-1,-1,-1,-1,-1,-1,-1,-1,-1,-1,-1,-1,-1,-1,-1,-1],"split_conditions":[4.8E1,2.8E1,2.0953862E2,2.2275713E2,2.3219301E1,7.4E1,2.7859905E1,1.0324666E1,3.1542804E2,8.705916E0,2.5937146E2,1.1255917E1,2.1749481E1,6.2E1,1.4341663E-1,1.623596E1,2.1E1,2.7343414E1,8.209263E0,1.6950862E2,3.8E1,7.6496663E0,1.7642502E0,5.8E1,1.9592731E1,7.8E1,1.9000002E0,1.680857E1,9.4E1,3.9E1,3.149117E2,8.145475E-1,-2.625917E-1,-1.1778315E0,-5.714487E-1,-1.2572966E0,-1.7333542E0,1.2887292E0,-8.121031E-1,1.5537008E0,6.784914E-1,-3.757796E-1,2.7052817E-1,7.7483577E-1,-2.62287E-1,4.2097798E-1,-1.0896806E0,1.6883954E0,2.5899284E0,1.3340396E0,5.7358664E-1,2.6284354E0,4.516561E0,2.8203793E0,8.679337E-1,1.3033664E0,3.5076162E-1,1.6936473E0,3.8265023E0,8.9455605E-2,1.3040868E0,-8.481304E-1,7.50889E-1],"split_indices":[0,0,6,6,5,0,5,3,6,3,6,3,5,0,3,5,0,5,5,6,0,3,3,0,5,0,4,5,0,2,6,0,0,0,0,0,0,0,0,0,0,0,0,0,0,0,0,0,0,0,0,0,0,0,0,0,0,0,0,0,0,0,0],"split_type":[0,0,0,0,0,0,0,0,0,0,0,0,0,0,0,0,0,0,0,0,0,0,0,0,0,0,0,0,0,0,0,0,0,0,0,0,0,0,0,0,0,0,0,0,0,0,0,0,0,0,0,0,0,0,0,0,0,0,0,0,0,0,0],"sum_hessian":[1.489E3,1.087E3,4.02E2,5.49E2,5.38E2,1.78E2,2.24E2,1.55E2,3.94E2,3.52E2,1.86E2,1.33E2,4.5E1,1.84E2,4E1,3.2E1,1.23E2,3.05E2,8.9E1,1.08E2,2.44E2,5.9E1,1.27E2,9.9E1,3.4E1,2.7E1,1.8E1,1E2,8.4E1,5E0,3.5E1,1.4E1,1.8E1,6.1E1,6.2E1,2.12E2,9.3E1,3E0,8.6E1,3.4E1,7.4E1,1.47E2,9.7E1,1.2E1,4.7E1,1.2E1,1.15E2,4.1E1,5.8E1,2.2E1,1.2E1,6E0,2.1E1,1.6E1,2E0,3.8E1,6.2E1,7.6E1,8E0,1E0,4E0,3.2E1,3E0],"tree_param":{"num_deleted":"0","num_feature":"7","num_nodes":"63","size_leaf_vector":"1"}},{"base_weights":[4.218426E-2,-5.661821E0,1.3799574E1,-1.0080107E1,-1.4054719E0,1.055369E1,2.6736418E1,-1.650339E1,-9.07056E0,2.6237495E0,-5.072509E0,1.3588864E1,1.3282391E0,2.876454E1,3.1131492E0,-1.3093868E1,-1.8940264E1,-5.2731843E0,-1.0408377E1,1.199093E1,2.4648196E-1,1.17453255E-1,-7.3503366E0,2.1693157E1,1.0940787E1,1.3848108E1,-2.3199582E0,2.9649757E1,-3.839283E0,1.8194256E0,-9.574367E0,3.830981E-1,-1.4349891E0,-1.9157833E0,-5.4451036E-1,4.3004537E-1,-7.021956E-1,-1.1765904E0,-5.8542675E-1,1.592854E0,2.135772E-1,-1.5749243E-1,3.586509E-1,5.4696727E-1,-2.7954635E-1,2.7647218E-1,-8.264813E-1,2.243473E0,-8.637505E-2,1.8689028E0,8.585917E-1,2.1104264E0,7.251982E-1,-5.532901E-1,9.6154976E-1,2.411884E0,3.6846738E0,2.2664662E-1,-8.0253905E-1,-2.785328E-1,-1.317195E0],"categories":[],"categories_nodes":[],"categories_segments":[],"categories_sizes":[],"default_left":[0,0,0,0,0,0,0,0,0,0,0,0,0,0,0,0,0,0,0,0,0,0,0,0,0,0,0,0,0,0,0,0,0,0,0,0,0,0,0,0,0,0,0,0,0,0,0,0,0,0,0,0,0,0,0,0,0,0,0,0,0],"id":3,"left_children":[1,3,5,7,9,11,13,15,17,19,21,23,25,27,29,31,33,35,37,39,41,43,45,47,49,51,53,55,57,-1,59,-1,-1,-1,-1,-1,-1,-1,-1,-1,-1,-1,-1,-1,-1,-1,-1,-1,-1,-1,-1,-1,-1,-1,-1,-1,-1,-1,-1,-1,-1],"loss_changes":[1.1700174E5,1.980711E4,1.806811E4,3.2028438E3,7.962422E3,9.81025E3,4.0786875E3,3.2529102E2,2.226121E3,5.719996E3,3.3346226E3,5.4283086E3,4.0515227E3,2.4227578E3,1.7049327E3,7.3523E2,7.254883E0,2.0225083E3,1.9774727E3,1.9838799E3,1.2588589E3,1.3716698E3,1.8358447E3,1.0899453E3,3.5070059E3,8.0420264E2,2.69921E3,2.2161562E3,9.486725E1,0E0,8.5432495E1,0E0,0E0,0E0,0E0,0E0,0E0,0E0,0E0,0E0,0E0,0E0,0E0,0E0,0E0,0E0,0E0,0E0,0E0,0E0,0E0,0E0,0E0,0E0,0E0,0E0,0E0,0E0,0E0,0E0,0E0],"parents":[2147483647,0,0,1,1,2,2,3,3,4,4,5,5,6,6,7,7,8,8,9,9,10,10,11,11,12,12,13,13,14,14,15,15,16,16,17,17,18,18,19,19,20,20,21,21,22,22,23,23,24,24,25,25,26,26,27,27,28,28,30,30],"right_children":[2,4,6,8,10,12,14,16,18,20,22,24,26,28,30,32,34,36,38,40,42,44,46,48,50,52,54,56,58,-1,60,-1,-1,-1,-1,-1,-1,-1,-1,-1,-1,-1,-1,-1,-1,-1,-1,-1,-1,-1,-1,-1,-1,-1,-1,-1,-1,-1,-1,-1,-1],"split_conditions":[4.6E1,2.7E1,7.3E1,1.3E1,1.9416653E1,2.4315327E1,2.884721E1,2.3087763E1,1.9924197E2,5.2663336E0,2.5937146E2,2.1163337E0,1.8360323E2,1.35E1,1.4788337E0,5.1350837E0,1.8133001E1,8.705916E0,3.1516324E2,4.9E1,3.8E1,1.0737167E1,2.2975833E0,7.8E1,1.1966953E1,1.4692621E2,3.149117E2,8.8E1,7.8E1,1.8194256E0,4E-1,3.830981E-1,-1.4349891E0,-1.9157833E0,-5.4451036E-1,4.3004537E-1,-7.021956E-1,-1.1765904E0,-5.8542675E-1,1.592854E0,2.135772E-1,-1.5749243E-1,3.586509E-1,5.4696727E-1,-2.7954635E-1,2.7647218E-1,-8.264813E-1,2.243473E0,-8.637505E-2,1.8689028E0,8.585917E-1,2.1104264E0,7.251982E-1,-5.532901E-1,9.6154976E-1,2.411884E0,3.6846738E0,2.2664662E-1,-8.0253905E-1,-2.785328E-1,-1.317195E0],"split_indices":[0,0,0,0,5,5,5,5,6,3,6,3,6,4,3,3,3,3,6,1,0,3,3,1,5,6,6,0,0,0,4,0,0,0,0,0,0,0,0,0,0,0,0,0,0,0,0,0,0,0,0,0,0,0,0,0,0,0,0,0,0],"split_type":[0,0,0,0,0,0,0,0,0,0,0,0,0,0,0,0,0,0,0,0,0,0,0,0,0,0,0,0,0,0,0,0,0,0,0,0,0,0,0,0,0,0,0,0,0,0,0,0,0,0,0,0,0,0,0,0,0,0,0,0,0],"sum_hessian":[1.489E3,1.053E3,4.36E2,5.16E2,5.37E2,3.5E2,8.6E1,6.8E1,4.48E2,2.56E2,2.81E2,2.63E2,8.7E1,7.9E1,7E0,3.1E1,3.7E1,1.18E2,3.3E2,5.1E1,2.05E2,8.6E1,1.95E2,6.3E1,2E2,1.9E1,6.8E1,7.7E1,2E0,3E0,4E0,2E0,2.9E1,3.6E1,1E0,1.8E1,1E2,2.53E2,7.7E1,3.6E1,1.5E1,1.33E2,7.2E1,3E1,5.6E1,1.6E1,1.79E2,6.1E1,2E0,4.5E1,1.55E2,8E0,1.1E1,5.4E1,1.4E1,4.6E1,3.1E1,1E0,1E0,2E0,2E0],"tree_param":{"num_deleted":"0","num_feature":"7","num_nodes":"61","size_leaf_vector":"1"}},{"base_weights":[4.471151E-2,-4.7035747E0,1.3542947E1,-7.5099764E0,1.5102873E0,2.0197645E1,8.150327E0,-1.1418882E1,-5.5368557E0,9.675278E0,-8.021646E-1,1.1325805E1,2.4459448E1,1.0435506E1,-3.9654715E0,-7.1424856E0,-1.27920265E1,-3.2740257E0,-8.473938E0,1.0971834E1,-4.6724663E0,2.5070143E0,-6.889577E0,1.9385109E1,9.449909E0,2.1758242E1,3.6337322E1,9.281416E0,3.1588419E1,7.721025E0,-7.1628466E0,-1.961174E-2,-1.2206157E0,-7.9021245E-1,-1.3548888E0,2.5099105E-1,-5.6280583E-1,-1.7543453E-1,-9.822958E-1,1.7052851E0,8.5389274E-1,-9.029798E-1,8.529816E-2,7.295077E-1,8.8181003E-4,-1.4740004E-2,-9.8498154E-1,1.0601486E0,2.6048439E0,1.042282E0,7.4025154E-2,2.2948692E0,1.2300831E0,4.0268664E0,2.0452762E0,1.6743237E0,6.7803574E-1,9.3403625E-1,3.6610668E0,-4.5708752E-1,1.0129993E0,-8.4191315E-2,-1.5520599E0],"categories":[],"categories_nodes":[],"categories_segments":[],"categories_sizes":[],"default_left":[0,0,0,0,0,0,0,0,0,0,0,0,0,0,0,0,0,0,0,0,0,0,0,0,0,0,0,0,0,0,0,0,0,0,0,0,0,0,0,0,0,0,0,0,0,0,0,0,0,0,0,0,0,0,0,0,0,0,0,0,0,0,0],"id":4,"left_children":[1,3,5,7,9,11,13,15,17,19,21,23,25,27,29,31,33,35,37,39,41,43,45,47,49,51,53,55,57,59,61,-1,-1,-1,-1,-1,-1,-1,-1,-1,-1,-1,-1,-1,-1,-1,-1,-1,-1,-1,-1,-1,-1,-1,-1,-1,-1,-1,-1,-1,-1,-1,-1],"loss_changes":[9.5563E4,1.9246107E4,1.375925E4,5.798461E3,6.502876E3,6.264117E3,6.0217236E3,1.4001484E3,3.341838E3,1.4650669E3,5.4360986E3,6.936797E2,2.9311719E3,4.149867E3,1.3631184E3,2.24875E3,5.9982227E2,3.9354106E3,1.9770371E3,8.900049E2,1.762357E2,2.0932017E3,1.8946006E3,3.0912964E2,4.0749658E2,8.0979297E2,4.253457E2,3.1337402E3,6.636621E2,2.8318933E2,1.4661392E3,0E0,0E0,0E0,0E0,0E0,0E0,0E0,0E0,0E0,0E0,0E0,0E0,0E0,0E0,0E0,0E0,0E0,0E0,0E0,0E0,0E0,0E0,0E0,0E0,0E0,0E0,0E0,0E0,0E0,0E0,0E0,0E0],"parents":[2147483647,0,0,1,1,2,2,3,3,4,4,5,5,6,6,7,7,8,8,9,9,10,10,11,11,12,12,13,13,14,14,15,15,16,16,17,17,18,18,19,19,20,20,21,21,22,22,23,23,24,24,25,25,26,26,27,27,28,28,29,29,30,30],"right_children":[2,4,6,8,10,12,14,16,18,20,22,24,26,28,30,32,34,36,38,40,42,44,46,48,50,52,54,56,58,60,62,-1,-1,-1,-1,-1,-1,-1,-1,-1,-1,-1,-1,-1,-1,-1,-1,-1,-1,-1,-1,-1,-1,-1,-1,-1,-1,-1,-1,-1,-1,-1,-1],"split_conditions":[4.9E1,3.5E1,2.0953862E2,1.9E1,4.7496667E0,5.8E1,2.866694E1,8.830916E0,2.1129883E1,3.0312773E1,2.3469128E1,1.6767501E0,8.8E1,9.4E1,1.9350835E0,2.226477E1,1.7329024E2,1.198925E1,1.5522803E2,1.6950862E2,4.5E1,1.6950862E2,2.5937146E2,1.3967484E2,1.7644902E2,1.6999999E0,2.3219301E1,1.7642502E0,2.7776678E2,6.2E1,5.3E1,-1.961174E-2,-1.2206157E0,-7.9021245E-1,-1.3548888E0,2.5099105E-1,-5.6280583E-1,-1.7543453E-1,-9.822958E-1,1.7052851E0,8.5389274E-1,-9.029798E-1,8.529816E-2,7.295077E-1,8.8181003E-4,-1.4740004E-2,-9.8498154E-1,1.0601486E0,2.6048439E0,1.042282E0,7.4025154E-2,2.2948692E0,1.2300831E0,4.0268664E0,2.0452762E0,1.6743237E0,6.7803574E-1,9.3403625E-1,3.6610668E0,-4.5708752E-1,1.0129993E0,-8.4191315E-2,-1.5520599E0],"split_indices":[0,0,6,0,3,0,5,3,5,5,5,3,0,0,3,5,6,3,6,6,0,6,6,6,6,4,5,3,6,0,1,0,0,0,0,0,0,0,0,0,0,0,0,0,0,0,0,0,0,0,0,0,0,0,0,0,0,0,0,0,0,0,0],"split_type":[0,0,0,0,0,0,0,0,0,0,0,0,0,0,0,0,0,0,0,0,0,0,0,0,0,0,0,0,0,0,0,0,0,0,0,0,0,0,0,0,0,0,0,0,0,0,0,0,0,0,0,0,0,0,0,0,0,0,0,0,0,0,0],"sum_hessian":[1.489E3,1.102E3,3.87E2,7.59E2,3.43E2,1.72E2,2.15E2,2.53E2,5.06E2,7.5E1,2.68E2,5.7E1,1.15E2,1.81E2,3.4E1,6.3E1,1.9E2,2.87E2,2.19E2,6.9E1,6E0,1.74E2,9.4E1,9E0,4.8E1,9.6E1,1.9E1,1.73E2,8E0,7E0,2.7E1,2.7E1,3.6E1,2.7E1,1.63E2,8.3E1,2.04E2,3.7E1,1.82E2,1.8E1,5.1E1,3E0,3E0,5.9E1,1.15E2,2.9E1,6.5E1,5E0,4E0,4.3E1,5E0,8.4E1,1.2E1,1.4E1,5E0,4.2E1,1.31E2,2E0,6E0,1E0,6E0,1.6E1,1.1E1],"tree_param":{"num_deleted":"0","num_feature":"7","num_nodes":"63","size_leaf_vector":"1"}},{"base_weights":[5.1557586E-2,-3.616671E0,1.4315386E1,-6.765367E0,1.9960349E0,1.1839563E1,2.535386E1,-9.420249E0,-4.3650603E0,4.731612E0,-4.5765085E0,1.6639797E1,7.788359E0,2.6963263E1,-1.1530185E0,4.3389025E0,-9.785409E0,-1.720498E0,-6.7145967E0,9.832529E0,2.195537E0,2.1112056E0,-7.4883757E0,9.37213E0,1.9009092E1,2.7516403E0,1.2785199E1,3.210583E1,1.8257559E1,1.4262832E0,-4.6541888E-1,-5.75182E-1,-1.080572E0,1.0291902E0,-3.1153956E-1,-6.699496E-2,-7.947196E-1,1.5310758E0,5.43122E-1,6.7205817E-1,1.547584E-3,5.381077E-1,-5.694427E-1,-1.3988476E-1,-9.7500914E-1,1.8275963E0,5.867661E-1,2.0116374E0,9.7313386E-1,1.4552201E0,5.4234345E-2,1.4237324E0,1.522441E-1,3.5219123E0,1.8363562E0,1.949275E0,-3.8407174E-1],"categories":[],"categories_nodes":[],"categories_segments":[],"categories_sizes":[],"default_left":[0,0,0,0,0,0,0,0,0,0,0,0,0,0,0,0,0,0,0,0,0,0,0,0,0,0,0,0,0,0,0,0,0,0,0,0,0,0,0,0,0,0,0,0,0,0,0,0,0,0,0,0,0,0,0,0,0],"id":5,"left_children":[1,3,5,7,9,11,13,15,17,19,21,23,25,27,-1,29,31,33,35,37,39,41,43,45,47,49,51,53,55,-1,-1,-1,-1,-1,-1,-1,-1,-1,-1,-1,-1,-1,-1,-1,-1,-1,-1,-1,-1,-1,-1,-1,-1,-1,-1,-1,-1],"loss_changes":[7.8013016E4,2.097333E4,8.0352617E3,4.802E3,7.6989863E3,4.7515312E3,3.5757578E3,1.851209E3,2.480059E3,3.8851772E3,2.4695005E3,1.7848379E3,3.43796E3,1.7866172E3,0E0,9.5885E2,1.3823906E3,3.2157158E3,1.574208E3,2.3279824E3,2.0024653E3,1.0260552E3,1.1983662E3,8.288594E2,6.774551E2,1.8170736E3,1.1068145E3,7.223281E2,6.7536914E2,0E0,0E0,0E0,0E0,0E0,0E0,0E0,0E0,0E0,0E0,0E0,0E0,0E0,0E0,0E0,0E0,0E0,0E0,0E0,0E0,0E0,0E0,0E0,0E0,0E0,0E0,0E0,0E0],"parents":[2147483647,0,0,1,1,2,2,3,3,4,4,5,5,6,6,7,7,8,8,9,9,10,10,11,11,12,12,13,13,15,15,16,16,17,17,18,18,19,19,20,20,21,21,22,22,23,23,24,24,25,25,26,26,27,27,28,28],"right_children":[2,4,6,8,10,12,14,16,18,20,22,24,26,28,-1,30,32,34,36,38,40,42,44,46,48,50,52,54,56,-1,-1,-1,-1,-1,-1,-1,-1,-1,-1,-1,-1,-1,-1,-1,-1,-1,-1,-1,-1,-1,-1,-1,-1,-1,-1,-1,-1],"split_conditions":[5.4E1,3.5E1,7.9E1,2.2E1,2.41388E1,2.1628183E2,2.6000001E0,8.209263E0,1.9416653E1,1.6950862E2,7.32675E0,5.8E1,3.0774695E2,2.1980644E1,-1.1530185E0,2E1,8.168418E0,5.8246665E0,1.536658E2,1.1653834E1,6.133001E0,3.281978E1,2.2275713E2,1.6767501E0,1.6999999E0,1.4788337E0,1.17142515E1,6.8996673E0,1.11E2,1.4262832E0,-4.6541888E-1,-5.75182E-1,-1.080572E0,1.0291902E0,-3.1153956E-1,-6.699496E-2,-7.947196E-1,1.5310758E0,5.43122E-1,6.7205817E-1,1.547584E-3,5.381077E-1,-5.694427E-1,-1.3988476E-1,-9.7500914E-1,1.8275963E0,5.867661E-1,2.0116374E0,9.7313386E-1,1.4552201E0,5.4234345E-2,1.4237324E0,1.522441E-1,3.5219123E0,1.8363562E0,1.949275E0,-3.8407174E-1],"split_indices":[0,0,0,0,5,6,4,5,5,6,3,0,6,5,0,0,3,3,6,3,3,5,6,3,4,3,3,3,1,0,0,0,0,0,0,0,0,0,0,0,0,0,0,0,0,0,0,0,0,0,0,0,0,0,0,0,0],"split_type":[0,0,0,0,0,0,0,0,0,0,0,0,0,0,0,0,0,0,0,0,0,0,0,0,0,0,0,0,0,0,0,0,0,0,0,0,0,0,0,0,0,0,0,0,0,0,0,0,0,0,0,0,0,0,0,0,0],"sum_hessian":[1.489E3,1.185E3,3.04E2,7.59E2,4.26E2,2.5E2,5.4E1,3.59E2,4E2,3.01E2,1.25E2,1.13E2,1.37E2,5.2E1,2E0,9E0,3.5E2,1.89E2,2.11E2,9.9E1,2.02E2,3.8E1,8.7E1,2.9E1,8.4E1,6.9E1,6.8E1,3.1E1,2.1E1,4E0,5E0,7.2E1,2.78E2,1.9E1,1.7E2,3.6E1,1.75E2,4.3E1,5.6E1,6.5E1,1.37E2,2.7E1,1.1E1,2.4E1,6.3E1,7E0,2.2E1,7.4E1,1E1,1E1,5.9E1,6E1,8E0,2.4E1,7E0,2E1,1E0],"tree_param":{"num_deleted":"0","num_feature":"7","num_nodes":"57","size_leaf_vector":"1"}},{"base_weights":[5.6480646E-2,-4.160593E0,1.0227509E1,-7.4430776E0,-9.9850214E-1,7.624271E0,1.977471E1,-1.2791813E1,-6.6045346E0,2.1144578E0,-3.7080662E0,1.163444E1,3.0752811E0,2.1795424E1,4.318603E0,-1.1113943E1,-1.6928339E0,-2.7596297E0,-7.5209627E0,6.572805E0,-1.0844599E0,2.5636985E0,-4.7595077E0,1.4150638E1,5.361475E0,1.1824966E1,2.2800145E-1,2.2578884E1,-6.3619933E0,1.3053005E1,-3.7849705E0,-5.3392994E-1,-1.3100935E0,1.8659967E-1,-7.643797E-1,-4.2293283E-1,-8.5785675E-1,9.0388745E-1,4.0763527E-1,-3.1615314E-1,2.8873128E-1,9.535724E-1,-1.2628753E-1,-5.4761803E-1,1.8235914E-1,1.5762525E0,7.4177927E-1,8.506059E-1,4.008956E-2,1.4294686E0,4.0143695E-1,-2.787752E-1,8.98541E-1,2.8145986E0,1.9536638E0,-7.5836486E-1,-1.959341E-1,2.0029576E0,-6.000888E-2,4.3720713E-1,-1.099577E0],"categories":[],"categories_nodes":[],"categories_segments":[],"categories_sizes":[],"default_left":[0,0,0,0,0,0,0,0,0,0,0,0,0,0,0,0,0,0,0,0,0,0,0,0,0,0,0,0,0,0,0,0,0,0,0,0,0,0,0,0,0,0,0,0,0,0,0,0,0,0,0,0,0,0,0,0,0,0,0,0,0],"id":6,"left_children":[1,3,5,7,9,11,13,15,17,19,21,23,25,27,29,31,-1,33,35,37,39,41,43,45,47,49,51,53,55,57,59,-1,-1,-1,-1,-1,-1,-1,-1,-1,-1,-1,-1,-1,-1,-1,-1,-1,-1,-1,-1,-1,-1,-1,-1,-1,-1,-1,-1,-1,-1],"loss_changes":[6.3951598E4,1.0932576E4,1.0710273E4,2.234334E3,4.545744E3,6.257787E3,2.8104844E3,2.907578E2,1.5613359E3,3.5868608E3,1.9113867E3,2.8126074E3,4.0580903E3,1.9525859E3,8.987636E2,5.2670703E2,0E0,2.0023887E3,1.2239297E3,6.095796E2,1.2218276E3,1.1325591E3,1.1753145E3,1.2939102E3,8.3893396E2,7.1421533E2,3.2999116E3,8.0504297E2,1.276619E0,5.8353E2,4.5980582E2,0E0,0E0,0E0,0E0,0E0,0E0,0E0,0E0,0E0,0E0,0E0,0E0,0E0,0E0,0E0,0E0,0E0,0E0,0E0,0E0,0E0,0E0,0E0,0E0,0E0,0E0,0E0,0E0,0E0,0E0],"parents":[2147483647,0,0,1,1,2,2,3,3,4,4,5,5,6,6,7,7,8,8,9,9,10,10,11,11,12,12,13,13,14,14,15,15,17,17,18,18,19,19,20,20,21,21,22,22,23,23,24,24,25,25,26,26,27,27,28,28,29,29,30,30],"right_children":[2,4,6,8,10,12,14,16,18,20,22,24,26,28,30,32,-1,34,36,38,40,42,44,46,48,50,52,54,56,58,60,-1,-1,-1,-1,-1,-1,-1,-1,-1,-1,-1,-1,-1,-1,-1,-1,-1,-1,-1,-1,-1,-1,-1,-1,-1,-1,-1,-1,-1,-1],"split_conditions":[4.6E1,2.7E1,7.2E1,1.3E1,1.908E1,1.8847641E1,2.3000002E0,2.9E0,8.097585E0,1.2264251E1,1.5000412E2,1.1255917E1,1.5625937E2,3.6290424E1,5.9E1,9.301749E0,-1.6928339E0,2.2553934E1,1.7329024E2,5.2663336E0,3.8E1,1.0737167E1,2.442467E1,6.7E1,5.1E1,8.705916E0,3.149117E2,1.3897313E2,7.6E1,7.6E1,2.4896237E2,-5.3392994E-1,-1.3100935E0,1.8659967E-1,-7.643797E-1,-4.2293283E-1,-8.5785675E-1,9.0388745E-1,4.0763527E-1,-3.1615314E-1,2.8873128E-1,9.535724E-1,-1.2628753E-1,-5.4761803E-1,1.8235914E-1,1.5762525E0,7.4177927E-1,8.506059E-1,4.008956E-2,1.4294686E0,4.0143695E-1,-2.787752E-1,8.98541E-1,2.8145986E0,1.9536638E0,-7.5836486E-1,-1.959341E-1,2.0029576E0,-6.000888E-2,4.3720713E-1,-1.099577E0],"split_indices":[0,0,0,0,5,5,4,4,3,3,6,3,6,5,1,3,0,5,6,3,0,3,3,1,1,3,6,6,0,0,6,0,0,0,0,0,0,0,0,0,0,0,0,0,0,0,0,0,0,0,0,0,0,0,0,0,0,0,0,0,0],"split_type":[0,0,0,0,0,0,0,0,0,0,0,0,0,0,0,0,0,0,0,0,0,0,0,0,0,0,0,0,0,0,0,0,0,0,0,0,0,0,0,0,0,0,0,0,0,0,0,0,0,0,0,0,0,0,0,0,0,0,0,0,0],"sum_hessian":[1.489E3,1.053E3,4.36E2,5.16E2,5.37E2,3.44E2,9.2E1,6.8E1,4.48E2,2.5E2,2.87E2,1.82E2,1.62E2,8.1E1,1.1E1,5.1E1,1.7E1,8.7E1,3.61E2,1.04E2,1.46E2,4.1E1,2.46E2,1.29E2,5.3E1,3.9E1,1.23E2,7.9E1,2E0,5E0,6E0,1.4E1,3.7E1,4.5E1,4.2E1,8.9E1,2.72E2,5.1E1,5.3E1,9.6E1,5E1,1.4E1,2.7E1,2.22E2,2.4E1,1.03E2,2.6E1,3.2E1,2.1E1,2.9E1,1E1,9.2E1,3.1E1,2.5E1,5.4E1,1E0,1E0,3E0,2E0,3E0,3E0],"tree_param":{"num_deleted":"0","num_feature":"7","num_nodes":"61","size_leaf_vector":"1"}},{"base_weights":[5.560106E-2,-2.867306E0,1.2108635E1,-5.522807E0,1.7155696E0,1.6591469E1,7.956854E0,-8.488435E0,-4.026176E0,3.9533548E0,-3.7874002E0,1.4557354E1,2.7966587E1,1.0601432E1,1.1645719E0,-8.986561E0,4.748777E-2,-2.192522E0,-6.314611E0,8.252582E0,1.7539704E0,5.82738E0,-5.3124332E0,1.5136307E1,-6.016344E0,3.120521E0,1.5208936E1,6.2000804E0,1.4440573E1,-2.107459E0,1.006561E1,-9.126506E-1,1.2230142E0,9.580698E-1,-4.2901063E-1,2.4034467E-1,-4.047358E-1,-2.0849185E-1,-7.5423664E-1,-3.0267173E-1,9.7246915E-1,5.5967134E-1,-1.389602E-2,8.178755E-1,-1.9219445E-1,3.4062217E-3,-7.5748485E-1,1.6356289E0,9.124735E-1,-8.671318E-1,9.7428896E-2,1.846389E0,-5.3291894E-2,8.447797E-1,-2.1836007E-1,1.1278013E0,2.4520354E0,-5.8023065E-2,-1.3034809E0,1.331079E0,-4.1068625E-1],"categories":[],"categories_nodes":[],"categories_segments":[],"categories_sizes":[],"default_left":[0,0,0,0,0,0,0,0,0,0,0,0,0,0,0,0,0,0,0,0,0,0,0,0,0,0,0,0,0,0,0,0,0,0,0,0,0,0,0,0,0,0,0,0,0,0,0,0,0,0,0,0,0,0,0,0,0,0,0,0,0],"id":7,"left_children":[1,3,5,7,9,11,13,15,17,19,21,23,25,27,29,31,33,35,37,39,41,43,45,47,49,-1,51,53,55,57,59,-1,-1,-1,-1,-1,-1,-1,-1,-1,-1,-1,-1,-1,-1,-1,-1,-1,-1,-1,-1,-1,-1,-1,-1,-1,-1,-1,-1,-1,-1],"loss_changes":[5.2527273E4,1.46132705E4,5.284004E3,3.3390469E3,5.4456523E3,2.8091016E3,2.7359502E3,1.0804277E3,2.113627E3,2.9546006E3,1.9078031E3,1.5204082E3,3.517461E2,1.7691826E3,1.3026896E3,8.2421875E2,6.613701E2,2.4222368E3,1.152706E3,1.7894956E3,1.5210532E3,3.4370728E2,1.3429138E3,7.0883203E2,8.268817E1,0E0,3.1727393E2,1.0171858E3,1.572377E3,5.4315924E2,6.0657227E2,0E0,0E0,0E0,0E0,0E0,0E0,0E0,0E0,0E0,0E0,0E0,0E0,0E0,0E0,0E0,0E0,0E0,0E0,0E0,0E0,0E0,0E0,0E0,0E0,0E0,0E0,0E0,0E0,0E0,0E0],"parents":[2147483647,0,0,1,1,2,2,3,3,4,4,5,5,6,6,7,7,8,8,9,9,10,10,11,11,12,12,13,13,14,14,15,15,16,16,17,17,18,18,19,19,20,20,21,21,22,22,23,23,24,24,26,26,27,27,28,28,29,29,30,30],"right_children":[2,4,6,8,10,12,14,16,18,20,22,24,26,28,30,32,34,36,38,40,42,44,46,48,50,-1,52,54,56,58,60,-1,-1,-1,-1,-1,-1,-1,-1,-1,-1,-1,-1,-1,-1,-1,-1,-1,-1,-1,-1,-1,-1,-1,-1,-1,-1,-1,-1,-1,-1],"split_conditions":[5.5E1,3.5E1,2.0953862E2,1.9E1,2.41388E1,8.8E1,2.5697166E1,4.6E1,2.0972897E1,1.6950862E2,2.7934167E0,1.6537169E1,2.3219301E1,3.0551233E2,7.4E1,3.5821014E2,1.662249E1,1.198925E1,1.9302803E2,5.915347E1,6.133001E0,3.0009838E1,2.617453E2,9.843417E0,5.7E1,3.120521E0,8.3E1,1.8E0,7.2E1,7.1E1,1.3E0,-9.126506E-1,1.2230142E0,9.580698E-1,-4.2901063E-1,2.4034467E-1,-4.047358E-1,-2.0849185E-1,-7.5423664E-1,-3.0267173E-1,9.7246915E-1,5.5967134E-1,-1.389602E-2,8.178755E-1,-1.9219445E-1,3.4062217E-3,-7.5748485E-1,1.6356289E0,9.124735E-1,-8.671318E-1,9.7428896E-2,1.846389E0,-5.3291894E-2,8.447797E-1,-2.1836007E-1,1.1278013E0,2.4520354E0,-5.8023065E-2,-1.3034809E0,1.331079E0,-4.1068625E-1],"split_indices":[0,0,6,0,5,0,5,1,5,6,3,3,5,6,1,6,5,3,6,6,3,5,6,3,0,0,1,4,0,1,4,0,0,0,0,0,0,0,0,0,0,0,0,0,0,0,0,0,0,0,0,0,0,0,0,0,0,0,0,0,0],"split_type":[0,0,0,0,0,0,0,0,0,0,0,0,0,0,0,0,0,0,0,0,0,0,0,0,0,0,0,0,0,0,0,0,0,0,0,0,0,0,0,0,0,0,0,0,0,0,0,0,0,0,0,0,0,0,0,0,0,0,0,0,0],"sum_hessian":[1.489E3,1.199E3,2.9E2,7.59E2,4.4E2,1.38E2,1.52E2,2.53E2,5.06E2,3.13E2,1.27E2,1.19E2,1.9E1,1.09E2,4.3E1,2.39E2,1.4E1,2.82E2,2.24E2,1.05E2,2.08E2,1.7E1,1.1E2,1.16E2,3E0,1.4E1,5E0,5.2E1,5.7E1,3.2E1,1.1E1,2.38E2,1E0,4E0,1E1,8.1E1,2.01E2,5.1E1,1.73E2,1.2E1,9.3E1,6.8E1,1.4E2,1.3E1,4E0,3.3E1,7.7E1,9.5E1,2.1E1,2E0,1E0,4E0,1E0,4.1E1,1.1E1,4.5E1,1.2E1,2.9E1,3E0,9E0,2E0],"tree_param":{"num_deleted":"0","num_feature":"7","num_nodes":"61","size_leaf_vector":"1"}},{"base_weights":[5.7596024E-2,-2.579909E0,1.0933707E1,-4.9709053E0,1.5464784E0,8.992509E0,1.9099712E1,-7.004621E0,-3.132729E0,3.5618916E0,-3.4096637E0,1.2682692E1,5.8576465E0,2.0670908E1,-6.100754E0,-5.779536E0,-1.0361127E1,1.2831462E1,-3.4077077E0,7.4336424E0,1.5811859E0,1.9184198E0,-5.85332E0,1.3258659E1,-5.607136E0,2.0078256E0,1.00476465E1,2.48725E1,1.3810899E1,2.702982E-1,-9.936326E-1,-3.9347854E-2,-6.816339E-1,-1.9343615E-1,-1.1916965E0,1.7272208E0,1.1530661E-1,-9.844683E-2,-4.6763417E-1,-2.7473265E-1,8.7625676E-1,7.650446E-1,6.0002726E-2,5.1567936E-1,-5.453216E-1,-1.0263809E-1,-7.647385E-1,7.879154E-1,1.4509736E0,-8.0932313E-1,9.255753E-2,1.1882616E0,1.3273209E-2,1.1417292E0,7.133594E-2,2.8092325E0,1.3880446E0,9.8508114E-1,2.2729332E0],"categories":[],"categories_nodes":[],"categories_segments":[],"categories_sizes":[],"default_left":[0,0,0,0,0,0,0,0,0,0,0,0,0,0,0,0,0,0,0,0,0,0,0,0,0,0,0,0,0,0,0,0,0,0,0,0,0,0,0,0,0,0,0,0,0,0,0,0,0,0,0,0,0,0,0,0,0,0,0],"id":8,"left_children":[1,3,5,7,9,11,13,15,17,19,21,23,25,27,29,31,33,35,37,39,41,43,45,47,49,51,53,55,57,-1,-1,-1,-1,-1,-1,-1,-1,-1,-1,-1,-1,-1,-1,-1,-1,-1,-1,-1,-1,-1,-1,-1,-1,-1,-1,-1,-1,-1,-1],"loss_changes":[4.277005E4,1.1847098E4,4.441133E3,2.8191855E3,4.41715E3,2.667375E3,2.3038262E3,1.4204395E3,1.8040415E3,2.3962483E3,1.6777899E3,1.2120547E3,2.0768232E3,1.1552812E3,1.6192717E2,1.4827363E3,1.2224639E3,3.4310938E2,1.209706E3,1.4582266E3,1.2399851E3,1.0068775E3,7.542168E2,5.923418E2,7.2454666E1,1.2760375E3,7.8450586E2,7.072324E2,5.5308887E2,0E0,0E0,0E0,0E0,0E0,0E0,0E0,0E0,0E0,0E0,0E0,0E0,0E0,0E0,0E0,0E0,0E0,0E0,0E0,0E0,0E0,0E0,0E0,0E0,0E0,0E0,0E0,0E0,0E0,0E0],"parents":[2147483647,0,0,1,1,2,2,3,3,4,4,5,5,6,6,7,7,8,8,9,9,10,10,11,11,12,12,13,13,14,14,15,15,16,16,17,17,18,18,19,19,20,20,21,21,22,22,23,23,24,24,25,25,26,26,27,27,28,28],"right_children":[2,4,6,8,10,12,14,16,18,20,22,24,26,28,30,32,34,36,38,40,42,44,46,48,50,52,54,56,58,-1,-1,-1,-1,-1,-1,-1,-1,-1,-1,-1,-1,-1,-1,-1,-1,-1,-1,-1,-1,-1,-1,-1,-1,-1,-1,-1,-1,-1,-1],"split_conditions":[5.5E1,3.5E1,7.9E1,2.2E1,2.41388E1,2.1628183E2,2.3000002E0,2.6019806E1,-3.2116663E-1,1.6950862E2,7.32675E0,1.6537169E1,3.0774695E2,2.1749481E1,8.2E1,7.8454995E0,2.5234973E2,3.3E1,2.0077232E2,5.915347E1,2.1642504E0,3.281978E1,2.2275713E2,5.8E1,5.7E1,1.4788337E0,2.6434887E1,9.2E1,9.4E1,2.702982E-1,-9.936326E-1,-3.9347854E-2,-6.816339E-1,-1.9343615E-1,-1.1916965E0,1.7272208E0,1.1530661E-1,-9.844683E-2,-4.6763417E-1,-2.7473265E-1,8.7625676E-1,7.650446E-1,6.0002726E-2,5.1567936E-1,-5.453216E-1,-1.0263809E-1,-7.647385E-1,7.879154E-1,1.4509736E0,-8.0932313E-1,9.255753E-2,1.1882616E0,1.3273209E-2,1.1417292E0,7.133594E-2,2.8092325E0,1.3880446E0,9.8508114E-1,2.2729332E0],"split_indices":[0,0,0,0,5,6,4,5,3,6,3,3,6,5,0,3,6,0,6,6,3,5,6,0,0,3,5,1,0,0,0,0,0,0,0,0,0,0,0,0,0,0,0,0,0,0,0,0,0,0,0,0,0,0,0,0,0,0,0],"split_type":[0,0,0,0,0,0,0,0,0,0,0,0,0,0,0,0,0,0,0,0,0,0,0,0,0,0,0,0,0,0,0,0,0,0,0,0,0,0,0,0,0,0,0,0,0,0,0,0,0,0,0,0,0,0,0,0,0,0,0],"sum_hessian":[1.489E3,1.199E3,2.9E2,7.59E2,4.4E2,2.36E2,5.4E1,3.59E2,4E2,3.13E2,1.27E2,1.07E2,1.29E2,5.1E1,3E0,2.65E2,9.4E1,6E0,3.94E2,1.05E2,2.08E2,4E1,8.7E1,1.04E2,3E0,6.8E1,6.1E1,3E1,2.1E1,1E0,2E0,4.3E1,2.22E2,1.5E1,7.9E1,4E0,2E0,1.36E2,2.58E2,1.2E1,9.3E1,2.8E1,1.8E2,2.8E1,1.2E1,2.4E1,6.3E1,2.1E1,8.3E1,2E0,1E0,1E1,5.8E1,5.3E1,8E0,2.2E1,8E0,1.6E1,5E0],"tree_param":{"num_deleted":"0","num_feature":"7","num_nodes":"59","size_leaf_vector":"1"}},{"base_weights":[5.8795303E-2,-3.064257E0,7.5911484E0,-5.4939E0,-7.237558E-1,5.6124945E0,1.484969E1,-9.902272E0,-4.804208E0,1.6721988E0,-2.8093836E0,8.182449E0,1.0807292E0,1.6394398E1,3.0567138E0,-8.449925E0,-1.3547816E1,-5.1561394E0,3.0025215E0,5.2639184E0,-9.046906E-1,1.9113564E0,-3.6007266E0,9.9512005E0,1.637106E0,1.1172109E1,-8.156101E-1,1.703158E1,-6.061941E-1,1.0584491E1,-3.8323398E0,-3.5451826E-1,-1.0163641E0,-1.4458117E0,-6.747231E-1,6.1787957E-1,-5.331112E-1,8.962881E-1,-8.963551E-2,1.3504431E0,4.6280846E-1,-2.3698397E-1,1.8997045E-1,7.9865354E-1,-1.4114666E-1,-4.2332384E-1,2.1853061E-1,1.1168264E0,4.647083E-1,4.3894336E-1,-1.8151642E-1,-3.9615944E-1,1.5203135E0,6.351101E-1,-2.1454835E-1,1.5068471E0,2.394224E0,1.7437714E0,-2.0813039E-1,2.8473073E-1,-9.5539016E-1],"categories":[],"categories_nodes":[],"categories_segments":[],"categories_sizes":[],"default_left":[0,0,0,0,0,0,0,0,0,0,0,0,0,0,0,0,0,0,0,0,0,0,0,0,0,0,0,0,0,0,0,0,0,0,0,0,0,0,0,0,0,0,0,0,0,0,0,0,0,0,0,0,0,0,0,0,0,0,0,0,0],"id":9,"left_children":[1,3,5,7,9,11,13,15,17,19,21,23,25,27,29,31,33,35,37,39,41,43,45,47,49,51,53,55,-1,57,59,-1,-1,-1,-1,-1,-1,-1,-1,-1,-1,-1,-1,-1,-1,-1,-1,-1,-1,-1,-1,-1,-1,-1,-1,-1,-1,-1,-1,-1,-1],"loss_changes":[3.5073918E4,5.9896807E3,6.192912E3,1.5243232E3,2.6931213E3,4.0091748E3,1.6440391E3,2.5084912E2,1.2490791E3,2.3278838E3,1.082771E3,2.530668E3,2.4203337E3,1.2765664E3,6.6287445E2,4.010454E2,1.3878418E1,8.8575977E2,4.7280804E2,4.876577E2,6.085039E2,8.59116E2,9.132053E2,1.0648926E3,4.6405286E2,1.2803154E3,1.0334238E3,7.245371E2,0E0,5.5710223E2,2.94729E2,0E0,0E0,0E0,0E0,0E0,0E0,0E0,0E0,0E0,0E0,0E0,0E0,0E0,0E0,0E0,0E0,0E0,0E0,0E0,0E0,0E0,0E0,0E0,0E0,0E0,0E0,0E0,0E0,0E0,0E0],"parents":[2147483647,0,0,1,1,2,2,3,3,4,4,5,5,6,6,7,7,8,8,9,9,10,10,11,11,12,12,13,13,14,14,15,15,16,16,17,17,18,18,19,19,20,20,21,21,22,22,23,23,24,24,25,25,26,26,27,27,29,29,30,30],"right_children":[2,4,6,8,10,12,14,16,18,20,22,24,26,28,30,32,34,36,38,40,42,44,46,48,50,52,54,56,-1,58,60,-1,-1,-1,-1,-1,-1,-1,-1,-1,-1,-1,-1,-1,-1,-1,-1,-1,-1,-1,-1,-1,-1,-1,-1,-1,-1,-1,-1,-1,-1],"split_conditions":[4.6E1,2.7E1,7.2E1,1.3E1,1.908E1,2.0898611E1,2.3000002E0,2.9E0,5.3E1,1.2264251E1,1.5000412E2,1.3014252E1,1.4731151E2,3.6290424E1,5.9E1,9.301749E0,3.0201923E2,3.1841674E-1,1.5004919E1,1.3E1,3.8E1,1.0737167E1,2.442467E1,6.7E1,4.9E1,2.2314194E1,1.4341663E-1,9.4E1,-6.061941E-1,7.6E1,2.4896237E2,-3.5451826E-1,-1.0163641E0,-1.4458117E0,-6.747231E-1,6.1787957E-1,-5.331112E-1,8.962881E-1,-8.963551E-2,1.3504431E0,4.6280846E-1,-2.3698397E-1,1.8997045E-1,7.9865354E-1,-1.4114666E-1,-4.2332384E-1,2.1853061E-1,1.1168264E0,4.647083E-1,4.3894336E-1,-1.8151642E-1,-3.9615944E-1,1.5203135E0,6.351101E-1,-2.1454835E-1,1.5068471E0,2.394224E0,1.7437714E0,-2.0813039E-1,2.8473073E-1,-9.5539016E-1],"split_indices":[0,0,0,0,5,5,4,4,1,3,6,3,6,5,1,3,6,3,5,2,0,3,3,1,1,5,3,0,0,0,6,0,0,0,0,0,0,0,0,0,0,0,0,0,0,0,0,0,0,0,0,0,0,0,0,0,0,0,0,0,0],"split_type":[0,0,0,0,0,0,0,0,0,0,0,0,0,0,0,0,0,0,0,0,0,0,0,0,0,0,0,0,0,0,0,0,0,0,0,0,0,0,0,0,0,0,0,0,0,0,0,0,0,0,0,0,0,0,0,0,0,0,0,0,0],"sum_hessian":[1.489E3,1.053E3,4.36E2,5.16E2,5.37E2,3.44E2,9.2E1,6.8E1,4.48E2,2.5E2,2.87E2,2.19E2,1.25E2,8.1E1,1.1E1,5.1E1,1.7E1,4.29E2,1.9E1,1.04E2,1.46E2,4.1E1,2.46E2,1.72E2,4.7E1,1.9E1,1.06E2,7.9E1,2E0,5E0,6E0,1.4E1,3.7E1,1.4E1,3E0,6E0,4.23E2,7E0,1.2E1,6E0,9.8E1,9.6E1,5E1,1.4E1,2.7E1,2.22E2,2.4E1,1.39E2,3.3E1,2.6E1,2.1E1,4E0,1.5E1,1.6E1,9E1,6.4E1,1.5E1,3E0,2E0,3E0,3E0],"tree_param":{"num_deleted":"0","num_feature":"7","num_nodes":"61","size_leaf_vector":"1"}},{"base_weights":[5.7723425E-2,-2.1029472E0,8.967507E0,-4.057459E0,1.2701408E0,1.2478951E1,5.7187605E0,-2.4207628E0,-5.9277353E0,2.9370687E0,-2.828965E0,1.0844252E1,2.1663204E1,1.5026059E1,4.2061887E0,1.5764289E0,-4.058289E0,-1.9012651E0,-7.115438E0,6.293923E0,1.2204964E0,1.8512824E0,-4.9773874E0,1.2309223E1,4.7849903E0,2.5247066E0,1.3131529E1,7.6874385E0,1.9889404E1,1.1757634E1,2.5203626E0,7.50625E-2,2.0254636E0,-6.479997E-1,-2.349274E-1,-3.047614E-1,1.0816419E0,-3.0951938E-1,-7.752349E-1,1.0019821E0,3.1560072E-1,8.623835E-1,6.036206E-2,4.753587E-1,-4.765496E-1,-1.0208734E0,-3.388919E-1,1.4621419E0,8.3953094E-1,1.1254865E0,4.4225693E-2,1.5508101E0,-1.7522374E-1,1.2239717E0,6.8721615E-2,2.169161E0,3.2575608E-3,2.0869598E0,7.5608903E-1,2.279238E-2,6.3728106E-1],"categories":[],"categories_nodes":[],"categories_segments":[],"categories_sizes":[],"default_left":[0,0,0,0,0,0,0,0,0,0,0,0,0,0,0,0,0,0,0,0,0,0,0,0,0,0,0,0,0,0,0,0,0,0,0,0,0,0,0,0,0,0,0,0,0,0,0,0,0,0,0,0,0,0,0,0,0,0,0,0,0],"id":10,"left_children":[1,3,5,7,9,11,13,15,17,19,21,23,25,27,29,31,33,35,37,39,41,43,45,47,49,-1,51,53,55,57,59,-1,-1,-1,-1,-1,-1,-1,-1,-1,-1,-1,-1,-1,-1,-1,-1,-1,-1,-1,-1,-1,-1,-1,-1,-1,-1,-1,-1,-1,-1],"loss_changes":[2.870301E4,7.916441E3,3.2483047E3,2.3120664E3,3.0216238E3,1.8519551E3,2.090725E3,2.6704187E3,1.6793877E3,1.801675E3,1.2962734E3,1.00629785E3,2.7999414E2,5.965967E2,1.663513E3,1.8203162E3,1.1808711E3,1.2284343E3,6.750322E2,1.2076821E3,9.49285E2,8.100134E2,6.966682E2,7.4602246E2,6.97446E2,0E0,3.1015247E2,3.1025824E2,4.2872607E2,7.599812E2,9.700124E2,0E0,0E0,0E0,0E0,0E0,0E0,0E0,0E0,0E0,0E0,0E0,0E0,0E0,0E0,0E0,0E0,0E0,0E0,0E0,0E0,0E0,0E0,0E0,0E0,0E0,0E0,0E0,0E0,0E0,0E0],"parents":[2147483647,0,0,1,1,2,2,3,3,4,4,5,5,6,6,7,7,8,8,9,9,10,10,11,11,12,12,13,13,14,14,15,15,16,16,17,17,18,18,19,19,20,20,21,21,22,22,23,23,24,24,26,26,27,27,28,28,29,29,30,30],"right_children":[2,4,6,8,10,12,14,16,18,20,22,24,26,28,30,32,34,36,38,40,42,44,46,48,50,-1,52,54,56,58,60,-1,-1,-1,-1,-1,-1,-1,-1,-1,-1,-1,-1,-1,-1,-1,-1,-1,-1,-1,-1,-1,-1,-1,-1,-1,-1,-1,-1,-1,-1],"split_conditions":[5.5E1,3.5E1,2.0953862E2,2.1129883E1,2.41388E1,8.8E1,1.2261157E1,1.198925E1,2.5234973E2,1.6950862E2,7.32675E0,9.843417E0,2.1749481E1,4.6E1,3.1841674E-1,3.5216458E2,2.1E1,3.4322937E1,4.505917E0,1.1653834E1,8.0383325E-1,3.281978E1,2.2E1,6.3E1,1.5856354E1,2.5247066E0,8.3E1,1E-1,1.11E2,5.1E1,3.0774695E2,7.50625E-2,2.0254636E0,-6.479997E-1,-2.349274E-1,-3.047614E-1,1.0816419E0,-3.0951938E-1,-7.752349E-1,1.0019821E0,3.1560072E-1,8.623835E-1,6.036206E-2,4.753587E-1,-4.765496E-1,-1.0208734E0,-3.388919E-1,1.4621419E0,8.3953094E-1,1.1254865E0,4.4225693E-2,1.5508101E0,-1.7522374E-1,1.2239717E0,6.8721615E-2,2.169161E0,3.2575608E-3,2.0869598E0,7.5608903E-1,2.279238E-2,6.3728106E-1],"split_indices":[0,0,6,5,5,0,5,3,6,6,3,3,5,2,3,6,0,5,3,3,3,5,2,2,5,0,2,4,2,1,6,0,0,0,0,0,0,0,0,0,0,0,0,0,0,0,0,0,0,0,0,0,0,0,0,0,0,0,0,0,0],"split_type":[0,0,0,0,0,0,0,0,0,0,0,0,0,0,0,0,0,0,0,0,0,0,0,0,0,0,0,0,0,0,0,0,0,0,0,0,0,0,0,0,0,0,0,0,0,0,0,0,0,0,0,0,0,0,0,0,0,0,0,0,0],"sum_hessian":[1.489E3,1.199E3,2.9E2,7.59E2,4.4E2,1.38E2,1.52E2,4.06E2,3.53E2,3.13E2,1.27E2,1.19E2,1.9E1,2E1,1.32E2,1.18E2,2.88E2,8.1E1,2.72E2,1.05E2,2.08E2,4E1,8.7E1,9.5E1,2.4E1,1.2E1,7E0,9E0,1.1E1,2.3E1,1.09E2,1.14E2,4E0,1.18E2,1.7E2,7.5E1,6E0,3.8E1,2.34E2,4.7E1,5.8E1,1.5E1,1.93E2,2.8E1,1.2E1,1.9E1,6.8E1,5.8E1,3.7E1,9E0,1.5E1,6E0,1E0,5E0,4E0,1E1,1E0,6E0,1.7E1,6.9E1,4E1],"tree_param":{"num_deleted":"0","num_feature":"7","num_nodes":"61","size_leaf_vector":"1"}},{"base_weights":[6.277552E-2,-1.8266032E0,8.417036E0,-3.4921505E0,1.5172267E0,1.44984665E1,6.724772E0,-2.562696E0,-6.836301E0,4.923194E0,3.1533312E-2,1.2147169E1,2.6211545E0,1.2219645E1,4.5955496E0,1.4500852E0,-3.8782308E0,-1.6238536E0,-7.688535E0,8.102371E0,2.1450403E0,2.174268E0,-2.543315E0,1.3258756E1,1.600474E0,7.17679E0,1.5160424E1,9.897135E0,2.8342383E0,1.05755664E-1,1.6298045E0,-1.24864236E-1,-4.810659E-1,2.0433114E0,-3.323457E-1,-8.9814967E-1,-3.462071E-1,6.7538613E-1,1.6769751E0,-5.6589717E-1,3.0054182E-1,-3.8811937E-1,3.04879E-1,4.8150235E-1,-4.0186864E-1,1.4026722E0,1.6884385E-1,-1.6204072E-2,2.5222418E-1,8.7545663E-1,-5.6966938E-2,1.8420729E-1,1.5868843E0,1.3359116E0,3.4673584E-1,4.2173633E-1,-2.328497E-1],"categories":[],"categories_nodes":[],"categories_segments":[],"categories_sizes":[],"default_left":[0,0,0,0,0,0,0,0,0,0,0,0,0,0,0,0,0,0,0,0,0,0,0,0,0,0,0,0,0,0,0,0,0,0,0,0,0,0,0,0,0,0,0,0,0,0,0,0,0,0,0,0,0,0,0,0,0],"id":11,"left_children":[1,3,5,7,9,11,13,15,17,19,21,23,-1,25,27,29,31,33,35,37,39,41,43,45,47,49,51,53,55,-1,-1,-1,-1,-1,-1,-1,-1,-1,-1,-1,-1,-1,-1,-1,-1,-1,-1,-1,-1,-1,-1,-1,-1,-1,-1,-1,-1],"loss_changes":[2.3534076E4,6.7775767E3,2.7326328E3,2.5063682E3,2.0492354E3,1.3065195E3,2.4827012E3,3.368317E3,7.693467E2,1.0689858E3,1.5669022E3,5.7668164E2,0E0,7.809912E2,1.447313E3,9.036271E2,1.1709062E3,1.0425989E3,7.9406836E2,5.529585E2,4.668722E2,8.326562E2,1.4198105E3,3.850542E2,1.0156479E1,2.983192E2,3.198623E2,8.218093E2,8.6670514E2,0E0,0E0,0E0,0E0,0E0,0E0,0E0,0E0,0E0,0E0,0E0,0E0,0E0,0E0,0E0,0E0,0E0,0E0,0E0,0E0,0E0,0E0,0E0,0E0,0E0,0E0,0E0,0E0],"parents":[2147483647,0,0,1,1,2,2,3,3,4,4,5,5,6,6,7,7,8,8,9,9,10,10,11,11,13,13,14,14,15,15,16,16,17,17,18,18,19,19,20,20,21,21,22,22,23,23,24,24,25,25,26,26,27,27,28,28],"right_children":[2,4,6,8,10,12,14,16,18,20,22,24,-1,26,28,30,32,34,36,38,40,42,44,46,48,50,52,54,56,-1,-1,-1,-1,-1,-1,-1,-1,-1,-1,-1,-1,-1,-1,-1,-1,-1,-1,-1,-1,-1,-1,-1,-1,-1,-1,-1,-1],"split_conditions":[5.6E1,3.7E1,1.2783802E1,2.7343414E1,1.6950862E2,8.8E1,1.4621588E2,1.0324666E1,1.7329024E2,1.1653834E1,2.1129883E1,7.7E1,2.6211545E0,6.5E1,8.6425E-1,3.5216458E2,1.5698517E2,9E0,3.0247516E2,6.6E1,4.149638E1,2.1977399E2,2.7934167E0,5.4E0,2.968417E0,6.4E1,1.30447235E1,2.4535526E1,2.866694E1,1.05755664E-1,1.6298045E0,-1.24864236E-1,-4.810659E-1,2.0433114E0,-3.323457E-1,-8.9814967E-1,-3.462071E-1,6.7538613E-1,1.6769751E0,-5.6589717E-1,3.0054182E-1,-3.8811937E-1,3.04879E-1,4.8150235E-1,-4.0186864E-1,1.4026722E0,1.6884385E-1,-1.6204072E-2,2.5222418E-1,8.7545663E-1,-5.6966938E-2,1.8420729E-1,1.5868843E0,1.3359116E0,3.4673584E-1,4.2173633E-1,-2.328497E-1],"split_indices":[0,0,5,5,6,0,6,3,6,3,5,2,0,0,3,6,6,1,6,2,6,6,3,4,3,1,5,5,5,0,0,0,0,0,0,0,0,0,0,0,0,0,0,0,0,0,0,0,0,0,0,0,0,0,0,0,0],"split_type":[0,0,0,0,0,0,0,0,0,0,0,0,0,0,0,0,0,0,0,0,0,0,0,0,0,0,0,0,0,0,0,0,0,0,0,0,0,0,0,0,0,0,0,0,0,0,0,0,0,0,0,0,0,0,0,0,0],"sum_hessian":[1.489E3,1.215E3,2.74E2,8.11E2,4.04E2,5.8E1,2.16E2,6.36E2,1.75E2,1.22E2,2.82E2,5E1,8E0,5.9E1,1.57E2,1.57E2,4.79E2,2.5E1,1.5E2,5.6E1,6.6E1,1.54E2,1.28E2,4.5E1,5E0,2.3E1,3.6E1,3.8E1,1.19E2,1.54E2,3E0,1.26E2,3.53E2,1E0,2.4E1,1.14E2,3.6E1,5E1,6E0,6E0,6E1,1.9E1,1.35E2,2.1E1,1.07E2,4.2E1,3E0,2E0,3E0,1.9E1,4E0,2E0,3.4E1,2.4E1,1.4E1,9.4E1,2.5E1],"tree_param":{"num_deleted":"0","num_feature":"7","num_nodes":"57","size_leaf_vector":"1"}},{"base_weights":[6.493389E-2,-2.24853E0,5.644627E0,-4.8536787E0,-8.9586514E-1,4.088926E0,1.1355082E1,5.238716E0,-5.127383E0,2.907946E0,-1.8265024E0,6.596039E0,1.2491068E0,1.2352121E1,-7.824836E-1,1.3276267E1,-2.332363E0,-9.95282E0,-4.6782656E0,6.3265915E0,3.9307874E-1,4.7833446E-1,-3.1319797E0,8.128811E0,2.7838833E0,5.41663E0,-9.233971E-1,1.3642043E1,4.059327E0,7.861292E0,-7.541007E0,8.41877E-2,1.6174396E0,1.7717883E-1,-4.8273855E-1,1.5158902E-1,-1.0416555E0,-5.020055E-1,2.674496E-1,1.2566643E0,4.2446515E-1,1.5110236E-1,-6.756851E-1,-7.929843E-1,9.0928E-2,-4.8926112E-1,-1.20983206E-1,9.492776E-1,2.5739518E-1,5.410443E-1,-1.2824957E-1,-2.081662E-1,7.5089294E-1,4.0546614E-1,-2.716401E-1,1.4888297E0,5.9623766E-1,1.2938126E0,1.2688069E-1,9.632924E-1,1.2731972E-1,-8.3635473E-1,-2.1254234E-1],"categories":[],"categories_nodes":[],"categories_segments":[],"categories_sizes":[],"default_left":[0,0,0,0,0,0,0,0,0,0,0,0,0,0,0,0,0,0,0,0,0,0,0,0,0,0,0,0,0,0,0,0,0,0,0,0,0,0,0,0,0,0,0,0,0,0,0,0,0,0,0,0,0,0,0,0,0,0,0,0,0,0,0],"id":12,"left_children":[1,3,5,7,9,11,13,15,17,19,21,23,25,27,29,31,33,35,37,39,41,43,45,47,49,51,53,55,57,59,61,-1,-1,-1,-1,-1,-1,-1,-1,-1,-1,-1,-1,-1,-1,-1,-1,-1,-1,-1,-1,-1,-1,-1,-1,-1,-1,-1,-1,-1,-1,-1,-1],"loss_changes":[1.9246236E4,3.709835E3,3.8357734E3,1.0213008E3,2.4655898E3,2.4480732E3,1.1351172E3,6.3949445E2,7.141221E2,1.1753624E3,1.6834802E3,1.0466699E3,1.4807972E3,8.645713E2,5.266353E2,1.6656543E2,6.99928E1,1.7002539E2,8.251572E2,7.001609E2,6.496679E2,7.427742E2,1.2022375E3,9.6052734E2,5.836905E2,8.941964E2,9.749873E2,6.194707E2,3.056781E2,3.442212E1,4.496582E0,0E0,0E0,0E0,0E0,0E0,0E0,0E0,0E0,0E0,0E0,0E0,0E0,0E0,0E0,0E0,0E0,0E0,0E0,0E0,0E0,0E0,0E0,0E0,0E0,0E0,0E0,0E0,0E0,0E0,0E0,0E0,0E0],"parents":[2147483647,0,0,1,1,2,2,3,3,4,4,5,5,6,6,7,7,8,8,9,9,10,10,11,11,12,12,13,13,14,14,15,15,16,16,17,17,18,18,19,19,20,20,21,21,22,22,23,23,24,24,25,25,26,26,27,27,28,28,29,29,30,30],"right_children":[2,4,6,8,10,12,14,16,18,20,22,24,26,28,30,32,34,36,38,40,42,44,46,48,50,52,54,56,58,60,62,-1,-1,-1,-1,-1,-1,-1,-1,-1,-1,-1,-1,-1,-1,-1,-1,-1,-1,-1,-1,-1,-1,-1,-1,-1,-1,-1,-1,-1,-1,-1,-1],"split_conditions":[4.6E1,2.2E1,7.2E1,8.209263E0,5.8246665E0,1.8847641E1,2.884721E1,2E1,1E1,1.792966E1,1.9924197E2,1.1255917E1,3.7871668E0,1.9000002E0,1.4788337E0,1.7E1,1.8351751E1,1.4773164E1,5.4E1,3.3E1,6.5E1,8.835305E0,2.9566418E2,6.7E1,5.1E1,3.9E1,1.8360323E2,9.1E1,5.9549993E-1,-1.0586667E0,7.3E1,8.41877E-2,1.6174396E0,1.7717883E-1,-4.8273855E-1,1.5158902E-1,-1.0416555E0,-5.020055E-1,2.674496E-1,1.2566643E0,4.2446515E-1,1.5110236E-1,-6.756851E-1,-7.929843E-1,9.0928E-2,-4.8926112E-1,-1.20983206E-1,9.492776E-1,2.5739518E-1,5.410443E-1,-1.2824957E-1,-2.081662E-1,7.5089294E-1,4.0546614E-1,-2.716401E-1,1.4888297E0,5.9623766E-1,1.2938126E0,1.2688069E-1,9.632924E-1,1.2731972E-1,-8.3635473E-1,-2.1254234E-1],"split_indices":[0,0,0,5,3,5,5,0,0,5,6,3,3,4,3,0,3,5,2,0,1,6,6,1,1,2,6,2,3,3,1,0,0,0,0,0,0,0,0,0,0,0,0,0,0,0,0,0,0,0,0,0,0,0,0,0,0,0,0,0,0,0,0],"split_type":[0,0,0,0,0,0,0,0,0,0,0,0,0,0,0,0,0,0,0,0,0,0,0,0,0,0,0,0,0,0,0,0,0,0,0,0,0,0,0,0,0,0,0,0,0,0,0,0,0,0,0,0,0,0,0,0,0,0,0,0,0,0,0],"sum_hessian":[1.489E3,1.053E3,4.36E2,3.59E2,6.94E2,3.44E2,9.2E1,9E0,3.5E2,1.36E2,5.58E2,1.82E2,1.62E2,8.5E1,7E0,4E0,5E0,2.8E1,3.22E2,5.7E1,7.9E1,2.02E2,3.56E2,1.29E2,5.3E1,5.5E1,1.07E2,7.3E1,1.2E1,3E0,4E0,1E0,3E0,2E0,3E0,1E0,2.7E1,3.08E2,1.4E1,1.3E1,4.4E1,6.9E1,1E1,9E0,1.93E2,1.85E2,1.71E2,1.03E2,2.6E1,3.2E1,2.1E1,1.2E1,4.3E1,2.8E1,7.9E1,6.2E1,1.1E1,2E0,1E1,2E0,1E0,3E0,1E0],"tree_param":{"num_deleted":"0","num_feature":"7","num_nodes":"63","size_leaf_vector":"1"}},{"base_weights":[6.243996E-2,-1.4890089E0,6.9224377E0,-3.0053518E0,1.0359575E0,1.224232E1,5.4441175E0,-2.2505631E0,-5.672054E0,2.145091E0,-2.6569762E0,1.0146817E1,2.2756581E0,9.494526E0,3.2817073E0,1.01250805E-1,-3.5369751E0,-5.0930357E-1,-6.4518547E0,3.593333E0,-4.8106772E-1,7.865422E-1,-4.2244096E0,1.1096592E1,1.1740717E0,4.4618306E0,1.2073877E1,7.8924484E0,1.9350516E0,-3.0622838E-2,1.6950638E0,-3.8666496E-1,2.0634244E-1,1.966246E0,-2.3199502E-1,-7.519298E-1,-2.7458113E-1,6.527401E-1,2.2161134E-1,-2.379184E-1,1.8583922E-1,-7.875813E-2,1.7315012E0,-3.9138865E-2,-6.8895084E-1,1.1775627E0,1.0228195E-1,-4.357821E-2,2.087944E-1,5.944786E-1,1.9671394E-2,1.0536673E0,1.8634967E0,1.0534364E0,1.0267986E-1,4.2733856E-2,5.2398103E-1],"categories":[],"categories_nodes":[],"categories_segments":[],"categories_sizes":[],"default_left":[0,0,0,0,0,0,0,0,0,0,0,0,0,0,0,0,0,0,0,0,0,0,0,0,0,0,0,0,0,0,0,0,0,0,0,0,0,0,0,0,0,0,0,0,0,0,0,0,0,0,0,0,0,0,0,0,0],"id":13,"left_children":[1,3,5,7,9,11,13,15,17,19,21,23,-1,25,27,29,31,33,35,37,39,41,43,45,47,49,51,53,55,-1,-1,-1,-1,-1,-1,-1,-1,-1,-1,-1,-1,-1,-1,-1,-1,-1,-1,-1,-1,-1,-1,-1,-1,-1,-1,-1,-1],"loss_changes":[1.5868282E4,4.658831E3,2.096087E3,1.5169604E3,1.8775515E3,1.0690195E3,1.8694668E3,1.7974463E3,6.690425E2,1.3404948E3,5.754561E2,4.2159814E2,0E0,9.1970996E2,8.7262634E2,1.4538693E3,7.169614E2,8.8566644E2,5.5297217E2,9.028091E2,5.639329E2,8.9824396E2,7.4302637E2,3.0261572E2,9.737094E0,1.6960492E2,2.9785107E2,5.696144E2,5.558152E2,0E0,0E0,0E0,0E0,0E0,0E0,0E0,0E0,0E0,0E0,0E0,0E0,0E0,0E0,0E0,0E0,0E0,0E0,0E0,0E0,0E0,0E0,0E0,0E0,0E0,0E0,0E0,0E0],"parents":[2147483647,0,0,1,1,2,2,3,3,4,4,5,5,6,6,7,7,8,8,9,9,10,10,11,11,13,13,14,14,15,15,16,16,17,17,18,18,19,19,20,20,21,21,22,22,23,23,24,24,25,25,26,26,27,27,28,28],"right_children":[2,4,6,8,10,12,14,16,18,20,22,24,-1,26,28,30,32,34,36,38,40,42,44,46,48,50,52,54,56,-1,-1,-1,-1,-1,-1,-1,-1,-1,-1,-1,-1,-1,-1,-1,-1,-1,-1,-1,-1,-1,-1,-1,-1,-1,-1,-1,-1],"split_conditions":[5.6E1,3.5E1,1.2783802E1,2.7343414E1,2.549908E1,8.8E1,1.5625937E2,1.3014252E1,1.7329024E2,1.55205E1,2.617453E2,7.7E1,2.2756581E0,6.3E1,7.1841663E-1,3.5216458E2,1.2100002E1,9E0,3.0247516E2,1.6950862E2,2.0905918E1,6.1E1,4.2E1,5.4E0,2.968417E0,1.4692621E2,9E1,2.6434887E1,3.0774695E2,-3.0622838E-2,1.6950638E0,-3.8666496E-1,2.0634244E-1,1.966246E0,-2.3199502E-1,-7.519298E-1,-2.7458113E-1,6.527401E-1,2.2161134E-1,-2.379184E-1,1.8583922E-1,-7.875813E-2,1.7315012E0,-3.9138865E-2,-6.8895084E-1,1.1775627E0,1.0228195E-1,-4.357821E-2,2.087944E-1,5.944786E-1,1.9671394E-2,1.0536673E0,1.8634967E0,1.0534364E0,1.0267986E-1,4.2733856E-2,5.2398103E-1],"split_indices":[0,0,5,5,5,0,6,3,6,3,6,2,0,0,3,6,4,1,6,6,3,2,0,4,3,6,0,5,6,0,0,0,0,0,0,0,0,0,0,0,0,0,0,0,0,0,0,0,0,0,0,0,0,0,0,0,0],"split_type":[0,0,0,0,0,0,0,0,0,0,0,0,0,0,0,0,0,0,0,0,0,0,0,0,0,0,0,0,0,0,0,0,0,0,0,0,0,0,0,0,0,0,0,0,0,0,0,0,0,0,0,0,0,0,0,0,0],"sum_hessian":[1.489E3,1.215E3,2.74E2,7.59E2,4.56E2,5.8E1,2.16E2,5.93E2,1.66E2,3.51E2,1.05E2,5E1,8E0,7.4E1,1.42E2,2.1E2,3.83E2,2.2E1,1.44E2,2.26E2,1.25E2,3.3E1,7.2E1,4.5E1,5E0,2.6E1,4.8E1,3.1E1,1.11E2,2.06E2,4E0,3.62E2,2.1E1,1E0,2.1E1,1.11E2,3.3E1,7.1E1,1.55E2,6.9E1,5.6E1,3.1E1,2E0,3E1,4.2E1,4.2E1,3E0,2E0,3E0,1.9E1,7E0,4.1E1,7E0,2.2E1,9E0,7.7E1,3.4E1],"tree_param":{"num_deleted":"0","num_feature":"7","num_nodes":"57","size_leaf_vector":"1"}},{"base_weights":[6.4863175E-2,-2.438116E0,3.552056E0,-4.2238846E0,-1.366769E0,1.8305234E0,7.407005E0,5.916865E0,-4.498468E0,3.861007E0,-1.701046E0,4.898132E0,9.630856E-2,6.5273337E0,1.6675425E1,1.19683275E1,-1.3179703E0,-4.6852117E0,5.9619603E0,-5.3047295E0,5.6872005E0,-1.0952569E0,-4.2815323E0,7.724378E0,2.9005203E0,6.625496E0,-8.753735E-1,9.9827E0,4.4328556E0,9.020813E0,2.036611E0,8.1509404E-2,1.4552863E0,1.7927666E-1,-3.989384E-1,-8.6864865E-1,-4.2601338E-1,1.1285769E0,-3.1237718E-1,9.8023415E-2,-6.757769E-1,-3.6503345E-1,6.953718E-1,8.946766E-2,-2.163283E-1,-5.106445E-1,3.405849E-1,8.756111E-1,4.4644207E-2,5.271776E-1,7.558052E-2,1.154752E0,3.6833373E-1,-2.693089E-1,2.770865E-1,1.5705587E0,8.6803E-1,6.914652E-1,9.79739E-2,1.1059921E0,-1.6069146E-1],"categories":[],"categories_nodes":[],"categories_segments":[],"categories_sizes":[],"default_left":[0,0,0,0,0,0,0,0,0,0,0,0,0,0,0,0,0,0,0,0,0,0,0,0,0,0,0,0,0,0,0,0,0,0,0,0,0,0,0,0,0,0,0,0,0,0,0,0,0,0,0,0,0,0,0,0,0,0,0,0,0],"id":14,"left_children":[1,3,5,7,9,11,13,15,17,19,21,23,25,27,29,31,33,35,37,39,41,43,45,47,49,51,53,55,57,59,-1,-1,-1,-1,-1,-1,-1,-1,-1,-1,-1,-1,-1,-1,-1,-1,-1,-1,-1,-1,-1,-1,-1,-1,-1,-1,-1,-1,-1,-1,-1],"loss_changes":[1.3013935E4,1.6548657E3,4.1209316E3,9.3157275E2,9.5722156E2,2.2977217E3,1.4565596E3,4.098059E2,6.471675E2,5.825365E2,7.956847E2,8.583313E2,1.7631693E3,1.2367305E3,2.6829346E2,1.3226764E2,4.8702354E1,4.9366113E2,3.2547833E2,6.1418E1,3.565157E2,8.8606055E2,6.325089E2,4.766599E2,4.6898273E2,4.787959E2,1.6113958E3,3.5560156E2,9.530576E2,1.6946991E2,0E0,0E0,0E0,0E0,0E0,0E0,0E0,0E0,0E0,0E0,0E0,0E0,0E0,0E0,0E0,0E0,0E0,0E0,0E0,0E0,0E0,0E0,0E0,0E0,0E0,0E0,0E0,0E0,0E0,0E0,0E0],"parents":[2147483647,0,0,1,1,2,2,3,3,4,4,5,5,6,6,7,7,8,8,9,9,10,10,11,11,12,12,13,13,14,14,15,15,16,16,17,17,18,18,19,19,20,20,21,21,22,22,23,23,24,24,25,25,26,26,27,27,28,28,29,29],"right_children":[2,4,6,8,10,12,14,16,18,20,22,24,26,28,30,32,34,36,38,40,42,44,46,48,50,52,54,56,58,60,-1,-1,-1,-1,-1,-1,-1,-1,-1,-1,-1,-1,-1,-1,-1,-1,-1,-1,-1,-1,-1,-1,-1,-1,-1,-1,-1,-1,-1,-1,-1],"split_conditions":[3.9E1,2.1E1,6.2E1,8.209263E0,2.1163337E0,1.8602466E2,9.4E1,2E1,7.2E1,9.835975E0,2.8291512E1,8.168418E0,1.3809167E0,1.5698517E2,3.8725834E0,1.7E1,1.9E1,1E1,7.4371667E0,3.4E1,1.5E1,1.4007999E1,3.7E1,6.7E1,1.6418526E1,4.2E1,3.1407715E2,4.8E1,4.930917E0,1.03E2,2.036611E0,8.1509404E-2,1.4552863E0,1.7927666E-1,-3.989384E-1,-8.6864865E-1,-4.2601338E-1,1.1285769E0,-3.1237718E-1,9.8023415E-2,-6.757769E-1,-3.6503345E-1,6.953718E-1,8.946766E-2,-2.163283E-1,-5.106445E-1,3.405849E-1,8.756111E-1,4.4644207E-2,5.271776E-1,7.558052E-2,1.154752E0,3.6833373E-1,-2.693089E-1,2.770865E-1,1.5705587E0,8.6803E-1,6.914652E-1,9.79739E-2,1.1059921E0,-1.6069146E-1],"split_indices":[0,0,0,5,3,6,0,0,2,5,5,3,3,6,3,0,2,0,3,0,1,3,0,1,5,1,6,1,3,0,0,0,0,0,0,0,0,0,0,0,0,0,0,0,0,0,0,0,0,0,0,0,0,0,0,0,0,0,0,0,0],"split_type":[0,0,0,0,0,0,0,0,0,0,0,0,0,0,0,0,0,0,0,0,0,0,0,0,0,0,0,0,0,0,0,0,0,0,0,0,0,0,0,0,0,0,0,0,0,0,0,0,0,0,0,0,0,0,0,0,0,0,0,0,0],"sum_hessian":[1.489E3,8.67E2,6.22E2,3.24E2,5.43E2,4.31E2,1.91E2,8E0,3.16E2,3.2E1,5.11E2,1.55E2,2.76E2,1.76E2,1.5E1,4E0,4E0,3.11E2,5E0,5E0,2.7E1,4.15E2,9.6E1,6.3E1,9.2E1,3.5E1,2.41E2,6.5E1,1.11E2,6E0,9E0,1E0,3E0,2E0,2E0,2.8E1,2.83E2,3E0,2E0,1E0,4E0,3E0,2.4E1,1.45E2,2.7E2,8.7E1,9E0,5.5E1,8E0,4.3E1,4.9E1,1.2E1,2.3E1,1.61E2,8E1,1E1,5.5E1,6.4E1,4.7E1,5E0,1E0],"tree_param":{"num_deleted":"0","num_feature":"7","num_nodes":"61","size_leaf_vector":"1"}},{"base_weights":[6.4792E-2,-1.2067349E0,5.6870174E0,-3.1015964E0,1.9447953E-1,1.0303417E1,4.4056597E0,-4.9799924E0,-2.1090786E0,9.238137E-1,-3.2343793E0,8.466845E0,1.9565842E0,7.742094E0,2.6249723E0,-3.9251503E-3,-5.645556E0,-5.583489E0,-1.60066E0,2.5656738E0,-9.849264E-1,-1.8083868E0,-8.484875E0,1.0580561E1,4.3500295E0,3.463004E0,9.941958E0,6.949498E0,1.6045691E0,6.9205093E-1,-3.6966953E-1,-5.0180715E-1,-9.083156E-1,-4.1385126E-1,-8.599702E-1,1.2170788E0,-1.8294239E-1,2.017862E-1,6.694296E-1,-1.8292092E-1,2.3180084E-1,-2.7132988E-1,4.9029237E-1,-9.7261095E-1,4.273296E-1,4.8582336E-1,1.3619117E0,1.2377009E0,2.6776195E-1,-1.9586775E-2,5.013891E-1,1.0669883E0,1.4022338E-1,1.5873166E0,3.644014E-1,2.190619E-1,-4.885226E-1],"categories":[],"categories_nodes":[],"categories_segments":[],"categories_sizes":[],"default_left":[0,0,0,0,0,0,0,0,0,0,0,0,0,0,0,0,0,0,0,0,0,0,0,0,0,0,0,0,0,0,0,0,0,0,0,0,0,0,0,0,0,0,0,0,0,0,0,0,0,0,0,0,0,0,0,0,0],"id":15,"left_children":[1,3,5,7,9,11,13,15,17,19,21,23,-1,25,27,29,31,33,35,37,39,41,43,45,47,49,51,53,55,-1,-1,-1,-1,-1,-1,-1,-1,-1,-1,-1,-1,-1,-1,-1,-1,-1,-1,-1,-1,-1,-1,-1,-1,-1,-1,-1,-1],"loss_changes":[1.0658591E4,3.2292134E3,1.5813027E3,9.533613E2,1.7535366E3,8.379951E2,1.2689053E3,5.8949414E2,5.916571E2,1.8139124E3,9.055775E2,3.9776514E2,0E0,6.7157764E2,6.1987366E2,5.881306E2,2.930752E2,1.5181921E2,9.610875E2,6.8988293E2,7.515877E2,6.084713E2,4.5329553E2,5.0762622E2,2.2192267E2,1.5419342E2,2.8963623E2,7.3857837E2,4.5569275E2,0E0,0E0,0E0,0E0,0E0,0E0,0E0,0E0,0E0,0E0,0E0,0E0,0E0,0E0,0E0,0E0,0E0,0E0,0E0,0E0,0E0,0E0,0E0,0E0,0E0,0E0,0E0,0E0],"parents":[2147483647,0,0,1,1,2,2,3,3,4,4,5,5,6,6,7,7,8,8,9,9,10,10,11,11,13,13,14,14,15,15,16,16,17,17,18,18,19,19,20,20,21,21,22,22,23,23,24,24,25,25,26,26,27,27,28,28],"right_children":[2,4,6,8,10,12,14,16,18,20,22,24,-1,26,28,30,32,34,36,38,40,42,44,46,48,50,52,54,56,-1,-1,-1,-1,-1,-1,-1,-1,-1,-1,-1,-1,-1,-1,-1,-1,-1,-1,-1,-1,-1,-1,-1,-1,-1,-1,-1,-1],"split_conditions":[5.6E1,2.7E1,1.2783802E1,2E1,2.7598173E1,8.8E1,1.5625937E2,1.1966953E1,1.3E1,1.4605916E1,4.6E1,6.1E1,1.9565842E0,6.3E1,3.1841674E-1,1.699967E1,3.1212229E1,2.2000003E0,9E0,6.6E1,2.442467E1,5.3E1,1.7547586E1,4.4E1,6.090812E0,5.8E1,1.6999999E0,5.1E1,3.5377213E1,6.9205093E-1,-3.6966953E-1,-5.0180715E-1,-9.083156E-1,-4.1385126E-1,-8.599702E-1,1.2170788E0,-1.8294239E-1,2.017862E-1,6.694296E-1,-1.8292092E-1,2.3180084E-1,-2.7132988E-1,4.9029237E-1,-9.7261095E-1,4.273296E-1,4.8582336E-1,1.3619117E0,1.2377009E0,2.6776195E-1,-1.9586775E-2,5.013891E-1,1.0669883E0,1.4022338E-1,1.5873166E0,3.644014E-1,2.190619E-1,-4.885226E-1],"split_indices":[0,0,5,2,5,0,6,5,0,3,1,1,0,0,3,3,5,4,1,2,3,2,3,1,5,0,4,1,5,0,0,0,0,0,0,0,0,0,0,0,0,0,0,0,0,0,0,0,0,0,0,0,0,0,0,0,0],"split_type":[0,0,0,0,0,0,0,0,0,0,0,0,0,0,0,0,0,0,0,0,0,0,0,0,0,0,0,0,0,0,0,0,0,0,0,0,0,0,0,0,0,0,0,0,0,0,0,0,0,0,0,0,0,0,0,0,0],"sum_hessian":[1.489E3,1.215E3,2.74E2,5.16E2,6.99E2,5.8E1,2.16E2,1.77E2,3.39E2,5.77E2,1.22E2,5E1,8E0,7.4E1,1.42E2,2.1E1,1.56E2,4.2E1,2.97E2,3.1E2,2.67E2,9.7E1,2.5E1,3.2E1,1.8E1,2.6E1,4.8E1,2.6E1,1.16E2,7E0,1.4E1,1.34E2,2.2E1,3E1,1.2E1,4E0,2.93E2,2.75E2,3.5E1,2.13E2,5.4E1,8.6E1,1.1E1,2.3E1,2E0,1.2E1,2E1,2E0,1.6E1,8E0,1.8E1,4.4E1,4E0,6E0,2E1,1.07E2,9E0],"tree_param":{"num_deleted":"0","num_feature":"7","num_nodes":"57","size_leaf_vector":"1"}},{"base_weights":[6.364673E-2,-1.9983752E0,2.9364738E0,-3.4604971E0,-1.1211913E0,2.0501313E0,7.9656296E0,5.4021096E0,-3.7012005E0,3.3380795E0,-1.4064155E0,4.7332582E0,4.9149656E-1,6.559153E0,1.432435E1,1.0945202E1,-1.2214047E0,-3.8714201E0,5.7670865E0,-5.116644E0,5.0305886E0,5.29857E-1,-2.0532193E0,6.514416E0,2.6260626E0,2.3600466E0,-1.939691E0,7.791856E0,-1.6574773E0,6.8552284E0,1.7096204E0,8.6581044E-2,1.3248597E0,1.5657888E-1,-3.6014634E-1,-3.6440748E-1,-9.761136E-1,1.0576543E0,-2.5678825E-1,8.303299E-2,-6.472105E-1,6.9257754E-1,-5.7310056E-2,-6.3421947E-1,9.761403E-2,1.2410579E-1,-2.5729287E-1,9.381386E-1,4.5311794E-1,4.9752936E-1,6.0018726E-2,7.60798E-1,1.4118865E-1,-5.837978E-1,1.2992061E-2,8.8755983E-1,-2.9201266E-1,3.067432E-1,-1.0692927E0,8.880715E-1,-1.6361009E-1],"categories":[],"categories_nodes":[],"categories_segments":[],"categories_sizes":[],"default_left":[0,0,0,0,0,0,0,0,0,0,0,0,0,0,0,0,0,0,0,0,0,0,0,0,0,0,0,0,0,0,0,0,0,0,0,0,0,0,0,0,0,0,0,0,0,0,0,0,0,0,0,0,0,0,0,0,0,0,0,0,0],"id":16,"left_children":[1,3,5,7,9,11,13,15,17,19,21,23,25,27,29,31,33,35,37,39,41,43,45,47,49,51,53,55,57,59,-1,-1,-1,-1,-1,-1,-1,-1,-1,-1,-1,-1,-1,-1,-1,-1,-1,-1,-1,-1,-1,-1,-1,-1,-1,-1,-1,-1,-1,-1,-1],"loss_changes":[8.832378E3,1.1093735E3,2.760726E3,7.133032E2,6.9660364E2,2.2183237E3,7.377798E2,3.4380124E2,5.3323193E2,4.9795975E2,6.4231085E2,7.1477637E2,1.5355E3,8.029507E2,2.1405469E2,1.046134E2,3.880755E1,3.8219775E2,2.676793E2,5.373932E1,3.0133026E2,4.018186E2,6.606267E2,5.545083E2,4.3010553E2,9.396516E2,1.1867456E3,8.1533203E2,5.0240826E2,1.1772415E2,0E0,0E0,0E0,0E0,0E0,0E0,0E0,0E0,0E0,0E0,0E0,0E0,0E0,0E0,0E0,0E0,0E0,0E0,0E0,0E0,0E0,0E0,0E0,0E0,0E0,0E0,0E0,0E0,0E0,0E0,0E0],"parents":[2147483647,0,0,1,1,2,2,3,3,4,4,5,5,6,6,7,7,8,8,9,9,10,10,11,11,12,12,13,13,14,14,15,15,16,16,17,17,18,18,19,19,20,20,21,21,22,22,23,23,24,24,25,25,26,26,27,27,28,28,29,29],"right_children":[2,4,6,8,10,12,14,16,18,20,22,24,26,28,30,32,34,36,38,40,42,44,46,48,50,52,54,56,58,60,-1,-1,-1,-1,-1,-1,-1,-1,-1,-1,-1,-1,-1,-1,-1,-1,-1,-1,-1,-1,-1,-1,-1,-1,-1,-1,-1,-1,-1,-1,-1],"split_conditions":[3.9E1,2.1E1,7.2E1,8.209263E0,2.1163337E0,1.8602466E2,9.4E1,2E1,7.2E1,9.835975E0,1.5522803E2,9.568417E0,2.1129883E1,9E1,3.7871668E0,1.7E1,1.9E1,3.846613E1,7.4371667E0,3.4E1,2.2553934E1,5.4149647E0,1.38049555E1,4.9E1,1.6418526E1,1.3809167E0,3.7E1,2.884721E1,9.1E1,1.03E2,1.7096204E0,8.6581044E-2,1.3248597E0,1.5657888E-1,-3.6014634E-1,-3.6440748E-1,-9.761136E-1,1.0576543E0,-2.5678825E-1,8.303299E-2,-6.472105E-1,6.9257754E-1,-5.7310056E-2,-6.3421947E-1,9.761403E-2,1.2410579E-1,-2.5729287E-1,9.381386E-1,4.5311794E-1,4.9752936E-1,6.0018726E-2,7.60798E-1,1.4118865E-1,-5.837978E-1,1.2992061E-2,8.8755983E-1,-2.9201266E-1,3.067432E-1,-1.0692927E0,8.880715E-1,-1.6361009E-1],"split_indices":[0,0,0,5,3,6,0,0,2,5,6,3,5,2,3,0,2,5,3,0,5,6,5,1,5,3,2,5,0,0,0,0,0,0,0,0,0,0,0,0,0,0,0,0,0,0,0,0,0,0,0,0,0,0,0,0,0,0,0,0,0],"split_type":[0,0,0,0,0,0,0,0,0,0,0,0,0,0,0,0,0,0,0,0,0,0,0,0,0,0,0,0,0,0,0,0,0,0,0,0,0,0,0,0,0,0,0,0,0,0,0,0,0,0,0,0,0,0,0,0,0,0,0,0,0],"sum_hessian":[1.489E3,8.67E2,6.22E2,3.24E2,5.43E2,5.3E2,9.2E1,8E0,3.16E2,3.2E1,5.11E2,1.94E2,3.36E2,7.7E1,1.5E1,4E0,4E0,3.11E2,5E0,5E0,2.7E1,1.28E2,3.83E2,1.04E2,9E1,1.9E2,1.46E2,6.7E1,1E1,5E0,1E1,1E0,3E0,2E0,2E0,3.01E2,1E1,3E0,2E0,1E0,4E0,2E1,7E0,7E0,1.21E2,5.2E1,3.31E2,4.1E1,6.3E1,4.1E1,4.9E1,2.8E1,1.62E2,5E1,9.6E1,6.1E1,6E0,7E0,3E0,4E0,1E0],"tree_param":{"num_deleted":"0","num_feature":"7","num_nodes":"61","size_leaf_vector":"1"}},{"base_weights":[6.0380325E-2,-9.609644E-1,4.851114E0,1.8313807E0,-1.6902844E0,4.3007574E0,1.3044047E1,4.138235E0,1.08397916E-1,3.5865787E-1,-2.5840187E0,6.6679378E0,2.1879268E0,6.9268036E0,1.6021713E0,9.46095E-1,5.2300105E0,4.6957545E0,-1.0104402E0,1.929664E-1,1.2447316E1,-3.4558296E0,3.126229E-1,8.181898E0,2.7759767E0,-8.4359966E-2,4.8341026E0,8.599369E0,-1.5542947E-1,1.9458275E-1,-8.3668625E-1,1.1843076E0,4.021628E-1,7.8201455E-1,1.2583129E-1,1.6075976E-1,-2.8660324E-1,-2.1410468E-1,1.0906007E-1,-2.0564938E-1,1.7967417E0,-3.785132E-1,9.6300066E-2,-7.0656724E-2,6.9952714E-1,6.523108E-1,1.3809581E0,3.8749745E-1,-9.871993E-1,7.901121E-1,-1.0658906E-1,5.636944E-1,-8.0156213E-1,2.2977066E-1,9.40016E-1],"categories":[],"categories_nodes":[],"categories_segments":[],"categories_sizes":[],"default_left":[0,0,0,0,0,0,0,0,0,0,0,0,0,0,0,0,0,0,0,0,0,0,0,0,0,0,0,0,0,0,0,0,0,0,0,0,0,0,0,0,0,0,0,0,0,0,0,0,0,0,0,0,0,0,0],"id":17,"left_children":[1,3,5,7,9,11,13,15,17,19,21,23,25,27,-1,29,31,33,35,37,39,41,43,45,47,49,51,53,-1,-1,-1,-1,-1,-1,-1,-1,-1,-1,-1,-1,-1,-1,-1,-1,-1,-1,-1,-1,-1,-1,-1,-1,-1,-1,-1],"loss_changes":[7.2952173E3,2.5059705E3,1.1252676E3,1.0130923E3,1.7863564E3,1.2207695E3,1.804624E2,3.7492786E2,7.5922363E2,5.924854E2,1.7157754E3,6.607915E2,7.9410675E2,1.1266232E2,0E0,2.8628397E2,5.9965186E2,3.0161725E2,5.827107E2,6.182916E2,3.571999E2,7.6322314E2,1.0810632E3,6.8473535E2,5.1085684E2,5.7275726E2,6.7447705E2,8.679016E0,0E0,0E0,0E0,0E0,0E0,0E0,0E0,0E0,0E0,0E0,0E0,0E0,0E0,0E0,0E0,0E0,0E0,0E0,0E0,0E0,0E0,0E0,0E0,0E0,0E0,0E0,0E0],"parents":[2147483647,0,0,1,1,2,2,3,3,4,4,5,5,6,6,7,7,8,8,9,9,10,10,11,11,12,12,13,13,15,15,16,16,17,17,18,18,19,19,20,20,21,21,22,22,23,23,24,24,25,25,26,26,27,27],"right_children":[2,4,6,8,10,12,14,16,18,20,22,24,26,28,-1,30,32,34,36,38,40,42,44,46,48,50,52,54,-1,-1,-1,-1,-1,-1,-1,-1,-1,-1,-1,-1,-1,-1,-1,-1,-1,-1,-1,-1,-1,-1,-1,-1,-1,-1,-1],"split_conditions":[5.7E1,6.0705E0,9.4E1,2.7906177E2,1.8602466E2,2.0953862E2,3.8725834E0,2.5E1,8.0383325E-1,3.4322937E1,3.1542804E2,2.1980644E1,3.0551233E2,1.03E2,1.6021713E0,5.4E1,3.4E1,4.2E1,2E-1,2.4E1,1.2E1,2.456217E1,4.9E1,7.9E1,8.8E1,3.1841674E-1,8.9E1,9.7E1,-1.5542947E-1,1.9458275E-1,-8.3668625E-1,1.1843076E0,4.021628E-1,7.8201455E-1,1.2583129E-1,1.6075976E-1,-2.8660324E-1,-2.1410468E-1,1.0906007E-1,-2.0564938E-1,1.7967417E0,-3.785132E-1,9.6300066E-2,-7.0656724E-2,6.9952714E-1,6.523108E-1,1.3809581E0,3.8749745E-1,-9.871993E-1,7.901121E-1,-1.0658906E-1,5.636944E-1,-8.0156213E-1,2.2977066E-1,9.40016E-1],"split_indices":[0,3,0,6,6,6,3,1,3,5,6,5,6,0,0,2,1,1,4,0,2,3,2,0,1,3,2,0,0,0,0,0,0,0,0,0,0,0,0,0,0,0,0,0,0,0,0,0,0,0,0,0,0,0,0],"split_type":[0,0,0,0,0,0,0,0,0,0,0,0,0,0,0,0,0,0,0,0,0,0,0,0,0,0,0,0,0,0,0,0,0,0,0,0,0,0,0,0,0,0,0,0,0,0,0,0,0,0,0,0,0,0,0],"sum_hessian":[1.489E3,1.228E3,2.61E2,2.54E2,9.74E2,2.46E2,1.5E1,1.08E2,1.46E2,2.96E2,6.78E2,1.15E2,1.31E2,6E0,9E0,2.8E1,8E1,2.8E1,1.18E2,2.93E2,3E0,5.21E2,1.57E2,8.2E1,3.3E1,7.1E1,6E1,5E0,1E0,2.6E1,2E0,1.1E1,6.9E1,1.4E1,1.4E1,4.9E1,6.9E1,8.1E1,2.12E2,1E0,2E0,4.85E2,3.6E1,1.37E2,2E1,6.5E1,1.7E1,3.1E1,2E0,7E0,6.4E1,5.7E1,3E0,1E0,4E0],"tree_param":{"num_deleted":"0","num_feature":"7","num_nodes":"55","size_leaf_vector":"1"}},{"base_weights":[5.974842E-2,-1.6461107E0,2.436355E0,-5.052784E0,-1.3502275E0,1.2626971E0,5.064396E0,-4.023646E0,-7.745139E0,-1.5394357E0,5.108655E0,3.058489E0,-5.141742E-1,6.107226E0,-1.4521673E-1,-6.617307E-1,-5.244832E0,-8.4440774E-1,-3.1878367E-1,-4.679085E-1,-2.2073245E0,2.7183428E0,1.317011E1,4.32625E0,6.632878E-2,1.3542029E0,-2.7324011E0,5.4255543E0,1.1903174E1,5.7461095E0,-1.9523473E0,1.2974152E-1,-4.8395053E-1,-6.128022E-1,-2.5199097E-1,1.8736766E-1,-1.2990676E-1,-3.0755037E-1,4.888296E-4,5.7356036E-1,-4.7749886E-1,1.6083597E0,5.8665866E-1,8.735507E-1,3.2957223E-1,-9.40559E-1,1.1889916E-1,5.5010565E-2,9.198966E-1,4.7356614E-1,-4.2112666E-1,5.692258E-1,-9.095829E-1,6.3790315E-1,1.4579757E0,-2.9377404E-1,7.4063367E-1,-5.2952E-1,2.3889135E-1],"categories":[],"categories_nodes":[],"categories_segments":[],"categories_sizes":[],"default_left":[0,0,0,0,0,0,0,0,0,0,0,0,0,0,0,0,0,0,0,0,0,0,0,0,0,0,0,0,0,0,0,0,0,0,0,0,0,0,0,0,0,0,0,0,0,0,0,0,0,0,0,0,0,0,0,0,0,0,0],"id":18,"left_children":[1,3,5,7,9,11,13,15,17,19,21,23,25,27,29,31,33,-1,-1,35,37,39,41,43,45,47,49,51,53,55,57,-1,-1,-1,-1,-1,-1,-1,-1,-1,-1,-1,-1,-1,-1,-1,-1,-1,-1,-1,-1,-1,-1,-1,-1,-1,-1,-1,-1],"loss_changes":[6.044702E3,8.6810205E2,1.9151995E3,1.6002185E2,9.855239E2,1.3800376E3,1.0439736E3,2.1001666E2,3.0416626E1,5.557512E2,4.0739514E2,8.152822E2,9.071978E2,5.675674E2,3.6254944E2,1.290519E2,7.600964E1,0E0,0E0,5.86303E2,9.1998096E2,4.5696472E2,1.2037781E1,6.573335E2,7.0237823E2,7.45586E2,1.1243689E3,6.133467E2,1.435686E2,1.3709525E2,3.8996677E2,0E0,0E0,0E0,0E0,0E0,0E0,0E0,0E0,0E0,0E0,0E0,0E0,0E0,0E0,0E0,0E0,0E0,0E0,0E0,0E0,0E0,0E0,0E0,0E0,0E0,0E0,0E0,0E0],"parents":[2147483647,0,0,1,1,2,2,3,3,4,4,5,5,6,6,7,7,8,8,9,9,10,10,11,11,12,12,13,13,14,14,15,15,16,16,19,19,20,20,21,21,22,22,23,23,24,24,25,25,26,26,27,27,28,28,29,29,30,30],"right_children":[2,4,6,8,10,12,14,16,18,20,22,24,26,28,30,32,34,-1,-1,36,38,40,42,44,46,48,50,52,54,56,58,-1,-1,-1,-1,-1,-1,-1,-1,-1,-1,-1,-1,-1,-1,-1,-1,-1,-1,-1,-1,-1,-1,-1,-1,-1,-1,-1,-1],"split_conditions":[3.9E1,1.3E1,6.2E1,2.9E0,6.8E1,1.9011953E1,1.8E0,9.301749E0,3.0201923E2,2.5937146E2,2.943538E2,1.55205E1,5E-1,9.4E1,8.0383325E-1,2.9768045E2,5E-1,-8.4440774E-1,-3.1878367E-1,1.0824666E1,3.1542804E2,2.7653772E2,4.1E1,3.3E1,1.6097586E1,3.2274768E2,4.1E1,9.2E1,3.8725834E0,-5.440833E-1,6.1850834E0,1.2974152E-1,-4.8395053E-1,-6.128022E-1,-2.5199097E-1,1.8736766E-1,-1.2990676E-1,-3.0755037E-1,4.888296E-4,5.7356036E-1,-4.7749886E-1,1.6083597E0,5.8665866E-1,8.735507E-1,3.2957223E-1,-9.40559E-1,1.1889916E-1,5.5010565E-2,9.198966E-1,4.7356614E-1,-4.2112666E-1,5.692258E-1,-9.095829E-1,6.3790315E-1,1.4579757E0,-2.9377404E-1,7.4063367E-1,-5.2952E-1,2.3889135E-1],"split_indices":[0,0,0,4,2,5,4,3,6,6,6,3,4,0,3,6,4,0,0,3,6,6,1,1,3,6,0,0,3,3,3,0,0,0,0,0,0,0,0,0,0,0,0,0,0,0,0,0,0,0,0,0,0,0,0,0,0,0,0],"split_type":[0,0,0,0,0,0,0,0,0,0,0,0,0,0,0,0,0,0,0,0,0,0,0,0,0,0,0,0,0,0,0,0,0,0,0,0,0,0,0,0,0,0,0,0,0,0,0,0,0,0,0,0,0,0,0,0,0,0,0],"sum_hessian":[1.489E3,8.67E2,6.22E2,6.8E1,7.99E2,4.31E2,1.91E2,5.1E1,1.7E1,7.77E2,2.2E1,2.14E2,2.17E2,1.59E2,3.2E1,1.4E1,3.7E1,1.4E1,3E0,2.99E2,4.78E2,1.8E1,4E0,1.5E2,6.4E1,1.18E2,9.9E1,1.44E2,1.5E1,7E0,2.5E1,1E1,4E0,2.7E1,1E1,7.8E1,2.21E2,3.43E2,1.35E2,1.3E1,5E0,2E0,2E0,2.7E1,1.23E2,6E0,5.8E1,1.08E2,1E1,1.6E1,8.3E1,1.42E2,2E0,6E0,9E0,1E0,6E0,1.4E1,1.1E1],"tree_param":{"num_deleted":"0","num_feature":"7","num_nodes":"59","size_leaf_vector":"1"}},{"base_weights":[5.577347E-2,-1.1177872E0,2.886156E0,4.5970693E-1,-1.8631122E0,6.8813663E0,2.1183546E0,1.9022784E0,-3.0070617E0,-2.2543983E0,1.8987683E0,4.1699724E0,9.4736185E0,4.831001E0,8.9733493E-1,1.43151E0,6.743554E0,3.5104973E0,-4.0213003E0,-6.579817E-1,-2.9336224E0,-1.4062867E0,3.5100183E0,1.1795048E0,2.8482428E0,1.1766239E1,4.6887045E0,2.4867895E0,7.5781994E0,4.794546E0,1.0636117E-1,1.2318378E-1,1.190585E0,8.403907E-1,-2.4139242E-1,8.3385533E-1,-4.31667E-1,-5.318281E-1,-3.9513167E-2,1.8312365E0,-9.494483E-2,-4.1022792E-1,-1.3402116E-1,2.5729075E-4,-5.398485E-1,2.8415617E-1,9.8184204E-1,1.020032E0,1.7359477E-1,9.3860406E-1,1.8457743E0,-6.0229284E-1,6.083251E-1,3.3578455E-1,-4.9613523E-1,1.0241114E0,5.284025E-1,6.418535E-1,-1.20647274E-1,1.2611866E0,-1.933225E-2],"categories":[],"categories_nodes":[],"categories_segments":[],"categories_sizes":[],"default_left":[0,0,0,0,0,0,0,0,0,0,0,0,0,0,0,0,0,0,0,0,0,0,0,0,0,0,0,0,0,0,0,0,0,0,0,0,0,0,0,0,0,0,0,0,0,0,0,0,0,0,0,0,0,0,0,0,0,0,0,0,0],"id":19,"left_children":[1,3,5,7,9,11,13,15,17,19,21,23,25,27,29,31,33,35,37,39,41,43,45,-1,47,49,51,53,55,57,59,-1,-1,-1,-1,-1,-1,-1,-1,-1,-1,-1,-1,-1,-1,-1,-1,-1,-1,-1,-1,-1,-1,-1,-1,-1,-1,-1,-1,-1,-1],"loss_changes":[4.952448E3,1.2400925E3,1.3259324E3,1.7010802E3,1.0582126E3,4.524983E2,1.2145526E3,5.3733527E2,6.7515283E2,7.017964E2,3.6705444E2,3.2922314E2,3.2878125E2,7.153164E2,7.855509E2,4.454494E2,3.395841E2,5.650548E2,4.0706567E2,1.095585E3,8.4178E2,1.2937616E2,1.6607733E2,0E0,2.4397852E2,1.9307837E2,2.3083136E2,4.2538776E2,2.6356348E2,4.268042E2,8.0069727E2,0E0,0E0,0E0,0E0,0E0,0E0,0E0,0E0,0E0,0E0,0E0,0E0,0E0,0E0,0E0,0E0,0E0,0E0,0E0,0E0,0E0,0E0,0E0,0E0,0E0,0E0,0E0,0E0,0E0,0E0],"parents":[2147483647,0,0,1,1,2,2,3,3,4,4,5,5,6,6,7,7,8,8,9,9,10,10,11,11,12,12,13,13,14,14,15,15,16,16,17,17,18,18,19,19,20,20,21,21,22,22,24,24,25,25,26,26,27,27,28,28,29,29,30,30],"right_children":[2,4,6,8,10,12,14,16,18,20,22,24,26,28,30,32,34,36,38,40,42,44,46,-1,48,50,52,54,56,58,60,-1,-1,-1,-1,-1,-1,-1,-1,-1,-1,-1,-1,-1,-1,-1,-1,-1,-1,-1,-1,-1,-1,-1,-1,-1,-1,-1,-1,-1,-1],"split_conditions":[4.6E1,1.0324666E1,1.1966953E1,2.7343414E1,2.5070496E1,1.6550703E2,1.5698517E2,3.3224924E2,2.5234973E2,1.8602466E2,2.5E1,7.5170207E0,6.8996673E0,6.3E1,8.0383325E-1,1.0033001E1,2.0140705E1,3.5E1,3.0220602E2,9E0,3.0220602E2,3.0790927E2,3.0192822E1,1.1795048E0,1.28799925E1,3.9746673E0,1.1E1,6.7E1,6.4E1,2.6434887E1,1.7E1,1.2318378E-1,1.190585E0,8.403907E-1,-2.4139242E-1,8.3385533E-1,-4.31667E-1,-5.318281E-1,-3.9513167E-2,1.8312365E0,-9.494483E-2,-4.1022792E-1,-1.3402116E-1,2.5729075E-4,-5.398485E-1,2.8415617E-1,9.8184204E-1,1.020032E0,1.7359477E-1,9.3860406E-1,1.8457743E0,-6.0229284E-1,6.083251E-1,3.3578455E-1,-4.9613523E-1,1.0241114E0,5.284025E-1,6.418535E-1,-1.20647274E-1,1.2611866E0,-1.933225E-2],"split_indices":[0,3,5,5,3,6,6,6,6,6,0,5,3,0,3,3,5,0,6,1,6,6,5,0,6,3,2,1,1,5,1,0,0,0,0,0,0,0,0,0,0,0,0,0,0,0,0,0,0,0,0,0,0,0,0,0,0,0,0,0,0],"split_type":[0,0,0,0,0,0,0,0,0,0,0,0,0,0,0,0,0,0,0,0,0,0,0,0,0,0,0,0,0,0,0,0,0,0,0,0,0,0,0,0,0,0,0,0,0,0,0,0,0,0,0,0,0,0,0,0,0,0,0,0,0],"sum_hessian":[1.489E3,1.053E3,4.36E2,3.38E2,7.15E2,6.9E1,3.67E2,2.39E2,9.9E1,6.48E2,6.7E1,3.5E1,3.4E1,1.13E2,2.54E2,2.19E2,2E1,1.3E1,8.6E1,1.94E2,4.54E2,2.2E1,4.5E1,4E0,3.1E1,2.2E1,1.2E1,6.2E1,5.1E1,4.2E1,2.12E2,2.16E2,3E0,1.7E1,3E0,8E0,5E0,6.3E1,2.3E1,2E0,1.92E2,2.61E2,1.93E2,1.7E1,5E0,4.2E1,3E0,3E0,2.8E1,1.8E1,4E0,1E0,1.1E1,5.6E1,6E0,2.2E1,2.9E1,3.3E1,9E0,4E0,2.08E2],"tree_param":{"num_deleted":"0","num_feature":"7","num_nodes":"61","size_leaf_vector":"1"}},{"base_weights":[5.823708E-2,-7.1071E-1,3.6650221E0,1.4780478E0,-1.2824254E0,2.9772396E0,8.189646E0,3.3853889E0,5.3706292E-2,-2.773081E-1,-2.582513E0,3.3392339E0,-3.8470898E0,1.0259344E1,1.300554E0,5.4919225E-1,4.3590226E0,1.6339028E0,-2.6192389E0,-1.3384451E0,1.134234E0,-1.4939408E-2,-3.3216176E0,7.279612E0,2.8371398E0,-7.1657763E0,8.497562E-1,1.0934992E1,-3.3159217E-1,1.1506805E1,-9.165808E-1,1.4805517E-1,-8.016106E-1,1.0152906E0,3.3035135E-1,-3.023611E-1,3.6867335E-1,-8.8480014E-1,-1.5265445E-1,-1.7709784E-1,5.89674E-1,1.0861249E0,9.63113E-2,1.671697E0,-3.670329E-2,-3.5852954E-1,1.7440546E-1,1.6080837E-1,9.520354E-1,3.0481347E-1,-7.9998934E-1,-4.2268473E-1,-1.0517458E0,2.1769223E0,9.5765156E-1,-1.7858659E-1,1.527644E0],"categories":[],"categories_nodes":[],"categories_segments":[],"categories_sizes":[],"default_left":[0,0,0,0,0,0,0,0,0,0,0,0,0,0,0,0,0,0,0,0,0,0,0,0,0,0,0,0,0,0,0,0,0,0,0,0,0,0,0,0,0,0,0,0,0,0,0,0,0,0,0,0,0,0,0,0,0],"id":20,"left_children":[1,3,5,7,9,11,13,15,17,19,21,23,25,27,29,31,33,35,37,39,41,43,45,47,49,51,-1,53,-1,55,-1,-1,-1,-1,-1,-1,-1,-1,-1,-1,-1,-1,-1,-1,-1,-1,-1,-1,-1,-1,-1,-1,-1,-1,-1,-1,-1],"loss_changes":[4.135011E3,1.5398005E3,7.909502E2,6.9257794E2,1.2733561E3,5.785603E2,4.7144092E2,2.9860034E2,6.2517505E2,8.268277E2,8.064751E2,4.1064673E2,5.52508E2,2.7473413E2,1.06687E3,2.4321199E2,4.6181494E2,9.0032837E2,3.608305E2,9.962223E2,3.8402487E2,5.716905E2,4.4703564E2,2.8969275E2,4.7026355E2,5.404785E1,0E0,1.5947803E2,0E0,2.7782428E2,0E0,0E0,0E0,0E0,0E0,0E0,0E0,0E0,0E0,0E0,0E0,0E0,0E0,0E0,0E0,0E0,0E0,0E0,0E0,0E0,0E0,0E0,0E0,0E0,0E0,0E0,0E0],"parents":[2147483647,0,0,1,1,2,2,3,3,4,4,5,5,6,6,7,7,8,8,9,9,10,10,11,11,12,12,13,13,14,14,15,15,16,16,17,17,18,18,19,19,20,20,21,21,22,22,23,23,24,24,25,25,27,27,29,29],"right_children":[2,4,6,8,10,12,14,16,18,20,22,24,26,28,30,32,34,36,38,40,42,44,46,48,50,52,-1,54,-1,56,-1,-1,-1,-1,-1,-1,-1,-1,-1,-1,-1,-1,-1,-1,-1,-1,-1,-1,-1,-1,-1,-1,-1,-1,-1,-1,-1],"split_conditions":[5.7E1,6.0705E0,8.8E1,2.7906177E2,2.1129883E1,3.5377213E1,9.1E1,2.5E1,4.4E1,3.1E1,1.9302803E2,9.997699E0,1.0239251E1,2.7859905E1,1.5086748E1,5.4E1,3.4E1,2.2E1,4.8E1,4.6E1,6.824667E0,9E0,2.456217E1,6.732442E1,3.5821014E2,2.8289377E2,8.497562E-1,4.3E1,-3.3159217E-1,9.2E1,-9.165808E-1,1.4805517E-1,-8.016106E-1,1.0152906E0,3.3035135E-1,-3.023611E-1,3.6867335E-1,-8.8480014E-1,-1.5265445E-1,-1.7709784E-1,5.89674E-1,1.0861249E0,9.63113E-2,1.671697E0,-3.670329E-2,-3.5852954E-1,1.7440546E-1,1.6080837E-1,9.520354E-1,3.0481347E-1,-7.9998934E-1,-4.2268473E-1,-1.0517458E0,2.1769223E0,9.5765156E-1,-1.7858659E-1,1.527644E0],"split_indices":[0,3,0,6,5,5,2,1,1,0,6,5,3,5,5,2,1,0,1,1,3,1,3,6,6,6,0,1,0,2,0,0,0,0,0,0,0,0,0,0,0,0,0,0,0,0,0,0,0,0,0,0,0,0,0,0,0],"split_type":[0,0,0,0,0,0,0,0,0,0,0,0,0,0,0,0,0,0,0,0,0,0,0,0,0,0,0,0,0,0,0,0,0,0,0,0,0,0,0,0,0,0,0,0,0,0,0,0,0,0,0,0,0,0,0,0,0],"sum_hessian":[1.489E3,1.228E3,2.61E2,2.54E2,9.74E2,2.28E2,3.3E1,1.08E2,1.46E2,5.5E2,4.24E2,2.17E2,1.1E1,2.5E1,8E0,2.8E1,8E1,9.2E1,5.4E1,3.14E2,2.36E2,9.5E1,3.29E2,2.3E1,1.94E2,9E0,2E0,2.4E1,1E0,4E0,4E0,2.6E1,2E0,1.1E1,6.9E1,2.8E1,6.4E1,7E0,4.7E1,2.97E2,1.7E1,3E0,2.33E2,1E0,9.4E1,3.13E2,1.6E1,7E0,1.6E1,1.91E2,3E0,6E0,3E0,1E0,2.3E1,1E0,3E0],"tree_param":{"num_deleted":"0","num_feature":"7","num_nodes":"57","size_leaf_vector":"1"}},{"base_weights":[5.6437086E-2,-1.228724E0,1.846908E0,-4.116655E0,-9.78104E-1,3.6758208E0,7.144515E-1,-3.2534354E0,-6.381698E0,-1.1390407E0,4.5082836E0,4.9216785E0,1.7486697E0,2.123072E0,-1.6414146E0,-5.775865E-1,-4.224075E0,-6.953068E-1,-2.6436374E-1,2.318438E-1,-1.5372773E0,2.2969306E0,1.20097685E1,1.0097522E1,4.3746514E0,3.9892626E0,-1.0216357E-1,1.399212E0,7.3914485E0,-2.4893272E0,4.112602E0,1.1196835E-1,-4.196063E-1,-5.058229E-1,-1.7167659E-1,3.9623556E-1,-1.4078268E-1,5.7514437E-2,-1.8568508E-1,4.7981507E-1,-3.922071E-1,1.4686784E0,5.3294986E-1,-1.3030759E-1,1.1156162E0,1.5811839E0,4.077065E-1,2.517273E-1,7.58213E-1,-7.319286E-2,1.0637897E0,2.4717994E-1,-1.9056627E-1,3.4967393E-1,1.1915958E0,3.2194608E-1,-3.3412197E-1,-4.6314964E-1,6.041589E-1],"categories":[],"categories_nodes":[],"categories_segments":[],"categories_sizes":[],"default_left":[0,0,0,0,0,0,0,0,0,0,0,0,0,0,0,0,0,0,0,0,0,0,0,0,0,0,0,0,0,0,0,0,0,0,0,0,0,0,0,0,0,0,0,0,0,0,0,0,0,0,0,0,0,0,0,0,0,0,0],"id":21,"left_children":[1,3,5,7,9,11,13,15,17,19,21,23,25,27,29,31,33,-1,-1,35,37,39,41,43,45,47,49,51,53,55,57,-1,-1,-1,-1,-1,-1,-1,-1,-1,-1,-1,-1,-1,-1,-1,-1,-1,-1,-1,-1,-1,-1,-1,-1,-1,-1,-1,-1],"loss_changes":[3.430824E3,6.242085E2,1.2877092E3,1.1414844E2,7.1150433E2,5.6282104E2,1.284434E3,1.3261902E2,2.0063293E1,4.250949E2,3.539484E2,3.6353857E2,3.9436908E2,9.125409E2,7.176786E2,9.682125E1,7.079254E1,0E0,0E0,1.0821368E3,4.0813733E2,3.1436542E2,1.11427E1,1.7143591E2,3.848025E2,2.083263E2,3.66263E2,7.632905E2,4.6936072E2,6.2839264E2,3.4845938E2,0E0,0E0,0E0,0E0,0E0,0E0,0E0,0E0,0E0,0E0,0E0,0E0,0E0,0E0,0E0,0E0,0E0,0E0,0E0,0E0,0E0,0E0,0E0,0E0,0E0,0E0,0E0,0E0],"parents":[2147483647,0,0,1,1,2,2,3,3,4,4,5,5,6,6,7,7,8,8,9,9,10,10,11,11,12,12,13,13,14,14,15,15,16,16,19,19,20,20,21,21,22,22,23,23,24,24,25,25,26,26,27,27,28,28,29,29,30,30],"right_children":[2,4,6,8,10,12,14,16,18,20,22,24,26,28,30,32,34,-1,-1,36,38,40,42,44,46,48,50,52,54,56,58,-1,-1,-1,-1,-1,-1,-1,-1,-1,-1,-1,-1,-1,-1,-1,-1,-1,-1,-1,-1,-1,-1,-1,-1,-1,-1,-1,-1],"split_conditions":[3.9E1,1.3E1,1.8602466E2,2.9E0,6.8E1,9.568417E0,1E0,9.301749E0,3.0201923E2,1.4118243E1,2.943538E2,4.3E1,1.6418526E1,7.5E1,3.3002997E2,2.9768045E2,5E-1,-6.953068E-1,-2.6436374E-1,1.2641335E1,1.5286363E2,2.7653772E2,4.1E1,7.5170207E0,-3.61075E0,1.4118243E1,3.2559605E1,2.486868E1,2.8926068E2,1.7642502E0,1.9E0,1.1196835E-1,-4.196063E-1,-5.058229E-1,-1.7167659E-1,3.9623556E-1,-1.4078268E-1,5.7514437E-2,-1.8568508E-1,4.7981507E-1,-3.922071E-1,1.4686784E0,5.3294986E-1,-1.3030759E-1,1.1156162E0,1.5811839E0,4.077065E-1,2.517273E-1,7.58213E-1,-7.319286E-2,1.0637897E0,2.4717994E-1,-1.9056627E-1,3.4967393E-1,1.1915958E0,3.2194608E-1,-3.3412197E-1,-4.6314964E-1,6.041589E-1],"split_indices":[0,0,6,4,2,3,4,3,6,5,6,0,5,0,6,6,4,0,0,3,6,6,1,5,3,5,5,5,6,3,4,0,0,0,0,0,0,0,0,0,0,0,0,0,0,0,0,0,0,0,0,0,0,0,0,0,0,0,0],"split_type":[0,0,0,0,0,0,0,0,0,0,0,0,0,0,0,0,0,0,0,0,0,0,0,0,0,0,0,0,0,0,0,0,0,0,0,0,0,0,0,0,0,0,0,0,0,0,0,0,0,0,0,0,0,0,0,0,0,0,0],"sum_hessian":[1.489E3,8.67E2,6.22E2,6.8E1,7.99E2,2.37E2,3.85E2,5.1E1,1.7E1,7.77E2,2.2E1,1.43E2,9.4E1,2.41E2,1.44E2,1.4E1,3.7E1,1.4E1,3E0,1.75E2,6.02E2,1.8E1,4E0,1.2E1,1.31E2,4.2E1,5.2E1,2.13E2,2.8E1,1.26E2,1.8E1,1E1,4E0,2.7E1,1E1,5.3E1,1.22E2,7.9E1,5.23E2,1.3E1,5E0,2E0,2E0,1E0,1.1E1,2E0,1.29E2,3.1E1,1.1E1,5E1,2E0,1.61E2,5.2E1,1.6E1,1.2E1,1.6E1,1.1E2,3E0,1.5E1],"tree_param":{"num_deleted":"0","num_feature":"7","num_nodes":"59","size_leaf_vector":"1"}},{"base_weights":[5.547285E-2,-5.814487E-1,3.0429578E0,2.9112346E0,-8.533745E-1,6.0241184E0,2.22176E0,4.482839E0,-3.2901567E-1,-5.145978E-2,-1.8454465E0,4.6685486E0,1.2584476E1,4.660405E0,1.1709533E0,-3.9308193E0,5.490483E0,-1.3360556E0,1.4437573E0,1.3109308E0,-8.77754E-1,-7.999779E-2,-2.594799E0,6.2155113E0,8.508634E-1,2.7718315E-1,1.3464578E1,-2.5755818E0,5.340327E0,8.765174E0,7.254517E-1,-1.0334521E-1,-5.845482E-1,6.40388E-1,-5.620363E-2,-2.7573064E-1,6.0374093E-1,8.497962E-2,7.6848835E-1,-2.439368E-1,1.23766055E-2,-6.036016E-2,8.364729E-1,-7.5602435E-2,-3.237252E-1,1.8794852E-1,8.495186E-1,8.226156E-1,-1.6784729E-1,3.2010576E-1,1.4473501E0,-3.7590218E-1,-1.3913472E-2,1.371055E0,4.449922E-1,-3.797678E-1,1.1102393E0,2.62197E-2,6.675218E-1],"categories":[],"categories_nodes":[],"categories_segments":[],"categories_sizes":[],"default_left":[0,0,0,0,0,0,0,0,0,0,0,0,0,0,0,0,0,0,0,0,0,0,0,0,0,0,0,0,0,0,0,0,0,0,0,0,0,0,0,0,0,0,0,0,0,0,0,0,0,0,0,0,0,0,0,0,0,0,0],"id":22,"left_children":[1,3,5,7,9,11,13,15,17,19,21,23,25,27,29,31,33,35,-1,37,39,41,43,45,47,-1,49,51,53,55,57,-1,-1,-1,-1,-1,-1,-1,-1,-1,-1,-1,-1,-1,-1,-1,-1,-1,-1,-1,-1,-1,-1,-1,-1,-1,-1,-1,-1],"loss_changes":[2.8369316E3,1.169728E3,6.280239E2,4.546978E2,9.0763574E2,4.3925793E2,5.249897E2,5.302605E2,4.6540576E2,7.1261554E2,6.7449365E2,2.7819067E2,4.0403564E1,3.1878845E2,4.875939E2,3.2791344E1,3.0213037E2,3.2055374E2,0E0,6.9595026E2,6.165131E2,6.815677E2,4.204673E2,3.2011414E2,2.936263E2,0E0,3.6510376E1,1.677732E1,3.638036E2,2.7706036E2,3.8136954E2,0E0,0E0,0E0,0E0,0E0,0E0,0E0,0E0,0E0,0E0,0E0,0E0,0E0,0E0,0E0,0E0,0E0,0E0,0E0,0E0,0E0,0E0,0E0,0E0,0E0,0E0,0E0,0E0],"parents":[2147483647,0,0,1,1,2,2,3,3,4,4,5,5,6,6,7,7,8,8,9,9,10,10,11,11,12,12,13,13,14,14,15,15,16,16,17,17,19,19,20,20,21,21,22,22,23,23,24,24,26,26,27,27,28,28,29,29,30,30],"right_children":[2,4,6,8,10,12,14,16,18,20,22,24,26,28,30,32,34,36,-1,38,40,42,44,46,48,-1,50,52,54,56,58,-1,-1,-1,-1,-1,-1,-1,-1,-1,-1,-1,-1,-1,-1,-1,-1,-1,-1,-1,-1,-1,-1,-1,-1,-1,-1,-1,-1],"split_conditions":[5.7E1,2.1163337E0,1.2783802E1,4.9E1,2.1129883E1,8.8E1,1.487764E2,1.5E1,1.9350835E0,1.3014252E1,2.6272134E2,6.5E1,3.6E1,1.3450708E1,-2.550333E0,1E-1,3.0009838E1,7E1,1.4437573E0,3.413738E2,2.5E1,3.4322937E1,2E-1,4.4E1,7.5170207E0,2.7718315E-1,7.7420926E0,1.3202726E1,4.3E1,5.9E1,1.3353835E1,-1.0334521E-1,-5.845482E-1,6.40388E-1,-5.620363E-2,-2.7573064E-1,6.0374093E-1,8.497962E-2,7.6848835E-1,-2.439368E-1,1.23766055E-2,-6.036016E-2,8.364729E-1,-7.5602435E-2,-3.237252E-1,1.8794852E-1,8.495186E-1,8.226156E-1,-1.6784729E-1,3.2010576E-1,1.4473501E0,-3.7590218E-1,-1.3913472E-2,1.371055E0,4.449922E-1,-3.797678E-1,1.1102393E0,2.62197E-2,6.675218E-1],"split_indices":[0,3,5,1,5,0,6,1,3,3,6,1,2,5,3,4,5,1,0,6,0,5,4,1,5,0,5,5,1,0,3,0,0,0,0,0,0,0,0,0,0,0,0,0,0,0,0,0,0,0,0,0,0,0,0,0,0,0,0],"split_type":[0,0,0,0,0,0,0,0,0,0,0,0,0,0,0,0,0,0,0,0,0,0,0,0,0,0,0,0,0,0,0,0,0,0,0,0,0,0,0,0,0,0,0,0,0,0,0,0,0,0,0,0,0,0,0,0,0,0,0],"sum_hessian":[1.489E3,1.228E3,2.61E2,8.8E1,1.14E3,5.5E1,2.06E2,5.9E1,2.9E1,6.31E2,5.09E2,4.7E1,8E0,6.1E1,1.45E2,6E0,5.3E1,2.8E1,1E0,2.38E2,3.93E2,1.52E2,3.57E2,3.3E1,1.4E1,1E0,7E0,5E0,5.6E1,7E0,1.38E2,3E0,3E0,4.6E1,7E0,2.4E1,4E0,2.23E2,1.5E1,1.53E2,2.4E2,1.44E2,8E0,9.3E1,2.64E2,1.2E1,2.1E1,3E0,1.1E1,1E0,6E0,3E0,2E0,4E0,5.2E1,1E0,6E0,1.29E2,9E0],"tree_param":{"num_deleted":"0","num_feature":"7","num_nodes":"59","size_leaf_vector":"1"}},{"base_weights":[5.613635E-2,-1.0133144E0,1.5460675E0,-5.062063E0,-8.7232983E-1,1.0244343E0,4.5078006E0,1.8826047E-1,-5.377323E0,-1.0073136E0,3.7590883E0,2.6650183E0,7.209509E-2,-1.528625E0,5.253498E0,-9.001337E-1,-4.398265E0,2.2162881E-1,-1.3499949E0,1.7731345E0,1.0951086E1,1.9353968E0,5.4439163E0,-1.014855E0,1.9003596E0,-3.4092767E0,8.6389464E-1,4.07858E0,1.0307888E1,-2.1171938E-1,-6.1655414E-1,2.606422E-1,-1.688422E-1,-1.6014455E-1,1.05885506E-1,4.3240258E-1,-3.5819528E-1,1.3519403E0,4.7324082E-1,1.2791573E0,1.7828308E-1,2.0838864E-1,8.384711E-1,4.0132802E-2,-3.9556596E-1,2.4465492E-1,-7.734369E-1,2.4129319E-1,-7.6929045E-1,8.5462517E-1,1.8054946E-1,1.1744472E0,-4.9021396E-1],"categories":[],"categories_nodes":[],"categories_segments":[],"categories_sizes":[],"default_left":[0,0,0,0,0,0,0,0,0,0,0,0,0,0,0,0,0,0,0,0,0,0,0,0,0,0,0,0,0,0,0,0,0,0,0,0,0,0,0,0,0,0,0,0,0,0,0,0,0,0,0,0,0],"id":23,"left_children":[1,3,5,7,9,11,13,-1,15,17,19,21,23,25,27,-1,29,31,33,35,37,39,41,43,45,47,-1,49,51,-1,-1,-1,-1,-1,-1,-1,-1,-1,-1,-1,-1,-1,-1,-1,-1,-1,-1,-1,-1,-1,-1,-1,-1],"loss_changes":[2.3757446E3,4.9104828E2,9.5787866E2,7.361517E1,5.2892596E2,8.2943823E2,4.2665588E2,0E0,5.975714E1,3.4436694E2,3.2337372E2,3.8483496E2,6.7162585E2,2.397908E2,4.5085352E2,0E0,8.3697174E1,8.197594E2,3.887423E2,2.8869336E2,1.5878357E1,2.355752E2,3.7777356E2,8.8450757E2,6.819834E2,2.6796423E2,0E0,6.852921E2,3.8533008E2,0E0,0E0,0E0,0E0,0E0,0E0,0E0,0E0,0E0,0E0,0E0,0E0,0E0,0E0,0E0,0E0,0E0,0E0,0E0,0E0,0E0,0E0,0E0,0E0],"parents":[2147483647,0,0,1,1,2,2,3,3,4,4,5,5,6,6,8,8,9,9,10,10,11,11,12,12,13,13,14,14,16,16,17,17,18,18,19,19,20,20,21,21,22,22,23,23,24,24,25,25,27,27,28,28],"right_children":[2,4,6,8,10,12,14,-1,16,18,20,22,24,26,28,-1,30,32,34,36,38,40,42,44,46,48,-1,50,52,-1,-1,-1,-1,-1,-1,-1,-1,-1,-1,-1,-1,-1,-1,-1,-1,-1,-1,-1,-1,-1,-1,-1,-1],"split_conditions":[3.9E1,1E1,7.2E1,1.4773164E1,6.8E1,1.8602466E2,3.6E1,1.8826047E-1,1.9829433E1,1.4118243E1,2.943538E2,3E-1,3.149117E2,7.1996655E0,3.0247516E2,-9.001337E-1,2.6478973E1,1.7189253E1,3.3002997E2,2.7653772E2,4.1E1,-3.61075E0,1.3789386E2,1.6E0,6.9E1,1.2682018E1,8.6389464E-1,1.3897313E2,1.04E2,-2.1171938E-1,-6.1655414E-1,2.606422E-1,-1.688422E-1,-1.6014455E-1,1.05885506E-1,4.3240258E-1,-3.5819528E-1,1.3519403E0,4.7324082E-1,1.2791573E0,1.7828308E-1,2.0838864E-1,8.384711E-1,4.0132802E-2,-3.9556596E-1,2.4465492E-1,-7.734369E-1,2.4129319E-1,-7.6929045E-1,8.5462517E-1,1.8054946E-1,1.1744472E0,-4.9021396E-1],"split_indices":[0,0,0,5,2,6,2,0,5,5,6,4,6,3,6,0,5,3,6,6,1,3,6,4,0,5,0,6,1,0,0,0,0,0,0,0,0,0,0,0,0,0,0,0,0,0,0,0,0,0,0,0,0],"split_type":[0,0,0,0,0,0,0,0,0,0,0,0,0,0,0,0,0,0,0,0,0,0,0,0,0,0,0,0,0,0,0,0,0,0,0,0,0,0,0,0,0,0,0,0,0,0,0,0,0,0,0,0,0],"sum_hessian":[1.489E3,8.67E2,6.22E2,2.8E1,8.39E2,5.3E2,9.2E1,1E0,2.7E1,8.16E2,2.3E1,1.94E2,3.36E2,1E1,8.2E1,4E0,2.3E1,1.78E2,6.38E2,1.9E1,4E0,1.55E2,3.9E1,2.11E2,1.25E2,9E0,1E0,6.8E1,1.4E1,1.1E1,1.2E1,7.9E1,9.9E1,5.78E2,6E1,1.3E1,6E0,2E0,2E0,1E0,1.54E2,1.9E1,2E1,1.43E2,6.8E1,1.19E2,6E0,4E0,5E0,2.2E1,4.6E1,1.3E1,1E0],"tree_param":{"num_deleted":"0","num_feature":"7","num_nodes":"53","size_leaf_vector":"1"}},{"base_weights":[5.3255577E-2,-4.7499678E-1,2.5309994E0,1.5194458E0,-8.276254E-1,2.9219954E0,-2.3461518E0,2.523633E0,-6.678634E-1,-3.93068E-1,-2.5033908E0,2.3657901E0,6.3897924E0,-4.999786E0,9.518332E-1,1.0442927E0,5.1058564E0,-4.9276776E0,1.9981797E0,6.5215164E-1,-1.0932894E0,-4.774765E0,-1.2774584E0,2.6017659E0,-4.882892E0,8.42825E0,1.7433591E-2,2.5274024E0,-7.5102596E0,2.8504774E-1,-1.1220916E-1,8.412288E-1,2.4675427E-1,-3.9656147E-2,-9.048155E-1,-5.43989E-1,3.0646092E-1,4.5002706E-2,1.3861945E0,-1.5523681E-1,1.1555558E-1,-3.584515E-1,-8.6247647E-1,-9.845591E-3,-6.032059E-1,2.2437623E-1,6.986893E-1,-1.0636555E0,2.0914927E-1,1.9364067E0,7.165755E-1,8.731583E-1,-8.700202E-1,7.2676605E-1,-3.0553234E-1,-2.1446143E-1,-8.905492E-1],"categories":[],"categories_nodes":[],"categories_segments":[],"categories_sizes":[],"default_left":[0,0,0,0,0,0,0,0,0,0,0,0,0,0,0,0,0,0,0,0,0,0,0,0,0,0,0,0,0,0,0,0,0,0,0,0,0,0,0,0,0,0,0,0,0,0,0,0,0,0,0,0,0,0,0,0,0],"id":24,"left_children":[1,3,5,7,9,11,13,15,17,19,21,23,25,27,-1,29,31,33,35,37,39,41,43,45,47,49,51,53,55,-1,-1,-1,-1,-1,-1,-1,-1,-1,-1,-1,-1,-1,-1,-1,-1,-1,-1,-1,-1,-1,-1,-1,-1,-1,-1,-1,-1],"loss_changes":[1.9514246E3,8.6561017E2,5.064756E2,4.0803207E2,7.600019E2,4.53583E2,6.772696E2,4.7980646E2,6.7990045E2,6.0890955E2,5.92579E2,3.736222E2,4.2851587E2,3.4022717E2,0E0,3.2405548E2,3.8051892E2,4.2583014E2,3.1016162E2,8.855497E2,5.159274E2,3.1276904E2,7.8980786E2,3.0615076E2,3.0314404E2,2.0640222E2,7.5966754E2,1.5452287E2,7.822333E1,0E0,0E0,0E0,0E0,0E0,0E0,0E0,0E0,0E0,0E0,0E0,0E0,0E0,0E0,0E0,0E0,0E0,0E0,0E0,0E0,0E0,0E0,0E0,0E0,0E0,0E0,0E0,0E0],"parents":[2147483647,0,0,1,1,2,2,3,3,4,4,5,5,6,6,7,7,8,8,9,9,10,10,11,11,12,12,13,13,15,15,16,16,17,17,18,18,19,19,20,20,21,21,22,22,23,23,24,24,25,25,26,26,27,27,28,28],"right_children":[2,4,6,8,10,12,14,16,18,20,22,24,26,28,-1,30,32,34,36,38,40,42,44,46,48,50,52,54,56,-1,-1,-1,-1,-1,-1,-1,-1,-1,-1,-1,-1,-1,-1,-1,-1,-1,-1,-1,-1,-1,-1,-1,-1,-1,-1,-1,-1],"split_conditions":[5.7E1,4.505917E0,3.1072817E1,8.000001E-1,2.7086262E1,8.8E1,1.2562167E1,4.4E1,2.0000002E0,1.4847585E1,2.2E1,8.5E1,9.1E1,1.9350835E0,9.518332E-1,2.0304129E1,5E1,2.9406155E2,1.8E1,2.6790989E1,2.442467E1,2.8E1,4.6E1,7.9E1,8.7E1,4.3E1,1.5086748E1,6.9E1,1.536658E2,2.8504774E-1,-1.1220916E-1,8.412288E-1,2.4675427E-1,-3.9656147E-2,-9.048155E-1,-5.43989E-1,3.0646092E-1,4.5002706E-2,1.3861945E0,-1.5523681E-1,1.1555558E-1,-3.584515E-1,-8.6247647E-1,-9.845591E-3,-6.032059E-1,2.2437623E-1,6.986893E-1,-1.0636555E0,2.0914927E-1,1.9364067E0,7.165755E-1,8.731583E-1,-8.700202E-1,7.2676605E-1,-3.0553234E-1,-2.1446143E-1,-8.905492E-1],"split_indices":[0,3,5,4,5,0,3,0,4,3,2,0,2,3,0,5,0,6,0,5,3,1,1,0,0,1,5,2,6,0,0,0,0,0,0,0,0,0,0,0,0,0,0,0,0,0,0,0,0,0,0,0,0,0,0,0,0],"split_type":[0,0,0,0,0,0,0,0,0,0,0,0,0,0,0,0,0,0,0,0,0,0,0,0,0,0,0,0,0,0,0,0,0,0,0,0,0,0,0,0,0,0,0,0,0,0,0,0,0,0,0,0,0,0,0,0,0],"sum_hessian":[1.489E3,1.228E3,2.61E2,1.84E2,1.044E3,2.42E2,1.9E1,1.26E2,5.8E1,8.3E2,2.14E2,2.1E2,3.2E1,1.6E1,3E0,8.1E1,4.5E1,2.2E1,3.6E1,3.33E2,4.97E2,7.4E1,1.4E2,2.04E2,6E0,2.4E1,8E0,4E0,1.2E1,4.4E1,3.7E1,1.9E1,2.6E1,1.1E1,1.1E1,4E0,3.2E1,3.29E2,4E0,4.13E2,8.4E1,5.8E1,1.6E1,1.13E2,2.7E1,1.9E2,1.4E1,3E0,3E0,1E0,2.3E1,4E0,4E0,2E0,2E0,3E0,9E0],"tree_param":{"num_deleted":"0","num_feature":"7","num_nodes":"57","size_leaf_vector":"1"}},{"base_weights":[4.9694728E-2,-9.08962E-1,1.1960564E0,-4.824689E-1,-2.4253337E0,7.904857E-1,3.743088E0,8.048736E-1,-1.2105632E0,4.405149E0,-2.6076732E0,2.9867954E0,3.6033073E-1,-1.4617391E0,4.387787E0,5.5181104E-1,1.2082328E0,-1.608322E0,2.3696876E0,7.477272E-1,-1.35356905E-2,-3.2473104E0,-1.5152168E-1,6.4256115E0,4.1575533E-1,1.6500868E0,-3.5688502E-1,-3.226875E0,8.094811E-1,8.28665E0,3.0185187E0,3.7317067E-1,-1.3133138E-2,9.4837266E-1,-1.6953216E-1,6.7583007E-1,5.352527E-2,1.88643E-1,-3.7512097E-1,-3.431494E-1,2.2408E-1,-2.6845023E-1,7.765475E-1,-4.7579366E-1,1.6439043E-1,1.156192E-1,5.4446566E-1,-1.3061498E-1,1.4165805E-1,1.7522293E-1,-6.8383163E-1,1.7944164E0,4.9587542E-1,1.5465246E-1,7.6257986E-1],"categories":[],"categories_nodes":[],"categories_segments":[],"categories_sizes":[],"default_left":[0,0,0,0,0,0,0,0,0,0,0,0,0,0,0,0,0,0,0,0,0,0,0,0,0,0,0,0,0,0,0,0,0,0,0,0,0,0,0,0,0,0,0,0,0,0,0,0,0,0,0,0,0,0,0],"id":25,"left_children":[1,3,5,7,9,11,13,15,17,19,21,23,25,27,29,31,-1,33,35,-1,-1,37,39,41,43,45,47,49,-1,51,53,-1,-1,-1,-1,-1,-1,-1,-1,-1,-1,-1,-1,-1,-1,-1,-1,-1,-1,-1,-1,-1,-1,-1,-1],"loss_changes":[1.6385483E3,5.239681E2,6.984491E2,5.961641E2,2.3318042E2,5.5349414E2,3.184796E2,6.497301E2,5.8198615E2,7.0757065E1,2.7286987E2,8.460965E2,4.557053E2,2.1167564E2,4.180896E2,4.9143475E2,0E0,3.6926904E2,3.264582E2,0E0,0E0,3.6406702E2,2.9801895E2,5.2130505E2,3.6364917E2,3.2354965E2,5.3551605E2,1.9179971E2,0E0,5.859426E2,4.1546545E2,0E0,0E0,0E0,0E0,0E0,0E0,0E0,0E0,0E0,0E0,0E0,0E0,0E0,0E0,0E0,0E0,0E0,0E0,0E0,0E0,0E0,0E0,0E0,0E0],"parents":[2147483647,0,0,1,1,2,2,3,3,4,4,5,5,6,6,7,7,8,8,9,9,10,10,11,11,12,12,13,13,14,14,15,15,17,17,18,18,21,21,22,22,23,23,24,24,25,25,26,26,27,27,29,29,30,30],"right_children":[2,4,6,8,10,12,14,16,18,20,22,24,26,28,30,32,-1,34,36,-1,-1,38,40,42,44,46,48,50,-1,52,54,-1,-1,-1,-1,-1,-1,-1,-1,-1,-1,-1,-1,-1,-1,-1,-1,-1,-1,-1,-1,-1,-1,-1,-1],"split_conditions":[3.7E1,2.721038E1,7.2E1,1.3014252E1,1.3789386E2,1.6767501E0,3.6E1,3.5216458E2,6.3E0,2.1E1,3.0247516E2,4.9E1,1.8602466E2,7.1996655E0,6.4E1,1.300243E1,1.2082328E0,8E0,2.456166E2,7.477272E-1,-1.35356905E-2,4.505917E0,2.3E1,2.5E1,5.5E1,8.000001E-1,3.1356912E2,1.2682018E1,8.094811E-1,1.2738838E2,9.4E1,3.7317067E-1,-1.3133138E-2,9.4837266E-1,-1.6953216E-1,6.7583007E-1,5.352527E-2,1.88643E-1,-3.7512097E-1,-3.431494E-1,2.2408E-1,-2.6845023E-1,7.765475E-1,-4.7579366E-1,1.6439043E-1,1.156192E-1,5.4446566E-1,-1.3061498E-1,1.4165805E-1,1.7522293E-1,-6.8383163E-1,1.7944164E0,4.9587542E-1,1.5465246E-1,7.6257986E-1],"split_indices":[0,5,0,3,6,3,2,6,4,1,6,1,6,3,1,5,0,2,6,0,0,3,0,1,1,4,6,5,0,6,0,0,0,0,0,0,0,0,0,0,0,0,0,0,0,0,0,0,0,0,0,0,0,0,0],"split_type":[0,0,0,0,0,0,0,0,0,0,0,0,0,0,0,0,0,0,0,0,0,0,0,0,0,0,0,0,0,0,0,0,0,0,0,0,0,0,0,0,0,0,0,0,0,0,0,0,0,0,0,0,0,0,0],"sum_hessian":[1.489E3,8.11E2,6.78E2,6.34E2,1.77E2,5.86E2,9.2E1,2.29E2,4.05E2,4E0,1.73E2,9.5E1,4.91E2,1E1,8.2E1,2.25E2,4E0,3.65E2,4E1,2E0,2E0,1.37E2,3.6E1,4E1,5.5E1,1.75E2,3.16E2,9E0,1E0,2E1,6.2E1,3.9E1,1.86E2,2E0,3.63E2,1.1E1,2.9E1,1.2E1,1.25E2,1.5E1,2.1E1,5E0,3.5E1,1E1,4.5E1,1.56E2,1.9E1,2.06E2,1.1E2,4E0,5E0,4E0,1.6E1,4.8E1,1.4E1],"tree_param":{"num_deleted":"0","num_feature":"7","num_nodes":"55","size_leaf_vector":"1"}},{"base_weights":[5.001493E-2,-8.137487E-1,1.0828958E0,-4.293765E-1,-2.1803925E0,2.2861972E0,3.4925178E-1,1.1277846E0,-9.388648E-1,-3.542364E0,-1.3062432E0,2.5666933E0,-4.898727E0,1.4130135E-1,8.923474E0,8.460082E-1,1.169423E0,4.9766737E-1,-1.4530312E0,-4.2663994E0,1.7585858E0,3.1800503E-1,-3.4901931E0,2.0339818E0,6.3699307E0,-1.9666189E0,-7.4375114E0,2.4616515E-2,9.681197E0,3.110094E0,1.0970624E1,1.2928756E-1,-4.1002354E-1,-6.370043E-1,9.5136754E-2,2.2316928E-1,-1.7046796E-1,-4.8163396E-1,1.5774398E-1,9.0652657E-1,-1.624075E-1,1.0041505E-1,-1.0225216E0,-4.5465428E-1,3.1955954E-1,3.7242553E-1,6.844657E-2,8.65838E-1,6.8174154E-3,2.0137644E-1,-3.1654486E-1,-1.4354058E-1,-8.579187E-1,9.532265E-2,-1.4322942E-1,2.3858738E-1,1.090856E0,4.8840585E-1,-1.1058998E-1,2.750965E-1,1.1882073E0],"categories":[],"categories_nodes":[],"categories_segments":[],"categories_sizes":[],"default_left":[0,0,0,0,0,0,0,0,0,0,0,0,0,0,0,0,0,0,0,0,0,0,0,0,0,0,0,0,0,0,0,0,0,0,0,0,0,0,0,0,0,0,0,0,0,0,0,0,0,0,0,0,0,0,0,0,0,0,0,0,0],"id":26,"left_children":[1,3,5,7,9,11,13,15,17,19,21,23,25,27,29,31,-1,33,35,37,39,41,43,45,47,49,51,53,55,57,59,-1,-1,-1,-1,-1,-1,-1,-1,-1,-1,-1,-1,-1,-1,-1,-1,-1,-1,-1,-1,-1,-1,-1,-1,-1,-1,-1,-1,-1,-1],"loss_changes":[1.3302069E3,4.256073E2,5.9861926E2,5.0483957E2,2.0729358E2,5.3051685E2,7.529536E2,4.575545E2,3.5452042E2,2.723302E2,3.913104E2,4.8949878E2,5.9813156E1,4.606104E2,8.4888916E1,3.4568954E2,0E0,4.017772E2,3.311253E2,2.0363684E2,2.3716684E2,4.732554E2,3.4646777E2,4.9700104E2,4.3204724E2,3.5005272E1,2.1947662E1,5.5605505E2,1.874356E1,3.531738E1,1.9755432E1,0E0,0E0,0E0,0E0,0E0,0E0,0E0,0E0,0E0,0E0,0E0,0E0,0E0,0E0,0E0,0E0,0E0,0E0,0E0,0E0,0E0,0E0,0E0,0E0,0E0,0E0,0E0,0E0,0E0,0E0],"parents":[2147483647,0,0,1,1,2,2,3,3,4,4,5,5,6,6,7,7,8,8,9,9,10,10,11,11,12,12,13,13,14,14,15,15,17,17,18,18,19,19,20,20,21,21,22,22,23,23,24,24,25,25,26,26,27,27,28,28,29,29,30,30],"right_children":[2,4,6,8,10,12,14,16,18,20,22,24,26,28,30,32,-1,34,36,38,40,42,44,46,48,50,52,54,56,58,60,-1,-1,-1,-1,-1,-1,-1,-1,-1,-1,-1,-1,-1,-1,-1,-1,-1,-1,-1,-1,-1,-1,-1,-1,-1,-1,-1,-1,-1,-1],"split_conditions":[3.7E1,2.721038E1,4.930917E0,1.0324666E1,2.2E1,3.476377E1,9.4E1,1.0033001E1,1.5698517E2,3.0279346E2,4.2E1,7.9E1,4.2095375E1,4.0729347E1,6.9E1,6.2E1,1.169423E0,5.4149647E0,1.032924E1,2.2532999E1,3.037737E2,4.5E1,4.0729347E1,5.1E1,8.4E1,3.2E1,4.4E1,2.1129883E1,3.3E1,9.8E1,9.8E1,1.2928756E-1,-4.1002354E-1,-6.370043E-1,9.5136754E-2,2.2316928E-1,-1.7046796E-1,-4.8163396E-1,1.5774398E-1,9.0652657E-1,-1.624075E-1,1.0041505E-1,-1.0225216E0,-4.5465428E-1,3.1955954E-1,3.7242553E-1,6.844657E-2,8.65838E-1,6.8174154E-3,2.0137644E-1,-3.1654486E-1,-1.4354058E-1,-8.579187E-1,9.532265E-2,-1.4322942E-1,2.3858738E-1,1.090856E0,4.8840585E-1,-1.1058998E-1,2.750965E-1,1.1882073E0],"split_indices":[0,5,3,3,2,5,0,3,6,6,2,0,5,5,2,1,0,6,5,3,6,1,5,1,2,2,0,5,1,0,0,0,0,0,0,0,0,0,0,0,0,0,0,0,0,0,0,0,0,0,0,0,0,0,0,0,0,0,0,0,0],"split_type":[0,0,0,0,0,0,0,0,0,0,0,0,0,0,0,0,0,0,0,0,0,0,0,0,0,0,0,0,0,0,0,0,0,0,0,0,0,0,0,0,0,0,0,0,0,0,0,0,0,0,0,0,0,0,0,0,0,0,0,0,0],"sum_hessian":[1.489E3,8.11E2,6.78E2,6.34E2,1.77E2,2.56E2,4.22E2,1.56E2,4.78E2,6.8E1,1.09E2,2.47E2,9E0,4.13E2,9E0,1.53E2,3E0,1.26E2,3.52E2,6E1,8E0,6.3E1,4.6E1,2.18E2,2.9E1,5E0,4E0,4.09E2,4E0,3E0,6E0,1.41E2,1.2E1,7E0,1.19E2,2.2E1,3.3E2,5.5E1,5E0,2E0,6E0,6E1,3E0,4E1,6E0,9.6E1,1.22E2,2.1E1,8E0,1E0,4E0,1E0,3E0,2.5E2,1.59E2,1E0,3E0,2E0,1E0,1E0,5E0],"tree_param":{"num_deleted":"0","num_feature":"7","num_nodes":"61","size_leaf_vector":"1"}},{"base_weights":[4.708201E-2,-3.5371366E-1,1.9269706E0,-1.4179045E0,8.704773E-2,4.3351665E0,1.266169E0,-2.42863E0,-7.3284376E-1,2.2861812E0,-1.3854322E-1,3.3625898E0,9.040556E0,-4.807049E0,1.5344744E0,8.626787E-1,-2.5653121E0,-1.2089636E0,2.1475155E0,4.110083E0,-7.8817964E-1,-2.91692E-1,3.4982839E0,4.794282E0,-1.0675151E-1,9.902544E0,1.0723267E-1,-2.609113E0,-6.9021904E-1,7.175273E0,1.2295141E0,-8.4585555E-2,-3.1519854E-1,4.9217996E-1,-1.4406657E-1,5.491659E-1,-2.536101E-2,5.7961583E-2,5.565011E-1,-3.5319856E-1,3.2826278E-1,-1.6764825E-2,-5.388846E-1,5.7834554E-1,-2.984205E-1,8.341951E-2,6.9164115E-1,6.6498643E-1,-2.3500608E-1,4.177738E-1,1.250188E0,-3.5752907E-1,-4.511719E-2,8.2779545E-1,-1.3744298E-1,-3.3458105E-1,1.6124706E-1],"categories":[],"categories_nodes":[],"categories_segments":[],"categories_sizes":[],"default_left":[0,0,0,0,0,0,0,0,0,0,0,0,0,0,0,0,0,0,0,0,0,0,0,0,0,0,0,0,0,0,0,0,0,0,0,0,0,0,0,0,0,0,0,0,0,0,0,0,0,0,0,0,0,0,0,0,0],"id":27,"left_children":[1,3,5,7,9,11,13,15,17,19,21,23,25,27,29,-1,31,33,35,37,39,41,43,45,47,49,-1,51,-1,53,55,-1,-1,-1,-1,-1,-1,-1,-1,-1,-1,-1,-1,-1,-1,-1,-1,-1,-1,-1,-1,-1,-1,-1,-1,-1,-1],"loss_changes":[1.123324E3,5.7659106E2,4.1144196E2,2.4748724E2,4.3192776E2,2.2587598E2,3.4467813E2,2.4123651E2,2.9881784E2,4.574334E2,4.4103113E2,2.3892914E2,5.1197876E1,2.3436264E1,3.3350168E2,0E0,1.4259515E2,2.7130566E2,2.5031372E2,2.587398E2,3.5784888E2,4.7898944E2,4.9129413E2,2.7996014E2,2.4298528E2,6.681592E1,0E0,1.0896656E1,0E0,1.0565344E2,3.3830365E2,0E0,0E0,0E0,0E0,0E0,0E0,0E0,0E0,0E0,0E0,0E0,0E0,0E0,0E0,0E0,0E0,0E0,0E0,0E0,0E0,0E0,0E0,0E0,0E0,0E0,0E0],"parents":[2147483647,0,0,1,1,2,2,3,3,4,4,5,5,6,6,7,7,8,8,9,9,10,10,11,11,12,12,13,13,14,14,16,16,17,17,18,18,19,19,20,20,21,21,22,22,23,23,24,24,25,25,27,27,29,29,30,30],"right_children":[2,4,6,8,10,12,14,16,18,20,22,24,26,28,30,-1,32,34,36,38,40,42,44,46,48,50,-1,52,-1,54,56,-1,-1,-1,-1,-1,-1,-1,-1,-1,-1,-1,-1,-1,-1,-1,-1,-1,-1,-1,-1,-1,-1,-1,-1,-1,-1],"split_conditions":[5.7E1,2.2E1,1.2783802E1,2.1E1,2.1642504E0,8.8E1,1.3363711E1,8.835305E0,2.2093416E1,4.9E1,7E1,6.5E1,3.2474173E2,1.7644902E2,1.4319901E1,8.626787E-1,1.3E1,8.209263E0,2.3441332E1,2.5E1,2.0056877E1,6.6E1,2.514852E1,4.4E1,7.5170207E0,9.6932955E0,1.0723267E-1,1.3202726E1,-6.9021904E-1,3.4673145E2,1.5379206E1,-8.4585555E-2,-3.1519854E-1,4.9217996E-1,-1.4406657E-1,5.491659E-1,-2.536101E-2,5.7961583E-2,5.565011E-1,-3.5319856E-1,3.2826278E-1,-1.6764825E-2,-5.388846E-1,5.7834554E-1,-2.984205E-1,8.341951E-2,6.9164115E-1,6.6498643E-1,-2.3500608E-1,4.177738E-1,1.250188E0,-3.5752907E-1,-4.511719E-2,8.2779545E-1,-1.3744298E-1,-3.3458105E-1,1.6124706E-1],"split_indices":[0,0,5,2,3,0,5,6,3,1,2,1,6,6,5,0,1,5,3,1,5,1,5,1,5,5,0,5,0,6,5,0,0,0,0,0,0,0,0,0,0,0,0,0,0,0,0,0,0,0,0,0,0,0,0,0,0],"split_type":[0,0,0,0,0,0,0,0,0,0,0,0,0,0,0,0,0,0,0,0,0,0,0,0,0,0,0,0,0,0,0,0,0,0,0,0,0,0,0,0,0,0,0,0,0,0,0,0,0,0,0,0,0,0,0,0,0],"sum_hessian":[1.489E3,1.228E3,2.61E2,3.59E2,8.69E2,5.5E1,2.06E2,1.44E2,2.15E2,8E1,7.89E2,4.7E1,8E0,8E0,1.98E2,1E0,1.43E2,1.85E2,3E1,5E1,3E1,7.58E2,3.1E1,3.3E1,1.4E1,7E0,1E0,5E0,3E0,9E0,1.89E2,3.7E1,1.06E2,6E0,1.79E2,1.2E1,1.8E1,1.5E1,3.5E1,1.8E1,1.2E1,7.41E2,1.7E1,2.3E1,8E0,1.2E1,2.1E1,3E0,1.1E1,3E0,4E0,3E0,2E0,8E0,1E0,1.4E1,1.75E2],"tree_param":{"num_deleted":"0","num_feature":"7","num_nodes":"57","size_leaf_vector":"1"}},{"base_weights":[4.5094207E-2,-3.1700048E-1,1.7434502E0,6.7085683E-1,-7.1110845E-1,3.9548676E0,1.1367699E0,-2.150613E0,1.0822421E0,-1.1287023E0,5.373326E-1,3.0514352E0,8.333744E0,6.266663E0,8.445587E-1,6.5350494E0,-2.7065752E0,8.4709007E-1,6.335137E0,1.3513596E0,-1.5183109E0,-2.9413024E-1,3.986042E0,1.1306936E0,2.4466975E0,9.120785E0,1.0187111E-1,1.0654447E1,8.3443516E-1,2.7413337E0,3.3376873E-2,8.195448E-1,1.6071263E-1,-3.0105722E-1,5.030648E-1,6.841578E-2,8.5809654E-1,1.194784E0,-1.8258667E-2,7.6928124E-2,1.1092834E0,-7.266509E-1,-1.371106E-1,-1.0082697E-1,3.017956E-1,9.867288E-1,1.9048376E-1,-1.347742E-1,4.7174978E-1,4.6050048E-1,1.2485313E0,1.2360846E0,1.0612259E-1,-4.0393525E-1,2.6170632E-1,8.370013E-1,2.0651594E-1,-3.8802665E-2,5.508285E-1],"categories":[],"categories_nodes":[],"categories_segments":[],"categories_sizes":[],"default_left":[0,0,0,0,0,0,0,0,0,0,0,0,0,0,0,0,0,0,0,0,0,0,0,0,0,0,0,0,0,0,0,0,0,0,0,0,0,0,0,0,0,0,0,0,0,0,0,0,0,0,0,0,0,0,0,0,0,0,0],"id":28,"left_children":[1,3,5,7,9,11,13,15,17,19,21,23,25,27,29,31,33,35,37,39,41,43,45,-1,47,49,-1,51,53,55,57,-1,-1,-1,-1,-1,-1,-1,-1,-1,-1,-1,-1,-1,-1,-1,-1,-1,-1,-1,-1,-1,-1,-1,-1,-1,-1,-1,-1],"loss_changes":[9.168515E2,4.7895435E2,3.4700958E2,4.0973712E2,4.588655E2,1.9610724E2,3.0500293E2,2.3498813E2,3.7384897E2,6.388126E2,6.348841E2,2.1197116E2,4.252356E1,2.5329941E2,3.030185E2,1.1375824E1,1.16285095E2,3.6585797E2,4.7774823E2,5.0179364E2,4.7234937E2,4.2643008E2,5.0752765E2,0E0,4.0271304E2,6.405286E1,0E0,8.510144E1,6.2700146E1,2.0726666E2,3.2283063E2,0E0,0E0,0E0,0E0,0E0,0E0,0E0,0E0,0E0,0E0,0E0,0E0,0E0,0E0,0E0,0E0,0E0,0E0,0E0,0E0,0E0,0E0,0E0,0E0,0E0,0E0,0E0,0E0],"parents":[2147483647,0,0,1,1,2,2,3,3,4,4,5,5,6,6,7,7,8,8,9,9,10,10,11,11,12,12,13,13,14,14,15,15,16,16,17,17,18,18,19,19,20,20,21,21,22,22,24,24,25,25,27,27,28,28,29,29,30,30],"right_children":[2,4,6,8,10,12,14,16,18,20,22,24,26,28,30,32,34,36,38,40,42,44,46,-1,48,50,-1,52,54,56,58,-1,-1,-1,-1,-1,-1,-1,-1,-1,-1,-1,-1,-1,-1,-1,-1,-1,-1,-1,-1,-1,-1,-1,-1,-1,-1,-1,-1],"split_conditions":[5.7E1,1.8026045E2,1.2783802E1,4.149638E1,3.1542804E2,8.8E1,-2.550333E0,8E0,6.6E1,4.505917E0,4.9E1,1.28799925E1,3.2474173E2,4.6E1,1.487764E2,2.2E1,2.1758419E1,3.4322937E1,1.3999374E2,4.2434173E0,5.0121675E0,3.3E0,3.4E1,1.1306936E0,1.4692621E2,1.0548061E1,1.0187111E-1,6.4E1,5.9E1,4.3E1,1.3353835E1,8.195448E-1,1.6071263E-1,-3.0105722E-1,5.030648E-1,6.841578E-2,8.5809654E-1,1.194784E0,-1.8258667E-2,7.6928124E-2,1.1092834E0,-7.266509E-1,-1.371106E-1,-1.0082697E-1,3.017956E-1,9.867288E-1,1.9048376E-1,-1.347742E-1,4.7174978E-1,4.6050048E-1,1.2485313E0,1.2360846E0,1.0612259E-1,-4.0393525E-1,2.6170632E-1,8.370013E-1,2.0651594E-1,-3.8802665E-2,5.508285E-1],"split_indices":[0,6,5,6,6,0,3,2,2,3,2,6,6,2,6,0,5,5,6,3,3,4,1,0,6,5,0,1,0,1,3,0,0,0,0,0,0,0,0,0,0,0,0,0,0,0,0,0,0,0,0,0,0,0,0,0,0,0,0],"split_type":[0,0,0,0,0,0,0,0,0,0,0,0,0,0,0,0,0,0,0,0,0,0,0,0,0,0,0,0,0,0,0,0,0,0,0,0,0,0,0,0,0,0,0,0,0,0,0,0,0,0,0,0,0,0,0,0,0,0,0],"sum_hessian":[1.489E3,1.228E3,2.61E2,3.5E2,8.78E2,5.5E1,2.06E2,4.4E1,3.06E2,6.58E2,2.2E2,4.7E1,8E0,1E1,1.96E2,2E0,4.2E1,2.94E2,1.2E1,8.9E1,5.69E2,1.78E2,4.2E1,2E0,4.5E1,7E0,1E0,5E0,5E0,5.8E1,1.38E2,1E0,1E0,4.1E1,1E0,2.89E2,5E0,6E0,6E0,8.5E1,4E0,1.3E1,5.56E2,1.47E2,3.1E1,1E1,3.2E1,1.7E1,2.8E1,4E0,3E0,4E0,1E0,1E0,4E0,5E0,5.3E1,1.29E2,9E0],