{"learner":{"attributes":{"scikit_learn":"{\"_estimator_type\": \"regressor\"}"},"feature_names":["lag_1_pm25","lag_2_pm25","lag_3_pm25","temperature_2m_mean","precipitation_sum","wind_speed_10m_max","wind_direction_10m_dominant"],"feature_types":["float","float","float","float","float","float","float"],"gradient_booster":{"model":{"gbtree_model_param":{"num_parallel_tree":"1","num_trees":"100"},"iteration_indptr":[0,1,2,3,4,5,6,7,8,9,10,11,12,13,14,15,16,17,18,19,20,21,22,23,24,25,26,27,28,29,30,31,32,33,34,35,36,37,38,39,40,41,42,43,44,45,46,47,48,49,50,51,52,53,54,55,56,57,58,59,60,61,62,63,64,65,66,67,68,69,70,71,72,73,74,75,76,77,78,79,80,81,82,83,84,85,86,87,88,89,90,91,92,93,94,95,96,97,98,99,100],"tree_info":[0,0,0,0,0,0,0,0,0,0,0,0,0,0,0,0,0,0,0,0,0,0,0,0,0,0,0,0,0,0,0,0,0,0,0,0,0,0,0,0,0,0,0,0,0,0,0,0,0,0,0,0,0,0,0,0,0,0,0,0,0,0,0,0,0,0,0,0,0,0,0,0,0,0,0,0,0,0,0,0,0,0,0,0,0,0,0,0,0,0,0,0,0,0,0,0,0,0,0,0],"trees":[{"base_weights":[5.504429E-7,-4.9903793E0,1.3920904E1,-9.774029E0,-1.2383956E0,1.0029775E1,2.3100681E1,-7.9016767E0,-1.2214476E1,1.1666672E0,-4.851338E0,1.374662E1,6.4763765E0,2.0085228E1,3.7604084E1,-1.0272404E1,-6.7352433E0,-1.3200666E1,-9.981993E0,-1.2922283E0,3.260318E0,3.5205817E0,-6.1217065E0,9.866286E0,1.7707083E1,1.1222404E1,3.9815133E0,2.4103642E1,1.4352382E1,4.0142857E1,7.892858E-1,-1.0766865E0,-5.7460314E-1,-9.3238086E-1,-6.145974E-1,-1.1105442E0,-1.4136289E0,-3.1224486E-1,-1.0318583E0,1.2428572E0,-1.3776839E-1,-3.2036468E-1,4.2174712E-1,-3.9631285E-2,7.5862074E-1,-8.189189E-1,-4.8103237E-1,7.396429E-1,1.3947206E0,1.8674186E0,-3.619047E-1,5.372094E-1,1.6447204E0,5.606272E-1,-2.6488042E-2,2.5699089E0,4.7619054E-1,1.6466044E0,4.8000008E-1,1.9877552E0,4.4054947E0],"categories":[],"categories_nodes":[],"categories_segments":[],"categories_sizes":[],"default_left":[0,0,0,0,0,0,0,0,0,0,0,0,0,0,0,0,0,0,0,0,0,0,0,0,0,0,0,0,0,0,0,0,0,0,0,0,0,0,0,0,0,0,0,0,0,0,0,0,0,0,0,0,0,0,0,0,0,0,0,0,0],"id":0,"left_children":[1,3,5,7,9,11,13,15,17,19,21,23,25,27,29,31,33,35,37,39,41,43,45,47,49,51,53,55,57,59,-1,-1,-1,-1,-1,-1,-1,-1,-1,-1,-1,-1,-1,-1,-1,-1,-1,-1,-1,-1,-1,-1,-1,-1,-1,-1,-1,-1,-1,-1,-1],"loss_changes":[1.8638961E5,3.543554E4,2.505786E4,3.8697031E3,9.633463E3,6.5014805E3,8.428922E3,1.2968691E3,6.9385156E2,3.4328267E3,4.733044E3,3.5596992E3,2.998375E3,3.7085547E3,2.323211E3,2.984707E2,4.52167E2,3.468164E2,2.4253516E2,3.7708545E2,2.2408323E3,9.4255963E2,1.00444336E3,1.156751E3,2.5219062E3,2.6015146E3,1.1743772E3,3.0252188E3,1.435251E3,1.6612422E3,0E0,0E0,0E0,0E0,0E0,0E0,0E0,0E0,0E0,0E0,0E0,0E0,0E0,0E0,0E0,0E0,0E0,0E0,0E0,0E0,0E0,0E0,0E0,0E0,0E0,0E0,0E0,0E0,0E0,0E0,0E0],"parents":[2147483647,0,0,1,1,2,2,3,3,4,4,5,5,6,6,7,7,8,8,9,9,10,10,11,11,12,12,13,13,14,14,15,15,16,16,17,17,18,18,19,19,20,20,21,21,22,22,23,23,24,24,25,25,26,26,27,27,28,28,29,29],"right_children":[2,4,6,8,10,12,14,16,18,20,22,24,26,28,30,32,34,36,38,40,42,44,46,48,50,52,54,56,58,60,-1,-1,-1,-1,-1,-1,-1,-1,-1,-1,-1,-1,-1,-1,-1,-1,-1,-1,-1,-1,-1,-1,-1,-1,-1,-1,-1,-1,-1,-1,-1],"split_conditions":[3.2E1,1.7E1,4.9E1,2.5826144E2,2.3873984E2,1.9010706E2,6.6E1,1.2E1,1.4E1,2.3E1,1.3350371E1,3.9E1,1.4917212E1,1.9862242E2,2.318579E1,2.4E1,7.247434E1,1.6267857E1,1.1440978E1,7E0,4.3674377E1,2.4E1,2.1E1,1.1820667E1,9.599999E0,3.8E1,2.318579E1,2.3313995E1,1.7000002E0,2.9E1,7.892858E-1,-1.0766865E0,-5.7460314E-1,-9.3238086E-1,-6.145974E-1,-1.1105442E0,-1.4136289E0,-3.1224486E-1,-1.0318583E0,1.2428572E0,-1.3776839E-1,-3.2036468E-1,4.2174712E-1,-3.9631285E-2,7.5862074E-1,-8.189189E-1,-4.8103237E-1,7.396429E-1,1.3947206E0,1.8674186E0,-3.619047E-1,5.372094E-1,1.6447204E0,5.606272E-1,-2.6488042E-2,2.5699089E0,4.7619054E-1,1.6466044E0,4.8000008E-1,1.9877552E0,4.4054947E0],"split_indices":[0,0,0,6,6,6,0,0,0,0,5,0,5,6,5,1,6,5,5,1,6,0,0,3,4,0,5,5,4,2,0,0,0,0,0,0,0,0,0,0,0,0,0,0,0,0,0,0,0,0,0,0,0,0,0,0,0,0,0,0,0],"split_type":[0,0,0,0,0,0,0,0,0,0,0,0,0,0,0,0,0,0,0,0,0,0,0,0,0,0,0,0,0,0,0,0,0,0,0,0,0,0,0,0,0,0,0,0,0,0,0,0,0,0,0,0,0,0,0,0,0,0,0,0,0],"sum_hessian":[2.681E3,1.974E3,7.07E2,8.67E2,1.107E3,4.98E2,2.09E2,4.93E2,3.74E2,6.65E2,4.42E2,2.42E2,2.56E2,1.75E2,3.4E1,1.6E2,3.33E2,2.56E2,1.18E2,3.06E2,3.59E2,5.8E1,3.84E2,1.24E2,1.18E2,8.7E1,1.69E2,1.01E2,7.4E1,3.1E1,3E0,1.43E2,1.7E1,5.9E1,2.74E2,8.3E1,1.73E2,6E0,1.12E2,1E0,3.05E2,4.6E1,3.13E2,3E1,2.8E1,1.47E2,2.37E2,7.9E1,4.5E1,1.13E2,5E0,4.2E1,4.5E1,1.22E2,4.7E1,9.3E1,8E0,6E1,1.4E1,6E0,2.5E1],"tree_param":{"num_deleted":"0","num_feature":"7","num_nodes":"61","size_leaf_vector":"1"}},{"base_weights":[4.5755543E-3,-4.4946027E0,1.2555243E1,-8.368234E0,-7.323517E-1,1.043137E1,2.6488039E1,-5.9366474E0,-1.0012634E1,1.4012554E0,-4.047623E0,6.7672997E0,1.4421382E1,2.30955E1,3.9340538E1,-7.1824193E0,-3.8540037E0,-1.1334466E1,-7.9279976E0,7.600635E-2,4.549217E0,3.4973989E0,-5.285711E0,7.8953166E0,-1.1838257E0,1.704573E1,7.0633955E0,-2.8947306E-1,2.3480633E1,4.430637E0,1.756811E1,-1.005382E0,-6.5071946E-1,-7.263286E-1,-2.6734132E-1,-9.723606E-1,-1.203605E0,-3.4785232E-1,-8.4834814E-1,3.13501E-1,-6.194377E-2,-2.579889E-1,5.603327E-1,1.3201395E-1,9.3605655E-1,-4.3916464E-1,-7.854461E-1,1.0255349E0,5.578491E-1,3.1188688E-1,-4.3615207E-1,1.9225901E0,1.0314218E0,8.5961497E-1,-2.2108267E-1,2.4701056E0,1.1786311E0,8.0972236E-1,2.7725825E0],"categories":[],"categories_nodes":[],"categories_segments":[],"categories_sizes":[],"default_left":[0,0,0,0,0,0,0,0,0,0,0,0,0,0,0,0,0,0,0,0,0,0,0,0,0,0,0,0,0,0,0,0,0,0,0,0,0,0,0,0,0,0,0,0,0,0,0,0,0,0,0,0,0,0,0,0,0,0,0],"id":1,"left_children":[1,3,5,7,9,11,13,15,17,19,21,23,25,27,29,31,33,35,37,39,41,43,45,47,49,51,53,-1,55,-1,57,-1,-1,-1,-1,-1,-1,-1,-1,-1,-1,-1,-1,-1,-1,-1,-1,-1,-1,-1,-1,-1,-1,-1,-1,-1,-1,-1,-1],"loss_changes":[1.5150275E5,2.8776672E4,2.067446E4,3.8311016E3,7.1003784E3,8.908133E3,3.1464531E3,9.9714746E2,1.5055977E3,2.5486445E3,3.6896553E3,2.906336E3,5.556715E3,8.2870703E2,1.167748E3,4.1153125E2,5.8432715E2,2.8077734E2,5.340176E2,9.188367E2,1.3746455E3,7.025184E2,7.417656E2,1.4901719E3,5.741817E2,2.9716836E3,1.1419971E3,0E0,7.792656E2,0E0,2.5651062E2,0E0,0E0,0E0,0E0,0E0,0E0,0E0,0E0,0E0,0E0,0E0,0E0,0E0,0E0,0E0,0E0,0E0,0E0,0E0,0E0,0E0,0E0,0E0,0E0,0E0,0E0,0E0,0E0],"parents":[2147483647,0,0,1,1,2,2,3,3,4,4,5,5,6,6,7,7,8,8,9,9,10,10,11,11,12,12,13,13,14,14,15,15,16,16,17,17,18,18,19,19,20,20,21,21,22,22,23,23,24,24,25,25,26,26,28,28,30,30],"right_children":[2,4,6,8,10,12,14,16,18,20,22,24,26,28,30,32,34,36,38,40,42,44,46,48,50,52,54,-1,56,-1,58,-1,-1,-1,-1,-1,-1,-1,-1,-1,-1,-1,-1,-1,-1,-1,-1,-1,-1,-1,-1,-1,-1,-1,-1,-1,-1,-1,-1],"split_conditions":[3.2E1,1.8E1,5.8E1,2.2896136E2,2.3873984E2,4.1E1,7.5E1,1.5E1,1.4E1,2.7E1,1.3527572E1,2.314103E1,1.9652176E1,1.5E1,6E-1,1E1,8.377698E1,1.6267857E1,1.3004922E1,1.2287555E1,3.3385544E1,2.9E1,9E-1,1.8347433E2,2.282045E2,2.4594786E2,5.6E1,-2.8947306E-1,2.2682856E1,4.430637E0,9E1,-1.005382E0,-6.5071946E-1,-7.263286E-1,-2.6734132E-1,-9.723606E-1,-1.203605E0,-3.4785232E-1,-8.4834814E-1,3.13501E-1,-6.194377E-2,-2.579889E-1,5.603327E-1,1.3201395E-1,9.3605655E-1,-4.3916464E-1,-7.854461E-1,1.0255349E0,5.578491E-1,3.1188688E-1,-4.3615207E-1,1.9225901E0,1.0314218E0,8.5961497E-1,-2.2108267E-1,2.4701056E0,1.1786311E0,8.0972236E-1,2.7725825E0],"split_indices":[0,0,0,6,6,0,0,0,0,0,5,5,5,1,4,0,6,5,5,5,6,2,4,6,6,6,1,0,5,0,0,0,0,0,0,0,0,0,0,0,0,0,0,0,0,0,0,0,0,0,0,0,0,0,0,0,0,0,0],"split_type":[0,0,0,0,0,0,0,0,0,0,0,0,0,0,0,0,0,0,0,0,0,0,0,0,0,0,0,0,0,0,0,0,0,0,0,0,0,0,0,0,0,0,0,0,0,0,0,0,0,0,0,0,0,0,0,0,0,0,0],"sum_hessian":[2.681E3,1.974E3,7.07E2,9.72E2,1.002E3,6.15E2,9.2E1,3.94E2,5.78E2,6.1E2,3.92E2,3.22E2,2.93E2,7.5E1,1.7E1,2.45E2,1.49E2,3.51E2,2.27E2,4.3E2,1.8E2,5.5E1,3.37E2,2.82E2,4E1,2.15E2,7.8E1,1E0,7.4E1,1.3E1,4E0,4.4E1,2.01E2,3.7E1,1.12E2,1.11E2,2.4E2,2.6E1,2.01E2,7.9E1,3.51E2,2.3E1,1.57E2,4.1E1,1.4E1,2.52E2,8.5E1,1.38E2,1.44E2,1.7E1,2.3E1,1.61E2,5.4E1,6.7E1,1.1E1,6.6E1,8E0,3E0,1E0],"tree_param":{"num_deleted":"0","num_feature":"7","num_nodes":"59","size_leaf_vector":"1"}},{"base_weights":[8.14444E-3,-4.0479903E0,1.1322915E1,-7.9445424E0,-9.918033E-1,8.101892E0,1.8922762E1,-6.381858E0,-9.981933E0,1.2819043E0,-3.5467355E0,1.115808E1,5.180664E0,1.5606822E1,2.8450985E1,-8.334184E0,-5.4216595E0,-1.0587054E1,-7.5806274E0,-1.0034336E0,3.2315722E0,2.970517E0,-4.4965363E0,9.338812E0,1.7503782E1,9.311369E0,3.0119424E0,1.9392117E1,1.0443294E1,3.088147E1,8.067592E0,-8.7743896E-1,-4.3495318E-1,-5.72474E-1,-1.611141E-1,-8.548334E-1,-1.1578546E0,1.8686752E-1,-7.72573E-1,1.1940814E0,-1.0956005E-1,-2.2191083E-1,4.4095692E-1,1.3124557E-2,6.920529E-1,-3.482988E-1,-7.152549E-1,5.95524E-1,1.299158E0,2.2621164E0,9.264688E-1,4.3025017E-1,1.3791151E0,4.323742E-1,-9.629938E-2,2.0363746E0,-6.5888226E-1,1.7666143E0,7.742244E-1,7.4054706E-1,3.176028E0,1.1602538E0,-5.1318105E-2],"categories":[],"categories_nodes":[],"categories_segments":[],"categories_sizes":[],"default_left":[0,0,0,0,0,0,0,0,0,0,0,0,0,0,0,0,0,0,0,0,0,0,0,0,0,0,0,0,0,0,0,0,0,0,0,0,0,0,0,0,0,0,0,0,0,0,0,0,0,0,0,0,0,0,0,0,0,0,0,0,0,0,0],"id":2,"left_children":[1,3,5,7,9,11,13,15,17,19,21,23,25,27,29,31,33,35,37,39,41,43,45,47,49,51,53,55,57,59,61,-1,-1,-1,-1,-1,-1,-1,-1,-1,-1,-1,-1,-1,-1,-1,-1,-1,-1,-1,-1,-1,-1,-1,-1,-1,-1,-1,-1,-1,-1,-1,-1],"loss_changes":[1.2313417E5,2.3511592E4,1.7178023E4,2.6998281E3,6.4411055E3,4.397172E3,6.190922E3,8.808789E2,4.6465234E2,2.618709E3,3.2445854E3,2.6418574E3,2.274251E3,2.885668E3,2.3765625E3,2.4423926E2,3.7651074E2,5.013711E2,1.2275537E2,3.3639374E2,2.0452063E3,7.505071E2,1.2026377E3,2.2832773E3,2.0250391E3,1.9152632E3,8.9059814E2,2.4061133E3,1.2093643E3,7.3445703E2,2.182821E2,0E0,0E0,0E0,0E0,0E0,0E0,0E0,0E0,0E0,0E0,0E0,0E0,0E0,0E0,0E0,0E0,0E0,0E0,0E0,0E0,0E0,0E0,0E0,0E0,0E0,0E0,0E0,0E0,0E0,0E0,0E0,0E0],"parents":[2147483647,0,0,1,1,2,2,3,3,4,4,5,5,6,6,7,7,8,8,9,9,10,10,11,11,12,12,13,13,14,14,15,15,16,16,17,17,18,18,19,19,20,20,21,21,22,22,23,23,24,24,25,25,26,26,27,27,28,28,29,29,30,30],"right_children":[2,4,6,8,10,12,14,16,18,20,22,24,26,28,30,32,34,36,38,40,42,44,46,48,50,52,54,56,58,60,62,-1,-1,-1,-1,-1,-1,-1,-1,-1,-1,-1,-1,-1,-1,-1,-1,-1,-1,-1,-1,-1,-1,-1,-1,-1,-1,-1,-1,-1,-1,-1,-1],"split_conditions":[3.2E1,1.7E1,4.9E1,2.5826144E2,2.2214009E2,1.9010706E2,6.3E1,1.2E1,1.5E1,2.3E1,1.3350371E1,4.4E1,1.4917212E1,1.9392032E2,2.318579E1,2.4E1,1.8095667E1,1.6267857E1,2.58852E2,7E0,5.010899E1,2.5E1,9.0000004E-1,3.1E1,4.1E1,3.8E1,1.4E0,2.4144167E1,1.332E1,4.198713E1,6.8E1,-8.7743896E-1,-4.3495318E-1,-5.72474E-1,-1.611141E-1,-8.548334E-1,-1.1578546E0,1.8686752E-1,-7.72573E-1,1.1940814E0,-1.0956005E-1,-2.2191083E-1,4.4095692E-1,1.3124557E-2,6.920529E-1,-3.482988E-1,-7.152549E-1,5.95524E-1,1.299158E0,2.2621164E0,9.264688E-1,4.3025017E-1,1.3791151E0,4.323742E-1,-9.629938E-2,2.0363746E0,-6.5888226E-1,1.7666143E0,7.742244E-1,7.4054706E-1,3.176028E0,1.1602538E0,-5.1318105E-2],"split_indices":[0,0,0,6,6,6,0,0,0,0,5,0,5,6,5,1,3,5,6,1,6,0,4,2,1,0,4,5,5,6,1,0,0,0,0,0,0,0,0,0,0,0,0,0,0,0,0,0,0,0,0,0,0,0,0,0,0,0,0,0,0,0,0],"split_type":[0,0,0,0,0,0,0,0,0,0,0,0,0,0,0,0,0,0,0,0,0,0,0,0,0,0,0,0,0,0,0,0,0,0,0,0,0,0,0,0,0,0,0,0,0,0,0,0,0,0,0,0,0,0,0,0,0,0,0,0,0,0,0],"sum_hessian":[2.681E3,1.974E3,7.07E2,8.67E2,1.107E3,4.98E2,2.09E2,4.93E2,3.74E2,5.86E2,5.21E2,2.42E2,2.56E2,1.57E2,5.2E1,1.6E2,3.33E2,2.96E2,7.8E1,2.7E2,3.16E2,6.6E1,4.55E2,1.9E2,5.2E1,8.7E1,1.69E2,8.9E1,6.8E1,4.6E1,6E0,1.43E2,1.7E1,3.08E2,2.5E1,1E2,1.96E2,1E0,7.7E1,1E0,2.69E2,5.6E1,2.6E2,3.9E1,2.7E1,3.31E2,1.24E2,1E2,9E1,3.1E1,2.1E1,4.2E1,4.5E1,1.27E2,4.2E1,8.6E1,3E0,1.7E1,5.1E1,2E0,4.4E1,4E0,2E0],"tree_param":{"num_deleted":"0","num_feature":"7","num_nodes":"63","size_leaf_vector":"1"}},{"base_weights":[1.1980807E-2,-4.1676197E0,8.994184E0,-7.155439E0,-1.4730197E0,5.1769686E0,1.4986909E1,-5.747814E0,-8.990668E0,5.505821E-1,-3.6367629E0,5.903772E0,-1.8021308E0,1.2897955E1,2.5700706E1,-8.03829E0,-5.063007E0,-7.4864E0,-9.805626E0,-8.990883E-1,2.2637267E0,-4.264491E-1,-5.3139644E0,1.2136959E1,5.3625097E0,-3.7143242E0,8.701176E0,1.5575498E1,5.7984467E0,2.7876652E1,7.4192514E0,-9.1128933E-1,-5.613746E-1,-8.144291E-1,-4.6697995E-1,1.2939696E-1,-8.0452824E-1,-1.0443288E0,-7.237756E-1,1.1343774E0,-9.864462E-2,-1.228596E-1,4.0758443E-1,1.0555871E-1,-3.2241166E-1,-3.8932884E-1,-7.207393E-1,1.5747244E0,6.4142567E-1,6.150023E-1,-1.1477523E-1,-6.0855454E-1,4.7192603E-1,-1.2083902E-1,1.4888593E0,1.7734123E0,8.658592E-1,8.0568475E-1,6.8836324E-2,2.339977E0,3.5088131E0,1.3590348E0,2.2327438E-1],"categories":[],"categories_nodes":[],"categories_segments":[],"categories_sizes":[],"default_left":[0,0,0,0,0,0,0,0,0,0,0,0,0,0,0,0,0,0,0,0,0,0,0,0,0,0,0,0,0,0,0,0,0,0,0,0,0,0,0,0,0,0,0,0,0,0,0,0,0,0,0,0,0,0,0,0,0,0,0,0,0,0,0],"id":3,"left_children":[1,3,5,7,9,11,13,15,17,19,21,23,25,27,29,31,33,35,37,39,41,43,45,47,49,51,53,55,57,59,61,-1,-1,-1,-1,-1,-1,-1,-1,-1,-1,-1,-1,-1,-1,-1,-1,-1,-1,-1,-1,-1,-1,-1,-1,-1,-1,-1,-1,-1,-1,-1,-1],"loss_changes":[1.0072519E5,1.4730803E4,1.941236E4,2.1906367E3,4.2229287E3,2.6584482E3,7.0765E3,7.341572E2,3.863086E2,1.2412992E3,2.5068384E3,1.5307168E3,1.0365366E3,5.2132656E3,1.9014844E3,2.406499E2,4.2600488E2,6.777886E2,3.1739844E2,3.010274E2,1.4542339E3,6.709486E2,7.950635E2,6.634346E2,2.2475225E3,8.8862866E2,5.0850812E2,2.8625117E3,8.946221E2,6.9634375E2,1.9370123E2,0E0,0E0,0E0,0E0,0E0,0E0,0E0,0E0,0E0,0E0,0E0,0E0,0E0,0E0,0E0,0E0,0E0,0E0,0E0,0E0,0E0,0E0,0E0,0E0,0E0,0E0,0E0,0E0,0E0,0E0,0E0,0E0],"parents":[2147483647,0,0,1,1,2,2,3,3,4,4,5,5,6,6,7,7,8,8,9,9,10,10,11,11,12,12,13,13,14,14,15,15,16,16,17,17,18,18,19,19,20,20,21,21,22,22,23,23,24,24,25,25,26,26,27,27,28,28,29,29,30,30],"right_children":[2,4,6,8,10,12,14,16,18,20,22,24,26,28,30,32,34,36,38,40,42,44,46,48,50,52,54,56,58,60,62,-1,-1,-1,-1,-1,-1,-1,-1,-1,-1,-1,-1,-1,-1,-1,-1,-1,-1,-1,-1,-1,-1,-1,-1,-1,-1,-1,-1,-1,-1,-1,-1],"split_conditions":[2.9E1,1.7E1,4.3E1,2.5826144E2,2.2214009E2,2.4315327E1,6.3E1,1.1E1,2.0206668E0,2.3E1,1.5937878E1,9.826088E0,4E1,1.9652176E1,2.318579E1,1.6E1,4.3674377E1,1.2429127E1,1.5E1,7E0,1.0953055E2,8.079E0,2.7650665E2,8.712333E0,2.9796274E2,4.1E1,5.78525E0,2.4594786E2,2.4315327E1,7.6E1,4.7E1,-9.1128933E-1,-5.613746E-1,-8.144291E-1,-4.6697995E-1,1.2939696E-1,-8.0452824E-1,-1.0443288E0,-7.237756E-1,1.1343774E0,-9.864462E-2,-1.228596E-1,4.0758443E-1,1.0555871E-1,-3.2241166E-1,-3.8932884E-1,-7.207393E-1,1.5747244E0,6.4142567E-1,6.150023E-1,-1.1477523E-1,-6.0855454E-1,4.7192603E-1,-1.2083902E-1,1.4888593E0,1.7734123E0,8.658592E-1,8.0568475E-1,6.8836324E-2,2.339977E0,3.5088131E0,1.3590348E0,2.2327438E-1],"split_indices":[0,0,0,6,6,5,0,0,3,0,5,5,0,5,5,1,6,5,0,1,6,3,6,3,6,2,3,6,5,0,1,0,0,0,0,0,0,0,0,0,0,0,0,0,0,0,0,0,0,0,0,0,0,0,0,0,0,0,0,0,0,0,0],"split_type":[0,0,0,0,0,0,0,0,0,0,0,0,0,0,0,0,0,0,0,0,0,0,0,0,0,0,0,0,0,0,0,0,0,0,0,0,0,0,0,0,0,0,0,0,0,0,0,0,0,0,0,0,0,0,0,0,0,0,0,0,0,0,0],"sum_hessian":[2.681E3,1.83E3,8.51E2,8.67E2,9.63E2,5.21E2,3.3E2,4.93E2,3.74E2,4.98E2,4.65E2,4.72E2,4.9E1,2.78E2,5.2E1,1.11E2,3.82E2,1.35E2,2.39E2,2.7E2,2.28E2,1.6E2,3.05E2,3.6E1,4.36E2,4.2E1,7E0,2.01E2,7.7E1,4.6E1,6E0,7.5E1,3.6E1,4.1E1,3.41E2,8E0,1.27E2,1.89E2,5E1,1E0,2.69E2,7.8E1,1.5E2,1.05E2,5.5E1,1.76E2,1.29E2,2.1E1,1.5E1,3.89E2,4.7E1,3.3E1,9E0,3E0,4E0,1.52E2,4.9E1,5.3E1,2.4E1,3.1E1,1.5E1,2E0,4E0],"tree_param":{"num_deleted":"0","num_feature":"7","num_nodes":"63","size_leaf_vector":"1"}},{"base_weights":[1.4395299E-2,-3.2972264E0,9.252303E0,-6.148263E0,-5.2817756E-1,7.655878E0,1.9726982E1,-4.2869725E0,-7.4074364E0,1.0631045E0,-3.0008116E0,1.0531955E1,4.7829385E0,1.7042635E1,2.996495E1,-6.4578304E0,-3.3832874E0,-8.621839E0,-6.1156387E0,5.6330267E-2,3.4545774E0,2.8935182E0,-3.948267E0,7.741726E0,1.4996926E1,1.0238952E1,3.207534E0,-3.570037E-1,1.736507E1,3.7985241E0,1.7724075E1,-5.625879E-1,-9.227819E-1,-7.7740854E-1,-2.847148E-1,-9.0730095E-1,-5.507526E-1,-4.2411628E-1,-6.9494194E-1,2.7342495E-1,-5.524478E-2,5.381241E-1,4.6308365E-2,9.1354154E-2,8.626769E-1,-5.9302443E-1,-3.070242E-1,4.7377372E-1,1.099075E0,9.2189276E-1,1.7992703E0,6.9045573E-1,1.3878578E0,-5.417922E-1,3.720848E-1,1.7837018E0,4.5287585E-1,2.3849766E0,4.104522E-1],"categories":[],"categories_nodes":[],"categories_segments":[],"categories_sizes":[],"default_left":[0,0,0,0,0,0,0,0,0,0,0,0,0,0,0,0,0,0,0,0,0,0,0,0,0,0,0,0,0,0,0,0,0,0,0,0,0,0,0,0,0,0,0,0,0,0,0,0,0,0,0,0,0,0,0,0,0,0,0],"id":4,"left_children":[1,3,5,7,9,11,13,15,17,19,21,23,25,27,29,31,33,35,37,39,41,43,45,47,49,51,53,-1,55,-1,57,-1,-1,-1,-1,-1,-1,-1,-1,-1,-1,-1,-1,-1,-1,-1,-1,-1,-1,-1,-1,-1,-1,-1,-1,-1,-1,-1,-1],"loss_changes":[8.207947E4,1.5588705E4,1.1688172E4,2.2486523E3,3.9496526E3,5.039508E3,2.0451719E3,7.530513E2,8.5558594E2,1.4708938E3,2.2061777E3,3.7085898E3,2.6317397E3,5.671094E2,1.0939043E3,2.1310254E2,6.393628E2,3.659336E2,4.1439062E2,7.041519E2,1.04072E3,6.1646265E2,5.71729E2,1.8120957E3,1.8593496E3,7.415552E2,1.0916299E3,0E0,3.7357422E2,0E0,6.529707E2,0E0,0E0,0E0,0E0,0E0,0E0,0E0,0E0,0E0,0E0,0E0,0E0,0E0,0E0,0E0,0E0,0E0,0E0,0E0,0E0,0E0,0E0,0E0,0E0,0E0,0E0,0E0,0E0],"parents":[2147483647,0,0,1,1,2,2,3,3,4,4,5,5,6,6,7,7,8,8,9,9,10,10,11,11,12,12,13,13,14,14,15,15,16,16,17,17,18,18,19,19,20,20,21,21,22,22,23,23,24,24,25,25,26,26,28,28,30,30],"right_children":[2,4,6,8,10,12,14,16,18,20,22,24,26,28,30,32,34,36,38,40,42,44,46,48,50,52,54,-1,56,-1,58,-1,-1,-1,-1,-1,-1,-1,-1,-1,-1,-1,-1,-1,-1,-1,-1,-1,-1,-1,-1,-1,-1,-1,-1,-1,-1,-1,-1],"split_conditions":[3.2E1,1.8E1,5.8E1,2.2896136E2,2.3873984E2,1.9010706E2,7.5E1,8.377698E1,1.3E1,2.7E1,1.3441071E1,4.4E1,1.3104198E1,1.5E1,1.580834E2,2.1746504E1,1E1,2E1,1.5580141E1,1.2287555E1,1.6954432E1,2.9E1,2.1E1,3.1E1,8.648759E1,4.1E1,1.8E1,-3.570037E-1,1.9412334E1,3.7985241E0,3E-1,-5.625879E-1,-9.227819E-1,-7.7740854E-1,-2.847148E-1,-9.0730095E-1,-5.507526E-1,-4.2411628E-1,-6.9494194E-1,2.7342495E-1,-5.524478E-2,5.381241E-1,4.6308365E-2,9.1354154E-2,8.626769E-1,-5.9302443E-1,-3.070242E-1,4.7377372E-1,1.099075E0,9.2189276E-1,1.7992703E0,6.9045573E-1,1.3878578E0,-5.417922E-1,3.720848E-1,1.7837018E0,4.5287585E-1,2.3849766E0,4.104522E-1],"split_indices":[0,0,0,6,6,6,0,6,0,0,5,0,5,1,6,5,0,1,5,5,5,2,0,2,6,0,1,0,3,0,4,0,0,0,0,0,0,0,0,0,0,0,0,0,0,0,0,0,0,0,0,0,0,0,0,0,0,0,0],"split_type":[0,0,0,0,0,0,0,0,0,0,0,0,0,0,0,0,0,0,0,0,0,0,0,0,0,0,0,0,0,0,0,0,0,0,0,0,0,0,0,0,0,0,0,0,0,0,0,0,0,0,0,0,0,0,0,0,0,0,0],"sum_hessian":[2.681E3,1.974E3,7.07E2,9.72E2,1.002E3,6.15E2,9.2E1,3.94E2,5.78E2,6.1E2,3.92E2,3.06E2,3.09E2,7.5E1,1.7E1,1.14E2,2.8E2,2.95E2,2.83E2,4.3E2,1.8E2,5.4E1,3.38E2,1.9E2,1.16E2,6.8E1,2.41E2,1E0,7.4E1,9E0,8E0,9E1,2.4E1,2.9E1,2.51E2,2.56E2,3.9E1,8.9E1,1.94E2,7.9E1,3.51E2,1.09E2,7.1E1,4.1E1,1.3E1,1.02E2,2.36E2,1E2,9E1,4.1E1,7.5E1,3.7E1,3.1E1,1.3E1,2.28E2,7.1E1,3E0,5E0,3E0],"tree_param":{"num_deleted":"0","num_feature":"7","num_nodes":"59","size_leaf_vector":"1"}},{"base_weights":[1.6836483E-2,-2.9696646E0,8.347801E0,-5.141421E0,7.6921107E-3,7.181378E0,2.0175762E1,-3.508515E0,-6.600326E0,1.8927758E0,-1.7340734E0,4.38866E0,9.943312E0,1.5438324E1,2.5920557E1,-4.4050364E0,-1.2269633E0,-4.599909E0,-7.4093966E0,4.096523E0,8.7985945E-1,-2.8541332E-1,-4.188724E0,5.254802E0,-1.6968732E0,1.1783196E1,4.714522E0,1.7055696E1,1.6759945E0,9.300808E0,2.7610493E1,-6.5994376E-1,-3.975502E-1,5.7821978E-2,-2.948064E-1,-1.1451119E-1,-6.079251E-1,-8.196897E-1,-5.988824E-1,8.4185743E-1,2.8886038E-1,2.2325924E-1,-5.9136923E-2,-5.428702E-1,4.171236E-2,-3.4450558E-1,-6.9688606E-1,4.5236808E-1,1.1052186E0,-3.0270955E-1,6.567272E-1,1.3348941E0,6.995469E-1,5.661482E-1,-3.0485237E-1,9.820695E-1,2.0226803E0,4.2833272E-1,-4.376668E-1,1.2034553E0,5.4978754E-2,2.8974473E0,8.404458E-1],"categories":[],"categories_nodes":[],"categories_segments":[],"categories_sizes":[],"default_left":[0,0,0,0,0,0,0,0,0,0,0,0,0,0,0,0,0,0,0,0,0,0,0,0,0,0,0,0,0,0,0,0,0,0,0,0,0,0,0,0,0,0,0,0,0,0,0,0,0,0,0,0,0,0,0,0,0,0,0,0,0,0,0],"id":5,"left_children":[1,3,5,7,9,11,13,15,17,19,21,23,25,27,29,31,33,35,37,39,41,43,45,47,49,51,53,55,57,59,61,-1,-1,-1,-1,-1,-1,-1,-1,-1,-1,-1,-1,-1,-1,-1,-1,-1,-1,-1,-1,-1,-1,-1,-1,-1,-1,-1,-1,-1,-1,-1,-1],"loss_changes":[6.675412E4,1.2770572E4,9.622969E3,2.697379E3,2.741616E3,4.9391523E3,1.3144141E3,1.101189E3,9.4024023E2,8.915123E2,1.5420887E3,1.7114292E3,3.0614512E3,7.949922E2,5.015293E2,3.3948145E2,4.8016748E2,8.925442E2,4.2859766E2,6.334888E2,5.5060986E2,9.923223E2,3.0885938E2,1.1495254E3,4.705988E2,1.6982461E3,6.494706E2,5.584756E2,9.765323E1,8.9075745E1,3.8520703E2,0E0,0E0,0E0,0E0,0E0,0E0,0E0,0E0,0E0,0E0,0E0,0E0,0E0,0E0,0E0,0E0,0E0,0E0,0E0,0E0,0E0,0E0,0E0,0E0,0E0,0E0,0E0,0E0,0E0,0E0,0E0,0E0],"parents":[2147483647,0,0,1,1,2,2,3,3,4,4,5,5,6,6,7,7,8,8,9,9,10,10,11,11,12,12,13,13,14,14,15,15,16,16,17,17,18,18,19,19,20,20,21,21,22,22,23,23,24,24,25,25,26,26,27,27,28,28,29,29,30,30],"right_children":[2,4,6,8,10,12,14,16,18,20,22,24,26,28,30,32,34,36,38,40,42,44,46,48,50,52,54,56,58,60,62,-1,-1,-1,-1,-1,-1,-1,-1,-1,-1,-1,-1,-1,-1,-1,-1,-1,-1,-1,-1,-1,-1,-1,-1,-1,-1,-1,-1,-1,-1,-1,-1],"split_conditions":[3.2E1,2E1,6.2E1,2.4094548E2,1.6267857E1,4.1E1,7.7498336E0,1.7E1,1.5629971E1,1.2287555E1,2.5006189E2,2.314103E1,1.9652176E1,2.1322214E1,2.4E1,4.3674377E1,1.8E1,4.8733354E-1,1.5E1,-2.1683335E-1,2.0810023E2,4.3674377E1,2.6282465E1,5.1E1,4E1,2.4594786E2,3.002615E2,1.4538046E2,6.8E1,6.7E1,8.5E1,-6.5994376E-1,-3.975502E-1,5.7821978E-2,-2.948064E-1,-1.1451119E-1,-6.079251E-1,-8.196897E-1,-5.988824E-1,8.4185743E-1,2.8886038E-1,2.2325924E-1,-5.9136923E-2,-5.428702E-1,4.171236E-2,-3.4450558E-1,-6.9688606E-1,4.5236808E-1,1.1052186E0,-3.0270955E-1,6.567272E-1,1.3348941E0,6.995469E-1,5.661482E-1,-3.0485237E-1,9.820695E-1,2.0226803E0,4.2833272E-1,-4.376668E-1,1.2034553E0,5.4978754E-2,2.8974473E0,8.404458E-1],"split_indices":[0,0,0,6,5,0,3,0,5,5,6,5,5,5,2,6,1,3,0,3,6,6,5,2,0,6,6,6,1,0,2,0,0,0,0,0,0,0,0,0,0,0,0,0,0,0,0,0,0,0,0,0,0,0,0,0,0,0,0,0,0,0,0],"split_type":[0,0,0,0,0,0,0,0,0,0,0,0,0,0,0,0,0,0,0,0,0,0,0,0,0,0,0,0,0,0,0,0,0,0,0,0,0,0,0,0,0,0,0,0,0,0,0,0,0,0,0,0,0,0,0,0,0,0,0,0,0,0,0],"sum_hessian":[2.681E3,1.974E3,7.07E2,1.141E3,8.33E2,6.45E2,6.2E1,5.4E2,6.01E2,4E2,4.33E2,3.22E2,3.23E2,3.6E1,2.6E1,3.87E2,1.53E2,1.75E2,4.26E2,1.25E2,2.75E2,2.73E2,1.6E2,2.82E2,4E1,2.38E2,8.5E1,3.2E1,4E0,3E0,2.3E1,6.1E1,3.26E2,7.5E1,7.8E1,5.3E1,1.22E2,2.71E2,1.55E2,2.6E1,9.9E1,1.43E2,1.32E2,3.2E1,2.41E2,1.28E2,3.2E1,2.52E2,3E1,3.5E1,5E0,1.78E2,6E1,7.6E1,9E0,1.1E1,2.1E1,3E0,1E0,2E0,1E0,2.1E1,2E0],"tree_param":{"num_deleted":"0","num_feature":"7","num_nodes":"63","size_leaf_vector":"1"}},{"base_weights":[1.8328227E-2,-3.062244E0,6.638644E0,-5.241137E0,-1.0971595E0,3.8100538E0,1.1079387E1,-4.2877936E0,-6.892902E0,4.1983104E-1,-2.719222E0,4.377981E0,-1.6387402E0,9.80892E0,2.1543652E1,-5.741861E0,-3.54717E0,-6.143678E0,-8.571162E0,-7.5894123E-1,1.8129641E0,-1.8175982E-1,-4.045406E0,9.716154E0,3.9159894E0,-3.2519937E0,7.23734E0,1.1826902E1,4.463434E0,8.557838E0,2.4484468E1,-6.4538014E-1,-4.11206E-1,2.9927088E-2,-3.791899E-1,-7.812316E-1,-5.505914E-1,-6.775672E-1,-9.2956096E-1,-1.00952975E-1,3.297909E-1,-1.3139914E-1,3.4369144E-1,1.1453014E-1,-2.690451E-1,-2.8859526E-1,-5.5929273E-1,1.3013324E0,4.575288E-1,4.586626E-1,-1.6145167E-1,-5.324079E-1,4.1182953E-1,-1.1614952E-2,1.4619867E0,1.3422182E0,6.5681994E-1,8.1253207E-1,1.7567106E-1,1.124607E0,3.2876205E-2,2.6055238E0,2.7096483E-1],"categories":[],"categories_nodes":[],"categories_segments":[],"categories_sizes":[],"default_left":[0,0,0,0,0,0,0,0,0,0,0,0,0,0,0,0,0,0,0,0,0,0,0,0,0,0,0,0,0,0,0,0,0,0,0,0,0,0,0,0,0,0,0,0,0,0,0,0,0,0,0,0,0,0,0,0,0,0,0,0,0,0,0],"id":6,"left_children":[1,3,5,7,9,11,13,15,17,19,21,23,25,27,29,31,33,35,37,39,41,43,45,47,49,51,53,55,57,59,61,-1,-1,-1,-1,-1,-1,-1,-1,-1,-1,-1,-1,-1,-1,-1,-1,-1,-1,-1,-1,-1,-1,-1,-1,-1,-1,-1,-1,-1,-1,-1,-1],"loss_changes":[5.4718008E4,7.8340586E3,1.0659793E4,1.3372832E3,2.373212E3,1.6225137E3,4.18916E3,5.7516797E2,3.4467676E2,8.208271E2,1.5674204E3,1.12846E3,7.3950415E2,3.1509785E3,1.1270771E3,1.881211E2,3.484873E2,1.932373E2,6.0585938E1,2.788279E2,1.1673828E3,5.3908044E2,5.329082E2,5.676216E2,1.6282212E3,6.7861633E2,4.3599673E2,1.7154961E3,8.0839844E2,1.7327606E2,8.8708984E2,0E0,0E0,0E0,0E0,0E0,0E0,0E0,0E0,0E0,0E0,0E0,0E0,0E0,0E0,0E0,0E0,0E0,0E0,0E0,0E0,0E0,0E0,0E0,0E0,0E0,0E0,0E0,0E0,0E0,0E0,0E0,0E0],"parents":[2147483647,0,0,1,1,2,2,3,3,4,4,5,5,6,6,7,7,8,8,9,9,10,10,11,11,12,12,13,13,14,14,15,15,16,16,17,17,18,18,19,19,20,20,21,21,22,22,23,23,24,24,25,25,26,26,27,27,28,28,29,29,30,30],"right_children":[2,4,6,8,10,12,14,16,18,20,22,24,26,28,30,32,34,36,38,40,42,44,46,48,50,52,54,56,58,60,62,-1,-1,-1,-1,-1,-1,-1,-1,-1,-1,-1,-1,-1,-1,-1,-1,-1,-1,-1,-1,-1,-1,-1,-1,-1,-1,-1,-1,-1,-1,-1,-1],"split_conditions":[2.9E1,1.7E1,4.3E1,2.7060217E2,2.2214009E2,2.4315327E1,6.6E1,1.2E1,2.0447239E1,2.3E1,1.5937878E1,9.826088E0,4E1,1.9652176E1,2.9E1,1.6E1,1.0948973E1,1E1,1.2665001E0,3.8E1,1.0953055E2,8.079E0,2.7650665E2,8.712333E0,2.9796274E2,4.1E1,9.124833E0,2.4594786E2,1.8420341E2,2.6000001E0,2.318579E1,-6.4538014E-1,-4.11206E-1,2.9927088E-2,-3.791899E-1,-7.812316E-1,-5.505914E-1,-6.775672E-1,-9.2956096E-1,-1.00952975E-1,3.297909E-1,-1.3139914E-1,3.4369144E-1,1.1453014E-1,-2.690451E-1,-2.8859526E-1,-5.5929273E-1,1.3013324E0,4.575288E-1,4.586626E-1,-1.6145167E-1,-5.324079E-1,4.1182953E-1,-1.1614952E-2,1.4619867E0,1.3422182E0,6.5681994E-1,8.1253207E-1,1.7567106E-1,1.124607E0,3.2876205E-2,2.6055238E0,2.7096483E-1],"split_indices":[0,0,0,6,6,5,0,0,5,0,5,5,0,5,2,1,5,0,3,1,6,3,6,3,6,2,3,6,6,4,5,0,0,0,0,0,0,0,0,0,0,0,0,0,0,0,0,0,0,0,0,0,0,0,0,0,0,0,0,0,0,0,0],"split_type":[0,0,0,0,0,0,0,0,0,0,0,0,0,0,0,0,0,0,0,0,0,0,0,0,0,0,0,0,0,0,0,0,0,0,0,0,0,0,0,0,0,0,0,0,0,0,0,0,0,0,0,0,0,0,0,0,0,0,0,0,0,0,0],"sum_hessian":[2.681E3,1.83E3,8.51E2,8.67E2,9.63E2,5.21E2,3.3E2,5.52E2,3.15E2,4.98E2,4.65E2,4.72E2,4.9E1,2.96E2,3.4E1,1.84E2,3.68E2,2.21E2,9.4E1,2.7E2,2.28E2,1.6E2,3.05E2,3.6E1,4.36E2,4.2E1,7E0,2.14E2,8.2E1,7E0,2.7E1,1.26E2,5.8E1,2.2E1,3.46E2,5.8E1,1.63E2,3E1,6.4E1,2.55E2,1.5E1,7.8E1,1.5E2,1.05E2,5.5E1,1.76E2,1.29E2,2.1E1,1.5E1,3.89E2,4.7E1,3.3E1,9E0,4E0,3E0,1.63E2,5.1E1,3.4E1,4.8E1,5E0,2E0,2.5E1,2E0],"tree_param":{"num_deleted":"0","num_feature":"7","num_nodes":"63","size_leaf_vector":"1"}},{"base_weights":[1.8546583E-2,-2.4194393E0,6.819399E0,-4.190035E0,7.946204E-3,5.4713144E0,1.4098338E1,-2.6101959E0,-5.2595572E0,2.68564E0,-8.7468207E-1,7.6889114E0,3.250275E0,1.2237502E1,2.3558353E1,-3.8814578E0,-1.2942277E0,-6.3444963E0,-4.3707485E0,6.188497E0,1.7831964E0,7.4638647E-1,-2.276692E0,1.3080441E0,9.121861E0,6.7626123E0,1.8594964E0,1.3650021E1,5.036682E0,3.1526892E1,1.297222E1,-3.4370282E-1,-6.803825E-1,-1.6608547E-2,-2.672673E-1,-6.8010825E-1,-3.565457E-1,-3.807707E-1,-6.587159E-1,3.50772E-1,1.342453E0,2.1656482E-2,3.0105895E-1,-4.5537072E-1,1.5813957E-1,-4.005684E-2,-3.726111E-1,3.5801044E-1,-6.482625E-1,7.030705E-1,1.2560501E0,2.631267E-1,9.333827E-1,3.1495556E-1,-1.7313479E-1,-4.0697184E-1,1.3933E0,-4.915208E-2,1.3004332E0,3.3331292E0,8.545839E-1,1.7960681E0,2.2464757E-1],"categories":[],"categories_nodes":[],"categories_segments":[],"categories_sizes":[],"default_left":[0,0,0,0,0,0,0,0,0,0,0,0,0,0,0,0,0,0,0,0,0,0,0,0,0,0,0,0,0,0,0,0,0,0,0,0,0,0,0,0,0,0,0,0,0,0,0,0,0,0,0,0,0,0,0,0,0,0,0,0,0,0,0],"id":7,"left_children":[1,3,5,7,9,11,13,15,17,19,21,23,25,27,29,31,33,35,37,39,41,43,45,47,49,51,53,55,57,59,61,-1,-1,-1,-1,-1,-1,-1,-1,-1,-1,-1,-1,-1,-1,-1,-1,-1,-1,-1,-1,-1,-1,-1,-1,-1,-1,-1,-1,-1,-1,-1,-1],"loss_changes":[4.4485086E4,8.48842E3,6.870203E3,1.9158789E3,1.9734316E3,2.9253047E3,1.6480938E3,7.695481E2,6.2799805E2,6.433187E2,1.428989E3,2.721963E3,1.4577749E3,8.873496E2,1.0250791E3,2.8182983E2,3.556699E2,3.614873E2,4.453872E2,7.6763464E2,3.185448E2,1.2994844E3,9.149077E2,1.01445715E3,1.6662285E3,8.783594E2,1.0106841E3,4.478213E2,7.5518713E2,8.8359375E1,4.411963E2,0E0,0E0,0E0,0E0,0E0,0E0,0E0,0E0,0E0,0E0,0E0,0E0,0E0,0E0,0E0,0E0,0E0,0E0,0E0,0E0,0E0,0E0,0E0,0E0,0E0,0E0,0E0,0E0,0E0,0E0,0E0,0E0],"parents":[2147483647,0,0,1,1,2,2,3,3,4,4,5,5,6,6,7,7,8,8,9,9,10,10,11,11,12,12,13,13,14,14,15,15,16,16,17,17,18,18,19,19,20,20,21,21,22,22,23,23,24,24,25,25,26,26,27,27,28,28,29,29,30,30],"right_children":[2,4,6,8,10,12,14,16,18,20,22,24,26,28,30,32,34,36,38,40,42,44,46,48,50,52,54,56,58,60,62,-1,-1,-1,-1,-1,-1,-1,-1,-1,-1,-1,-1,-1,-1,-1,-1,-1,-1,-1,-1,-1,-1,-1,-1,-1,-1,-1,-1,-1,-1,-1,-1],"split_conditions":[3.2E1,2E1,5.6E1,2.249999E2,1.3684735E1,1.9010706E2,7.6E1,1.5E1,1.3E1,-2.1683335E-1,2.1557584E2,5.2076275E1,1.405845E1,2.0945072E1,1.580834E2,2.3313995E1,1.8E1,2E1,1.4000001E0,2.7E1,2.5E1,4.3674377E1,1E-1,1.8847641E1,4.4E1,3.8E1,1.3000001E0,1.5E1,8.926917E0,7.9E1,3E-1,-3.4370282E-1,-6.803825E-1,-1.6608547E-2,-2.672673E-1,-6.8010825E-1,-3.565457E-1,-3.807707E-1,-6.587159E-1,3.50772E-1,1.342453E0,2.1656482E-2,3.0105895E-1,-4.5537072E-1,1.5813957E-1,-4.005684E-2,-3.726111E-1,3.5801044E-1,-6.482625E-1,7.030705E-1,1.2560501E0,2.631267E-1,9.333827E-1,3.1495556E-1,-1.7313479E-1,-4.0697184E-1,1.3933E0,-4.915208E-2,1.3004332E0,3.3331292E0,8.545839E-1,1.7960681E0,2.2464757E-1],"split_indices":[0,0,0,6,5,6,0,0,0,3,6,6,5,5,6,5,1,1,4,0,0,6,4,5,0,0,4,1,3,2,4,0,0,0,0,0,0,0,0,0,0,0,0,0,0,0,0,0,0,0,0,0,0,0,0,0,0,0,0,0,0,0,0],"split_type":[0,0,0,0,0,0,0,0,0,0,0,0,0,0,0,0,0,0,0,0,0,0,0,0,0,0,0,0,0,0,0,0,0,0,0,0,0,0,0,0,0,0,0,0,0,0,0,0,0,0,0,0,0,0,0,0,0,0,0,0,0,0,0],"sum_hessian":[2.681E3,1.974E3,7.07E2,1.141E3,8.33E2,5.98E2,1.09E2,4.62E2,6.79E2,2.06E2,6.27E2,2.98E2,3E2,9.3E1,1.6E1,2.34E2,2.28E2,3.03E2,3.76E2,4.1E1,1.65E2,2.91E2,3.36E2,5.5E1,2.43E2,8.4E1,2.16E2,7.7E1,1.6E1,8E0,8E0,2.05E2,2.9E1,1.26E2,1.02E2,2.59E2,4.4E1,3.02E2,7.4E1,3.1E1,1E1,7.3E1,9.2E1,3.9E1,2.52E2,1.47E2,1.89E2,4.3E1,1.2E1,1.53E2,9E1,3.3E1,5.1E1,1.59E2,5.7E1,1E0,7.6E1,1E1,6E0,7E0,1E0,5E0,3E0],"tree_param":{"num_deleted":"0","num_feature":"7","num_nodes":"63","size_leaf_vector":"1"}},{"base_weights":[2.0187678E-2,-1.7192125E0,7.8832374E0,-3.6236522E0,7.5676376E-1,6.865154E0,1.6071257E1,-2.360278E0,-4.7595897E0,2.2429986E0,-7.033441E-1,9.059059E0,4.2529893E0,1.7524485E1,4.017974E0,-3.5466077E0,-1.3344028E0,-3.0930657E0,-5.462383E0,6.9026465E0,1.9013469E0,-6.5044954E-2,-4.346065E0,5.806848E0,1.0731931E1,9.277753E0,1.9282568E0,1.2941891E1,2.174363E1,-1.7107868E0,6.6516356E0,-3.172744E-1,-5.9982336E-1,-1.8699859E-1,1.2606576E-1,-2.6850982E-2,-4.3673578E-1,-5.723029E-1,-1.2552129E-1,-1.930663E-1,9.015359E-1,3.025119E-1,4.6973046E-2,-4.817407E-1,4.1670125E-2,-5.396272E-1,-8.956525E-2,-6.045226E-1,6.82208E-1,1.1186811E0,-5.060826E-1,4.254163E-1,1.1515373E0,-2.1215756E-1,3.488409E-1,3.3542353E-1,1.4608386E0,1.6359749E0,2.8300803E0,1.6549139E-1,-4.2210943E-1,1.044446E0,3.092315E-1],"categories":[],"categories_nodes":[],"categories_segments":[],"categories_sizes":[],"default_left":[0,0,0,0,0,0,0,0,0,0,0,0,0,0,0,0,0,0,0,0,0,0,0,0,0,0,0,0,0,0,0,0,0,0,0,0,0,0,0,0,0,0,0,0,0,0,0,0,0,0,0,0,0,0,0,0,0,0,0,0,0,0,0],"id":8,"left_children":[1,3,5,7,9,11,13,15,17,19,21,23,25,27,29,31,33,35,37,39,41,43,45,47,49,51,53,55,57,59,61,-1,-1,-1,-1,-1,-1,-1,-1,-1,-1,-1,-1,-1,-1,-1,-1,-1,-1,-1,-1,-1,-1,-1,-1,-1,-1,-1,-1,-1,-1,-1,-1],"loss_changes":[3.6695242E4,1.0362361E4,3.9410078E3,1.7711777E3,2.0761582E3,2.4486582E3,8.5794434E2,7.1331274E2,7.4791113E2,7.4147266E2,1.122763E3,1.216207E3,2.3183567E3,6.2732227E2,1.1699286E2,2.3119409E2,4.4433618E2,7.0429175E2,4.9505078E2,6.145974E2,7.112821E2,9.4525354E2,2.560692E2,1.0279153E3,1.1629199E3,6.59187E2,8.7933374E2,3.5044434E2,3.489756E2,3.2332382E1,3.5201843E1,0E0,0E0,0E0,0E0,0E0,0E0,0E0,0E0,0E0,0E0,0E0,0E0,0E0,0E0,0E0,0E0,0E0,0E0,0E0,0E0,0E0,0E0,0E0,0E0,0E0,0E0,0E0,0E0,0E0,0E0,0E0,0E0],"parents":[2147483647,0,0,1,1,2,2,3,3,4,4,5,5,6,6,7,7,8,8,9,9,10,10,11,11,12,12,13,13,14,14,15,15,16,16,17,17,18,18,19,19,20,20,21,21,22,22,23,23,24,24,25,25,26,26,27,27,28,28,29,29,30,30],"right_children":[2,4,6,8,10,12,14,16,18,20,22,24,26,28,30,32,34,36,38,40,42,44,46,48,50,52,54,56,58,60,62,-1,-1,-1,-1,-1,-1,-1,-1,-1,-1,-1,-1,-1,-1,-1,-1,-1,-1,-1,-1,-1,-1,-1,-1,-1,-1,-1,-1,-1,-1,-1,-1],"split_conditions":[3.8E1,2.1E1,6.3E1,2.3873984E2,1.6311613E1,1.9991878E2,2.318579E1,1.5E1,1.5629971E1,9.19939E0,2.9360443E2,3.487333E0,1.4529915E1,7.7498336E0,1E-1,2.3313995E1,1.7122747E1,9.248333E-1,1.6739416E1,2.4E1,2.0912935E2,4.3674377E1,3.3924277E2,1.4E1,1.48E1,2.7E1,2.5915E0,9.864942E1,7.6E1,6.5E1,6.4E1,-3.172744E-1,-5.9982336E-1,-1.8699859E-1,1.2606576E-1,-2.6850982E-2,-4.3673578E-1,-5.723029E-1,-1.2552129E-1,-1.930663E-1,9.015359E-1,3.025119E-1,4.6973046E-2,-4.817407E-1,4.1670125E-2,-5.396272E-1,-8.956525E-2,-6.045226E-1,6.82208E-1,1.1186811E0,-5.060826E-1,4.254163E-1,1.1515373E0,-2.1215756E-1,3.488409E-1,3.3542353E-1,1.4608386E0,1.6359749E0,2.8300803E0,1.6549139E-1,-4.2210943E-1,1.044446E0,3.092315E-1],"split_indices":[0,0,0,6,5,6,5,0,5,5,6,3,5,3,4,5,3,3,3,0,6,6,6,2,4,2,3,6,0,0,0,0,0,0,0,0,0,0,0,0,0,0,0,0,0,0,0,0,0,0,0,0,0,0,0,0,0,0,0,0,0,0,0],"split_type":[0,0,0,0,0,0,0,0,0,0,0,0,0,0,0,0,0,0,0,0,0,0,0,0,0,0,0,0,0,0,0,0,0,0,0,0,0,0,0,0,0,0,0,0,0,0,0,0,0,0,0,0,0,0,0,0,0,0,0,0,0,0,0],"sum_hessian":[2.681E3,2.196E3,4.85E2,1.241E3,9.55E2,4.33E2,5.2E1,5.89E2,6.52E2,4.73E2,4.82E2,2.34E2,1.99E2,4.6E1,6E0,2.72E2,3.17E2,1.95E2,4.57E2,3.1E1,4.42E2,4.11E2,7.1E1,8.1E1,1.53E2,6.2E1,1.37E2,2.4E1,2.2E1,2E0,4E0,2.38E2,3.4E1,2.63E2,5.4E1,6.1E1,1.34E2,4.3E2,2.7E1,6E0,2.5E1,2.47E2,1.95E2,3.7E1,3.74E2,5.4E1,1.7E1,6E0,7.5E1,1.49E2,4E0,2E1,4.2E1,3.8E1,9.9E1,4E0,2E1,1.4E1,8E0,1E0,1E0,1E0,3E0],"tree_param":{"num_deleted":"0","num_feature":"7","num_nodes":"63","size_leaf_vector":"1"}},{"base_weights":[2.100739E-2,-2.2639058E0,4.9314003E0,-4.318187E0,-1.1269096E0,2.5287008E0,7.8255177E0,-3.3351693E0,-5.327646E0,-1.2399239E-1,-2.4216979E0,4.143526E0,9.168581E-1,6.7266216E0,1.4602986E1,-3.6348293E0,-1.3365711E0,-3.908307E0,-6.062757E0,-9.200513E-1,2.4201705E0,-2.6841059E0,2.828862E0,-5.689683E-1,5.5683513E0,3.4639134E0,-1.0625671E0,8.005588E0,3.003517E0,1.5905276E1,3.7728999E0,-2.9666254E-1,-4.6952102E-1,5.1346195E-1,-1.7569666E-1,3.006546E-1,-4.3280774E-1,-6.303409E-1,-2.7659315E-1,-1.8342225E-3,-2.2527318E-1,1.0672239E0,2.0829462E-1,-2.1525514E-1,-5.0285596E-1,-4.3074474E-1,3.997788E-1,1.3251746E-1,-9.2251295E-1,4.422145E-1,9.5695496E-1,4.8707667E-1,-2.6180673E-1,4.978516E-1,-1.8151191E-1,-1.0278662E0,8.196023E-1,4.62936E-1,-8.282501E-3,1.1719553E0,1.9763441E0,6.279988E-1,-1.6632144E-1],"categories":[],"categories_nodes":[],"categories_segments":[],"categories_sizes":[],"default_left":[0,0,0,0,0,0,0,0,0,0,0,0,0,0,0,0,0,0,0,0,0,0,0,0,0,0,0,0,0,0,0,0,0,0,0,0,0,0,0,0,0,0,0,0,0,0,0,0,0,0,0,0,0,0,0,0,0,0,0,0,0,0,0],"id":9,"left_children":[1,3,5,7,9,11,13,15,17,19,21,23,25,27,29,31,33,35,37,39,41,43,45,47,49,51,53,55,57,59,61,-1,-1,-1,-1,-1,-1,-1,-1,-1,-1,-1,-1,-1,-1,-1,-1,-1,-1,-1,-1,-1,-1,-1,-1,-1,-1,-1,-1,-1,-1,-1,-1],"loss_changes":[3.0102723E4,4.2718184E3,5.9047617E3,6.292217E2,1.5320071E3,1.2117295E3,2.7765957E3,1.9457544E2,3.1018457E2,1.3510789E3,7.171543E2,1.5676421E3,1.1884814E3,1.5663721E3,6.8749805E2,1.9084204E2,1.3144199E2,3.3810925E2,1.483833E2,6.1041724E2,4.202356E2,6.0106226E2,2.257657E2,9.140051E2,7.786113E2,8.940669E2,6.1368506E2,9.4777344E2,4.3694153E2,5.2739453E2,1.05846695E2,0E0,0E0,0E0,0E0,0E0,0E0,0E0,0E0,0E0,0E0,0E0,0E0,0E0,0E0,0E0,0E0,0E0,0E0,0E0,0E0,0E0,0E0,0E0,0E0,0E0,0E0,0E0,0E0,0E0,0E0,0E0,0E0],"parents":[2147483647,0,0,1,1,2,2,3,3,4,4,5,5,6,6,7,7,8,8,9,9,10,10,11,11,12,12,13,13,14,14,15,15,16,16,17,17,18,18,19,19,20,20,21,21,22,22,23,23,24,24,25,25,26,26,27,27,28,28,29,29,30,30],"right_children":[2,4,6,8,10,12,14,16,18,20,22,24,26,28,30,32,34,36,38,40,42,44,46,48,50,52,54,56,58,60,62,-1,-1,-1,-1,-1,-1,-1,-1,-1,-1,-1,-1,-1,-1,-1,-1,-1,-1,-1,-1,-1,-1,-1,-1,-1,-1,-1,-1,-1,-1,-1,-1],"split_conditions":[2.9E1,1.5E1,4.1E1,2.528972E2,1.776081E1,1.9862242E2,6.3E1,2.4E1,2.0206668E0,2.5E1,1.8095667E1,5.8885357E1,1E-1,1.9652176E1,2.318579E1,1.9592731E1,1.3E1,1.2371645E1,1.6662333E1,2.3922253E2,8.759178E0,2.9124057E2,1.19162315E2,1.8847641E1,4E1,1.6220667E1,1.191812E1,1.2E1,2.4144167E1,7.7498336E0,6.8E1,-2.9666254E-1,-4.6952102E-1,5.1346195E-1,-1.7569666E-1,3.006546E-1,-4.3280774E-1,-6.303409E-1,-2.7659315E-1,-1.8342225E-3,-2.2527318E-1,1.0672239E0,2.0829462E-1,-2.1525514E-1,-5.0285596E-1,-4.3074474E-1,3.997788E-1,1.3251746E-1,-9.2251295E-1,4.422145E-1,9.5695496E-1,4.8707667E-1,-2.6180673E-1,4.978516E-1,-1.8151191E-1,-1.0278662E0,8.196023E-1,4.62936E-1,-8.282501E-3,1.1719553E0,1.9763441E0,6.279988E-1,-1.6632144E-1],"split_indices":[0,0,0,6,5,6,0,1,3,0,3,6,4,5,5,5,2,5,3,6,5,6,6,5,2,3,5,2,5,3,1,0,0,0,0,0,0,0,0,0,0,0,0,0,0,0,0,0,0,0,0,0,0,0,0,0,0,0,0,0,0,0,0],"split_type":[0,0,0,0,0,0,0,0,0,0,0,0,0,0,0,0,0,0,0,0,0,0,0,0,0,0,0,0,0,0,0,0,0,0,0,0,0,0,0,0,0,0,0,0,0,0,0,0,0,0,0,0,0,0,0,0,0,0,0,0,0,0,0],"sum_hessian":[2.681E3,1.83E3,8.51E2,6.51E2,1.179E3,4.66E2,3.85E2,3.32E2,3.19E2,6.65E2,5.14E2,2.32E2,2.34E2,3.33E2,5.2E1,2.88E2,4.4E1,1.11E2,2.08E2,5.07E2,1.58E2,4.9E2,2.4E1,5.4E1,1.78E2,1.02E2,1.32E2,2.47E2,8.6E1,4.6E1,6E0,1.79E2,1.09E2,2E0,4.2E1,6E0,1.05E2,1.93E2,1.5E1,3.03E2,2.04E2,5E0,1.53E2,4.01E2,8.9E1,3E0,2.1E1,4.5E1,9E0,1.4E2,3.8E1,8.3E1,1.9E1,1.4E1,1.18E2,2E0,2.45E2,5.6E1,3E1,2.4E1,2.2E1,4E0,2E0],"tree_param":{"num_deleted":"0","num_feature":"7","num_nodes":"63","size_leaf_vector":"1"}},{"base_weights":[2.03382E-2,-1.4007266E0,6.444328E0,-2.9625134E0,6.297547E-1,5.6031585E0,1.32108E1,-2.1872132E0,-4.2533116E0,1.9473333E0,-6.0125756E-1,7.4856E0,3.3632743E0,9.380682E0,1.6827435E1,-3.195156E0,-1.2747298E0,-2.6721158E0,-5.020141E0,-1.6768298E0,3.0311482E0,2.6694655E0,-1.3746177E0,1.7644155E0,8.250957E0,7.7257447E0,1.3473401E0,1.0925273E1,9.050751E-2,4.998186E0,1.8153069E1,-4.6631223E-1,-2.7528334E-1,-1.6889524E-1,9.498196E-2,4.2981204E-1,-3.2914183E-1,-5.1173085E-1,-5.5373874E-3,5.330884E-1,-2.2206786E-1,4.12529E-1,1.4834128E-1,4.2495403E-1,-1.6064918E-2,4.4641767E-2,-2.7167064E-1,5.3320205E-1,-3.0366385E-1,4.076222E-1,9.41842E-1,3.3183986E-1,9.6985006E-1,-2.2866829E-1,2.7511358E-1,2.148333E-1,1.2573246E0,2.0765738E-1,-3.926879E-1,7.995547E-1,-1.9969483E-1,2.1351898E0,1.0804679E0],"categories":[],"categories_nodes":[],"categories_segments":[],"categories_sizes":[],"default_left":[0,0,0,0,0,0,0,0,0,0,0,0,0,0,0,0,0,0,0,0,0,0,0,0,0,0,0,0,0,0,0,0,0,0,0,0,0,0,0,0,0,0,0,0,0,0,0,0,0,0,0,0,0,0,0,0,0,0,0,0,0,0,0],"id":10,"left_children":[1,3,5,7,9,11,13,15,17,19,21,23,25,27,29,31,33,35,37,39,41,43,45,47,49,51,53,55,57,59,61,-1,-1,-1,-1,-1,-1,-1,-1,-1,-1,-1,-1,-1,-1,-1,-1,-1,-1,-1,-1,-1,-1,-1,-1,-1,-1,-1,-1,-1,-1,-1,-1],"loss_changes":[2.449275E4,6.968946E3,2.692166E3,1.2336367E3,1.5517603E3,1.8047637E3,5.7631055E2,7.114778E2,5.5040137E2,1.8197828E3,1.2557457E3,1.0144463E3,1.7484814E3,4.007981E2,3.1697998E2,2.267605E2,3.7940222E2,6.7891626E2,1.5022998E2,4.196298E2,5.967456E2,4.2550293E2,9.8125305E2,5.129111E2,9.704951E2,5.155774E2,7.102877E2,3.2012793E2,4.8048435E1,9.983446E1,3.0994336E2,0E0,0E0,0E0,0E0,0E0,0E0,0E0,0E0,0E0,0E0,0E0,0E0,0E0,0E0,0E0,0E0,0E0,0E0,0E0,0E0,0E0,0E0,0E0,0E0,0E0,0E0,0E0,0E0,0E0,0E0,0E0,0E0],"parents":[2147483647,0,0,1,1,2,2,3,3,4,4,5,5,6,6,7,7,8,8,9,9,10,10,11,11,12,12,13,13,14,14,15,15,16,16,17,17,18,18,19,19,20,20,21,21,22,22,23,23,24,24,25,25,26,26,27,27,28,28,29,29,30,30],"right_children":[2,4,6,8,10,12,14,16,18,20,22,24,26,28,30,32,34,36,38,40,42,44,46,48,50,52,54,56,58,60,62,-1,-1,-1,-1,-1,-1,-1,-1,-1,-1,-1,-1,-1,-1,-1,-1,-1,-1,-1,-1,-1,-1,-1,-1,-1,-1,-1,-1,-1,-1,-1,-1],"split_conditions":[3.8E1,2.1E1,6.3E1,2.6203696E2,2.0692531E2,1.9991878E2,7.7498336E0,1.5E1,1.2665001E0,5.8885357E1,1.3441071E1,4.568013E1,1.4529915E1,2.1322214E1,2.4E1,1E1,1.7122747E1,1.2429127E1,1.9412334E1,8.759178E0,9.000001E-1,1.2976914E1,1E-1,1.7533146E1,2.1415002E0,2.7E1,2.5915E0,9.864942E1,6.8E1,6.7E1,6.6E1,-4.6631223E-1,-2.7528334E-1,-1.6889524E-1,9.498196E-2,4.2981204E-1,-3.2914183E-1,-5.1173085E-1,-5.5373874E-3,5.330884E-1,-2.2206786E-1,4.12529E-1,1.4834128E-1,4.2495403E-1,-1.6064918E-2,4.4641767E-2,-2.7167064E-1,5.3320205E-1,-3.0366385E-1,4.076222E-1,9.41842E-1,3.3183986E-1,9.6985006E-1,-2.2866829E-1,2.7511358E-1,2.148333E-1,1.2573246E0,2.0765738E-1,-3.926879E-1,7.995547E-1,-1.9969483E-1,2.1351898E0,1.0804679E0],"split_indices":[0,0,0,6,6,6,3,0,3,6,5,6,5,5,2,0,3,5,3,5,4,3,4,5,3,2,3,6,1,0,2,0,0,0,0,0,0,0,0,0,0,0,0,0,0,0,0,0,0,0,0,0,0,0,0,0,0,0,0,0,0,0,0],"split_type":[0,0,0,0,0,0,0,0,0,0,0,0,0,0,0,0,0,0,0,0,0,0,0,0,0,0,0,0,0,0,0,0,0,0,0,0,0,0,0,0,0,0,0,0,0,0,0,0,0,0,0,0,0,0,0,0,0,0,0,0,0,0,0],"sum_hessian":[2.681E3,2.196E3,4.85E2,1.241E3,9.55E2,4.33E2,5.2E1,7.77E2,4.64E2,4.61E2,4.94E2,2.34E2,1.99E2,2.7E1,2.5E1,3.68E2,4.09E2,1.53E2,3.11E2,1.06E2,3.55E2,9.4E1,4E2,2.8E1,2.06E2,6.2E1,1.37E2,2.3E1,4E0,3E0,2.2E1,8.3E1,2.85E2,3.45E2,6.4E1,1.2E1,1.41E2,3.05E2,6E0,7E0,9.9E1,2.07E2,1.48E2,6E1,3.4E1,1.7E2,2.3E2,1.6E1,1.2E1,4.6E1,1.6E2,2E1,4.2E1,3.8E1,9.9E1,4E0,1.9E1,3E0,1E0,2E0,1E0,1.4E1,8E0],"tree_param":{"num_deleted":"0","num_feature":"7","num_nodes":"63","size_leaf_vector":"1"}},{"base_weights":[2.1232026E-2,-1.8540233E0,4.051245E0,-3.1660326E0,-6.7074734E-1,2.935146E0,8.414806E0,-4.4681864E0,-2.6200793E0,2.3711085E-1,-1.8723166E0,3.4101393E0,-1.2527972E0,7.4518366E0,1.6813131E1,-3.2901084E0,-5.382501E0,8.532701E-1,-2.793721E0,-4.9970016E-1,2.05216E0,-2.1413467E0,2.8059936E0,-2.8023012E0,3.6910381E0,-3.333287E0,2.1840303E0,8.756307E0,3.2804577E0,2.358167E1,8.176464E0,-1.6035376E-1,-5.0082797E-1,-5.5245525E-1,3.0407268E-1,3.5003164E-1,-1.10588945E-1,-3.0317768E-1,-6.2000748E-2,-2.8041098E-2,-6.400479E-1,9.4609797E-1,1.750179E-1,-1.1733126E-1,-3.3783364E-1,-4.0030432E-1,4.027501E-1,-1.461726E-1,-8.408486E-1,5.106226E-1,2.173159E-1,3.3825494E-3,-5.893645E-1,1.1456525E0,-2.3231529E-1,1.0792966E0,5.40668E-1,-4.0256006E-1,5.6064624E-1,2.5235605E0,5.1751006E-1,1.2205027E0,8.950377E-3],"categories":[],"categories_nodes":[],"categories_segments":[],"categories_sizes":[],"default_left":[0,0,0,0,0,0,0,0,0,0,0,0,0,0,0,0,0,0,0,0,0,0,0,0,0,0,0,0,0,0,0,0,0,0,0,0,0,0,0,0,0,0,0,0,0,0,0,0,0,0,0,0,0,0,0,0,0,0,0,0,0,0,0],"id":11,"left_children":[1,3,5,7,9,11,13,15,17,19,21,23,25,27,29,31,33,35,37,39,41,43,45,47,49,51,53,55,57,59,61,-1,-1,-1,-1,-1,-1,-1,-1,-1,-1,-1,-1,-1,-1,-1,-1,-1,-1,-1,-1,-1,-1,-1,-1,-1,-1,-1,-1,-1,-1,-1,-1],"loss_changes":[2.02762E4,2.8404463E3,4.1246846E3,6.053672E2,1.0520277E3,1.356959E3,1.2738193E3,2.5695996E2,3.7269873E2,7.365669E2,5.283301E2,1.0765786E3,5.0779993E2,8.2558105E2,8.009658E2,3.2232007E2,1.8670605E2,1.5945053E2,3.008369E2,5.054442E2,3.391759E2,4.6663342E2,2.0741994E2,1.9062794E2,1.2455327E3,3.79524E2,1.1550217E3,7.534707E2,6.853324E2,1.4339209E2,2.92117E2,0E0,0E0,0E0,0E0,0E0,0E0,0E0,0E0,0E0,0E0,0E0,0E0,0E0,0E0,0E0,0E0,0E0,0E0,0E0,0E0,0E0,0E0,0E0,0E0,0E0,0E0,0E0,0E0,0E0,0E0,0E0,0E0],"parents":[2147483647,0,0,1,1,2,2,3,3,4,4,5,5,6,6,7,7,8,8,9,9,10,10,11,11,12,12,13,13,14,14,15,15,16,16,17,17,18,18,19,19,20,20,21,21,22,22,23,23,24,24,25,25,26,26,27,27,28,28,29,29,30,30],"right_children":[2,4,6,8,10,12,14,16,18,20,22,24,26,28,30,32,34,36,38,40,42,44,46,48,50,52,54,56,58,60,62,-1,-1,-1,-1,-1,-1,-1,-1,-1,-1,-1,-1,-1,-1,-1,-1,-1,-1,-1,-1,-1,-1,-1,-1,-1,-1,-1,-1,-1,-1,-1,-1],"split_conditions":[2.9E1,1.7E1,5.1E1,1.1E1,1.776081E1,2.4315327E1,7.6E1,4.9102497E0,1.0948973E1,2.5E1,1.8095667E1,2.3323118E1,2.9301878E1,2.4E0,1.580834E2,1.9201874E1,3.581366E2,1.5E1,1.6739416E1,4.4E1,8.759178E0,9E-1,1.19162315E2,4.9E1,1.9862242E2,2.4E1,2.9800737E1,5.3E1,2.8999991E0,7.9E1,3E-1,-1.6035376E-1,-5.0082797E-1,-5.5245525E-1,3.0407268E-1,3.5003164E-1,-1.10588945E-1,-3.0317768E-1,-6.2000748E-2,-2.8041098E-2,-6.400479E-1,9.4609797E-1,1.750179E-1,-1.1733126E-1,-3.3783364E-1,-4.0030432E-1,4.027501E-1,-1.461726E-1,-8.408486E-1,5.106226E-1,2.173159E-1,3.3825494E-3,-5.893645E-1,1.1456525E0,-2.3231529E-1,1.0792966E0,5.40668E-1,-4.0256006E-1,5.6064624E-1,2.5235605E0,5.1751006E-1,1.2205027E0,8.950377E-3],"split_indices":[0,0,0,0,5,5,0,3,5,0,3,6,5,4,6,5,6,2,3,1,5,4,6,1,6,1,5,1,4,2,4,0,0,0,0,0,0,0,0,0,0,0,0,0,0,0,0,0,0,0,0,0,0,0,0,0,0,0,0,0,0,0,0],"split_type":[0,0,0,0,0,0,0,0,0,0,0,0,0,0,0,0,0,0,0,0,0,0,0,0,0,0,0,0,0,0,0,0,0,0,0,0,0,0,0,0,0,0,0,0,0,0,0,0,0,0,0,0,0,0,0,0,0,0,0,0,0,0,0],"sum_hessian":[2.681E3,1.83E3,8.51E2,8.67E2,9.63E2,6.79E2,1.72E2,2.54E2,6.13E2,5.49E2,4.14E2,6.1E2,6.9E1,1.56E2,1.6E1,1.13E2,1.41E2,2.9E1,5.84E2,3.91E2,1.58E2,3.92E2,2.2E1,2.6E1,5.84E2,4.3E1,2.6E1,1.18E2,3.8E1,8E0,8E0,5.8E1,5.5E1,1.39E2,2E0,1.2E1,1.7E1,5.26E2,5.8E1,3.78E2,1.3E1,5E0,1.53E2,2.21E2,1.71E2,3E0,1.9E1,2.2E1,4E0,3.01E2,2.83E2,1.9E1,2.4E1,8E0,1.8E1,7.2E1,4.6E1,9E0,2.9E1,7E0,1E0,5E0,3E0],"tree_param":{"num_deleted":"0","num_feature":"7","num_nodes":"63","size_leaf_vector":"1"}},{"base_weights":[2.1003485E-2,-1.1544417E0,5.3346496E0,-2.4157577E0,4.8542106E-1,4.7641425E0,1.2549926E1,-1.7970046E0,-3.685414E0,1.5923219E0,-5.48667E-1,6.3586407E0,2.8462167E0,3.3527584E0,1.4729476E1,-2.9051147E0,-1.2728459E0,-2.3069732E0,-4.536333E0,-1.5696583E0,2.5382195E0,3.0505443E0,-1.148656E0,3.2262366E0,7.5615196E0,6.489881E0,1.1701021E0,5.898636E0,-2.8565827E-1,1.7990643E1,8.053977E0,-2.0641354E-1,-3.5142547E-1,-8.336123E-2,-2.4331605E-1,-7.48246E-2,-3.4895036E-1,-4.9367243E-1,-2.8772244E-1,4.512634E-1,-2.040545E-1,2.7605042E-1,-3.5390204E-1,1.0609277E0,1.7821915E-1,-7.7421926E-2,-6.052934E-1,4.075674E-1,-1.1808404E0,2.1815147E0,7.105857E-1,2.631206E-1,8.1463766E-1,4.865806E-2,1.1292913E0,-1.3832131E-1,7.631648E-1,7.6032174E-1,1.9561247E0,9.886433E-1,-1.2805176E-2],"categories":[],"categories_nodes":[],"categories_segments":[],"categories_sizes":[],"default_left":[0,0,0,0,0,0,0,0,0,0,0,0,0,0,0,0,0,0,0,0,0,0,0,0,0,0,0,0,0,0,0,0,0,0,0,0,0,0,0,0,0,0,0,0,0,0,0,0,0,0,0,0,0,0,0,0,0,0,0,0,0],"id":12,"left_children":[1,3,5,7,9,11,13,15,17,19,21,23,25,27,29,31,33,35,37,39,41,43,45,47,49,51,53,55,-1,57,59,-1,-1,-1,-1,-1,-1,-1,-1,-1,-1,-1,-1,-1,-1,-1,-1,-1,-1,-1,-1,-1,-1,-1,-1,-1,-1,-1,-1,-1,-1],"loss_changes":[1.6757662E4,4.545414E3,1.9407646E3,9.6909766E2,1.0951428E3,1.3641758E3,6.5221436E2,4.8245312E2,4.6574902E2,1.3857842E3,1.0724503E3,9.0250977E2,1.2565963E3,1.433157E2,4.6466162E2,1.3003564E2,2.8847162E2,2.86778E2,1.5186865E2,3.156638E2,4.906814E2,6.617792E2,7.757592E2,9.420963E2,9.945713E2,3.9403735E2,9.839447E2,8.627341E1,0E0,1.449331E2,1.6619135E2,0E0,0E0,0E0,0E0,0E0,0E0,0E0,0E0,0E0,0E0,0E0,0E0,0E0,0E0,0E0,0E0,0E0,0E0,0E0,0E0,0E0,0E0,0E0,0E0,0E0,0E0,0E0,0E0,0E0,0E0],"parents":[2147483647,0,0,1,1,2,2,3,3,4,4,5,5,6,6,7,7,8,8,9,9,10,10,11,11,12,12,13,13,14,14,15,15,16,16,17,17,18,18,19,19,20,20,21,21,22,22,23,23,24,24,25,25,26,26,27,27,29,29,30,30],"right_children":[2,4,6,8,10,12,14,16,18,20,22,24,26,28,30,32,34,36,38,40,42,44,46,48,50,52,54,56,-1,58,60,-1,-1,-1,-1,-1,-1,-1,-1,-1,-1,-1,-1,-1,-1,-1,-1,-1,-1,-1,-1,-1,-1,-1,-1,-1,-1,-1,-1,-1,-1],"split_conditions":[3.8E1,2.1E1,6.6E1,2.725501E2,2.0692531E2,1.9991878E2,2.9E1,1.3E1,1.6489416E1,5.8885357E1,-1.4251665E0,8.648759E1,1.4529915E1,2.6000001E0,6.4E1,1.97008E2,2.0000002E0,2.72275E0,3.3546426E2,8.759178E0,5.3E1,2.642364E2,4.5E1,2.30653E1,8.9873795E1,2.7E1,6E1,4.198713E1,-2.8565827E-1,6.7E1,1.9590247E2,-2.0641354E-1,-3.5142547E-1,-8.336123E-2,-2.4331605E-1,-7.48246E-2,-3.4895036E-1,-4.9367243E-1,-2.8772244E-1,4.512634E-1,-2.040545E-1,2.7605042E-1,-3.5390204E-1,1.0609277E0,1.7821915E-1,-7.7421926E-2,-6.052934E-1,4.075674E-1,-1.1808404E0,2.1815147E0,7.105857E-1,2.631206E-1,8.1463766E-1,4.865806E-2,1.1292913E0,-1.3832131E-1,7.631648E-1,7.6032174E-1,1.9561247E0,9.886433E-1,-1.2805176E-2],"split_indices":[0,0,0,6,6,6,2,0,5,6,3,6,5,4,2,6,4,3,6,5,1,6,1,5,6,2,2,6,0,0,6,0,0,0,0,0,0,0,0,0,0,0,0,0,0,0,0,0,0,0,0,0,0,0,0,0,0,0,0,0,0],"split_type":[0,0,0,0,0,0,0,0,0,0,0,0,0,0,0,0,0,0,0,0,0,0,0,0,0,0,0,0,0,0,0,0,0,0,0,0,0,0,0,0,0,0,0,0,0,0,0,0,0,0,0,0,0,0,0,0,0,0,0,0,0],"sum_hessian":[2.681E3,2.196E3,4.85E2,1.241E3,9.55E2,4.51E2,3.4E1,8.36E2,4.05E2,4.61E2,4.94E2,2.45E2,2.06E2,7E0,2.7E1,2.67E2,5.69E2,1.56E2,2.49E2,1.06E2,3.55E2,7E1,4.24E2,6.9E1,1.76E2,6.4E1,1.42E2,5E0,2E0,1.7E1,1E1,1.14E2,1.53E2,4.14E2,1.55E2,6.8E1,8.8E1,1.99E2,5E1,7E0,9.9E1,3.43E2,1.2E1,9E0,6.1E1,3.95E2,2.9E1,6.6E1,3E0,4E0,1.72E2,2E1,4.4E1,1.34E2,8E0,1E0,4E0,3E0,1.4E1,8E0,2E0],"tree_param":{"num_deleted":"0","num_feature":"7","num_nodes":"61","size_leaf_vector":"1"}},{"base_weights":[2.1528652E-2,-1.5198948E0,3.3341165E0,-2.891579E0,-7.606932E-1,2.274652E0,6.562219E0,-2.2784643E0,-3.8433158E0,-2.650311E-2,-1.7086736E0,-4.0964565E0,2.4963396E0,8.181237E0,2.565512E0,-2.522904E0,-5.987817E-1,6.0093635E-1,-3.9060116E0,-5.8564895E-1,1.760117E0,-1.2708083E0,-3.7348723E0,-4.8760924E0,6.137946E-1,3.8222716E0,1.1919479E0,9.325251E0,1.1532841E0,-8.982194E-1,6.8035507E0,-4.0320048E-1,-2.2196792E-1,4.5853354E-2,-2.8025797E-1,-1.3358593E-1,-4.132897E-1,1.1676848E-1,-1.03444174E-1,3.4436634E-1,5.59328E-2,-7.8957394E-2,-3.5804653E-1,-3.997538E-1,1.5824865E-1,-3.100582E-1,-1.1646866E0,4.0794405E-1,-9.801793E-1,3.3777633E-1,-5.7600588E-2,8.284484E-1,1.563352E0,-3.3037624E-1,7.9583246E-1,3.0562195E-1,-5.785129E-1,9.74908E-1,5.2669108E-2],"categories":[],"categories_nodes":[],"categories_segments":[],"categories_sizes":[],"default_left":[0,0,0,0,0,0,0,0,0,0,0,0,0,0,0,0,0,0,0,0,0,0,0,0,0,0,0,0,0,0,0,0,0,0,0,0,0,0,0,0,0,0,0,0,0,0,0,0,0,0,0,0,0,0,0,0,0,0,0],"id":13,"left_children":[1,3,5,7,9,11,13,15,17,19,21,23,25,27,29,31,33,-1,35,37,39,41,43,45,-1,47,49,51,53,55,57,-1,-1,-1,-1,-1,-1,-1,-1,-1,-1,-1,-1,-1,-1,-1,-1,-1,-1,-1,-1,-1,-1,-1,-1,-1,-1,-1,-1],"loss_changes":[1.3699629E4,1.9045762E3,2.8989648E3,3.7170068E2,8.212322E2,9.18397E2,1.3378662E3,1.6231128E2,1.8037402E2,6.6635236E2,4.5216284E2,2.0546951E2,1.0712153E3,1.1872168E3,9.162355E2,1.5029395E2,1.22450745E2,0E0,1.4201074E2,4.009447E2,3.1950574E2,4.695548E2,1.3342468E2,2.1634113E2,0E0,1.1191196E3,1.219238E3,7.108594E2,6.935607E2,6.940551E2,5.125481E2,0E0,0E0,0E0,0E0,0E0,0E0,0E0,0E0,0E0,0E0,0E0,0E0,0E0,0E0,0E0,0E0,0E0,0E0,0E0,0E0,0E0,0E0,0E0,0E0,0E0,0E0,0E0,0E0],"parents":[2147483647,0,0,1,1,2,2,3,3,4,4,5,5,6,6,7,7,8,8,9,9,10,10,11,11,12,12,13,13,14,14,15,15,16,16,18,18,19,19,20,20,21,21,22,22,23,23,25,25,26,26,27,27,28,28,29,29,30,30],"right_children":[2,4,6,8,10,12,14,16,18,20,22,24,26,28,30,32,34,-1,36,38,40,42,44,46,-1,48,50,52,54,56,58,-1,-1,-1,-1,-1,-1,-1,-1,-1,-1,-1,-1,-1,-1,-1,-1,-1,-1,-1,-1,-1,-1,-1,-1,-1,-1,-1,-1],"split_conditions":[2.9E1,1.5E1,4.9E1,2.7145938E2,1.776081E1,1.9108318E1,1.7E0,2.4E1,-9.808499E0,2.5E1,2.9124057E2,7.7000003E0,1.9862242E2,2.7490747E2,4.2E1,6.680141E1,1.0864417E1,6.0093635E-1,1.2371645E1,1.4E1,6.47275E0,5.1E0,4.9E1,3.3000002E0,6.137946E-1,1.48E1,1E-1,6.8E1,5.1E1,1.872346E1,1.6614655E2,-4.0320048E-1,-2.2196792E-1,4.5853354E-2,-2.8025797E-1,-1.3358593E-1,-4.132897E-1,1.1676848E-1,-1.03444174E-1,3.4436634E-1,5.59328E-2,-7.8957394E-2,-3.5804653E-1,-3.997538E-1,1.5824865E-1,-3.100582E-1,-1.1646866E0,4.0794405E-1,-9.801793E-1,3.3777633E-1,-5.7600588E-2,8.284484E-1,1.563352E0,-3.3037624E-1,7.9583246E-1,3.0562195E-1,-5.785129E-1,9.74908E-1,5.2669108E-2],"split_indices":[0,0,0,6,5,6,4,1,3,0,6,4,6,6,2,6,3,0,5,1,3,4,2,4,0,4,4,0,2,5,6,0,0,0,0,0,0,0,0,0,0,0,0,0,0,0,0,0,0,0,0,0,0,0,0,0,0,0,0],"split_type":[0,0,0,0,0,0,0,0,0,0,0,0,0,0,0,0,0,0,0,0,0,0,0,0,0,0,0,0,0,0,0,0,0,0,0,0,0,0,0,0,0,0,0,0,0,0,0,0,0,0,0,0,0,0,0,0,0,0,0],"sum_hessian":[2.681E3,1.83E3,8.51E2,6.51E2,1.179E3,6.42E2,2.09E2,3.98E2,2.53E2,6.65E2,5.14E2,2.1E1,6.21E2,1.48E2,6.1E1,3.47E2,5.1E1,1E0,2.52E2,5.07E2,1.58E2,4.24E2,9E1,2E1,1E0,3.07E2,3.14E2,1.27E2,2.1E1,3.4E1,2.7E1,5.6E1,2.91E2,3.5E1,1.6E1,2.1E1,2.31E2,1.03E2,4.04E2,6.5E1,9.3E1,3.52E2,7.2E1,8.6E1,4E0,1.7E1,3E0,3.02E2,5E0,1.4E2,1.74E2,1.11E2,1.6E1,1.3E1,8E0,1.9E1,1.5E1,1.8E1,9E0],"tree_param":{"num_deleted":"0","num_feature":"7","num_nodes":"59","size_leaf_vector":"1"}},{"base_weights":[1.9893544E-2,-9.510728E-1,4.4091797E0,-1.9768021E0,3.8251176E-1,3.9285882E0,1.0489702E1,-1.0444242E0,-2.6121328E0,2.6000786E0,-5.3163834E-2,4.509359E0,1.3201751E-1,2.7442274E0,1.2328062E1,-1.1750418E0,3.6204562E0,-1.5937389E0,-3.03601E0,8.476221E0,2.1854737E0,5.4056096E-1,-2.2566178E0,-8.025246E0,4.692042E0,7.455286E0,-1.4500996E0,4.9465594E0,-2.575179E-1,1.5404627E1,6.1729507E0,-1.2718235E-1,4.8392257E-1,7.943889E-3,6.2662894E-1,-6.2377717E-2,-3.3743986E-1,-3.2206103E-1,-2.0195253E-3,-2.4970727E-1,1.3535786E0,1.5662828E-1,6.864752E-1,-3.1226355E-1,9.09768E-2,-6.332534E-2,-4.354047E-1,-2.2380257E-1,-8.7350845E-1,5.534887E-1,2.2177298E-1,-3.8808522E-1,1.2191445E0,-2.874423E-1,4.677069E-1,-2.0957279E-1,6.7741627E-1,6.375024E-1,1.6785545E0,4.7037125E-2,8.252622E-1],"categories":[],"categories_nodes":[],"categories_segments":[],"categories_sizes":[],"default_left":[0,0,0,0,0,0,0,0,0,0,0,0,0,0,0,0,0,0,0,0,0,0,0,0,0,0,0,0,0,0,0,0,0,0,0,0,0,0,0,0,0,0,0,0,0,0,0,0,0,0,0,0,0,0,0,0,0,0,0,0,0],"id":14,"left_children":[1,3,5,7,9,11,13,15,17,19,21,23,25,27,29,31,33,35,37,39,41,43,45,47,49,51,53,55,-1,57,59,-1,-1,-1,-1,-1,-1,-1,-1,-1,-1,-1,-1,-1,-1,-1,-1,-1,-1,-1,-1,-1,-1,-1,-1,-1,-1,-1,-1,-1,-1],"loss_changes":[1.1434474E4,3.0060254E3,1.379002E3,7.3299365E2,9.237679E2,9.9603613E2,4.6453296E2,3.1195862E2,3.1373633E2,3.6397083E2,1.0478159E3,9.352803E2,7.1757324E2,1.06459045E2,4.351333E2,2.9253345E2,1.3066737E2,3.761457E2,2.8943018E2,5.8900073E2,4.1805823E2,8.562543E2,5.760744E2,5.0986023E0,7.947988E2,6.379004E2,4.5852438E2,9.141983E1,0E0,1.17436035E2,1.2657263E2,0E0,0E0,0E0,0E0,0E0,0E0,0E0,0E0,0E0,0E0,0E0,0E0,0E0,0E0,0E0,0E0,0E0,0E0,0E0,0E0,0E0,0E0,0E0,0E0,0E0,0E0,0E0,0E0,0E0,0E0],"parents":[2147483647,0,0,1,1,2,2,3,3,4,4,5,5,6,6,7,7,8,8,9,9,10,10,11,11,12,12,13,13,14,14,15,15,16,16,17,17,18,18,19,19,20,20,21,21,22,22,23,23,24,24,25,25,26,26,27,27,29,29,30,30],"right_children":[2,4,6,8,10,12,14,16,18,20,22,24,26,28,30,32,34,36,38,40,42,44,46,48,50,52,54,56,-1,58,60,-1,-1,-1,-1,-1,-1,-1,-1,-1,-1,-1,-1,-1,-1,-1,-1,-1,-1,-1,-1,-1,-1,-1,-1,-1,-1,-1,-1,-1,-1],"split_conditions":[3.8E1,2.1E1,6.6E1,2.2214009E2,1.2287555E1,2.2734219E1,2.9E1,5E1,1.5629971E1,1.4E1,2.7060217E2,1.1E1,2.5E1,2.6000001E0,6.4E1,2.1389418E1,1.19162315E2,1.0301918E1,1.6739416E1,1.0948973E1,3.9E1,4.3674377E1,3.487333E0,3.9E1,2.4244489E2,1.8E1,6.2000003E0,4.198713E1,-2.575179E-1,6.7E1,5.487334E0,-1.2718235E-1,4.8392257E-1,7.943889E-3,6.2662894E-1,-6.2377717E-2,-3.3743986E-1,-3.2206103E-1,-2.0195253E-3,-2.4970727E-1,1.3535786E0,1.5662828E-1,6.864752E-1,-3.1226355E-1,9.09768E-2,-6.332534E-2,-4.354047E-1,-2.2380257E-1,-8.7350845E-1,5.534887E-1,2.2177298E-1,-3.8808522E-1,1.2191445E0,-2.874423E-1,4.677069E-1,-2.0957279E-1,6.7741627E-1,6.375024E-1,1.6785545E0,4.7037125E-2,8.252622E-1],"split_indices":[0,0,0,6,5,5,2,2,5,1,6,2,1,4,2,3,6,3,3,5,2,6,3,0,6,1,4,6,0,0,3,0,0,0,0,0,0,0,0,0,0,0,0,0,0,0,0,0,0,0,0,0,0,0,0,0,0,0,0,0,0],"split_type":[0,0,0,0,0,0,0,0,0,0,0,0,0,0,0,0,0,0,0,0,0,0,0,0,0,0,0,0,0,0,0,0,0,0,0,0,0,0,0,0,0,0,0,0,0,0,0,0,0,0,0,0,0,0,0,0,0,0,0,0,0],"sum_hessian":[2.681E3,2.196E3,4.85E2,1.241E3,9.55E2,4.51E2,3.4E1,5.04E2,7.37E2,1.56E2,7.99E2,3.91E2,6E1,7E0,2.7E1,4.91E2,1.3E1,2.18E2,5.19E2,9E0,1.47E2,6.3E2,1.69E2,5E0,3.86E2,1E1,5E1,5E0,2E0,1.7E1,1E1,4.84E2,7E0,6E0,7E0,1.42E2,7.6E1,4.89E2,3E1,3E0,6E0,1.31E2,1.6E1,5.7E1,5.73E2,9.6E1,7.3E1,1E0,4E0,2.87E2,9.9E1,3E0,7E0,4.1E1,9E0,1E0,4E0,3E0,1.4E1,3E0,7E0],"tree_param":{"num_deleted":"0","num_feature":"7","num_nodes":"61","size_leaf_vector":"1"}},{"base_weights":[1.9985564E-2,-8.552853E-1,3.976673E0,-1.528029E0,8.544926E-1,3.4207988E0,8.453516E0,-2.9164064E0,-1.1469249E0,6.459032E0,6.2813234E-1,1.5852648E0,4.71533E0,5.4017596E0,1.1414887E1,-3.2810984E0,-1.2005796E0,-4.1915548E-1,-1.784742E0,1.319563E0,5.2468123E0,1.055448E0,-2.7179384E0,2.3404305E0,-8.353834E0,5.2035713E0,-2.8724833E0,6.6204777E0,-1.5284401E0,1.2150065E1,1.7285042E0,3.256739E-1,-3.3639616E-1,-2.599346E-1,1.4828175E-2,-2.705303E-1,-7.427157E-3,-1.9948697E-2,-2.1511078E-1,5.564048E-1,-7.0756815E-2,-1.5893039E-1,1.4871788E-1,1.517184E-1,-3.7465525E-1,8.5651475E-1,1.5878956E-1,6.0998727E-2,-9.151651E-1,-1.764183E-1,5.612177E-1,-1.1703781E0,-7.748852E-2,-6.183243E-3,7.9600316E-1,4.0278245E-2,-4.626665E-1,8.699004E-1,1.7964814E0,3.2277164E-1,-6.3496016E-2],"categories":[],"categories_nodes":[],"categories_segments":[],"categories_sizes":[],"default_left":[0,0,0,0,0,0,0,0,0,0,0,0,0,0,0,0,0,0,0,0,0,0,0,0,0,0,0,0,0,0,0,0,0,0,0,0,0,0,0,0,0,0,0,0,0,0,0,0,0,0,0,0,0,0,0,0,0,0,0,0,0],"id":15,"left_children":[1,3,5,7,9,11,13,15,17,19,21,23,25,27,29,31,33,35,37,-1,39,41,43,45,47,49,51,53,55,57,59,-1,-1,-1,-1,-1,-1,-1,-1,-1,-1,-1,-1,-1,-1,-1,-1,-1,-1,-1,-1,-1,-1,-1,-1,-1,-1,-1,-1,-1,-1],"loss_changes":[9.291632E3,2.5283877E3,1.180523E3,8.310718E2,7.8377136E2,1.02377637E3,4.173208E2,2.0818945E2,5.743755E2,1.267547E2,8.5790625E2,1.3780775E3,9.559375E2,2.466059E2,1.6415015E2,1.6210254E2,1.15476685E2,4.571033E2,3.8288794E2,0E0,4.5493652E1,6.086703E2,3.0191302E2,7.78049E2,9.855176E1,6.903496E2,2.8732312E2,2.1532373E2,3.178035E1,3.2533325E2,1.2679477E1,0E0,0E0,0E0,0E0,0E0,0E0,0E0,0E0,0E0,0E0,0E0,0E0,0E0,0E0,0E0,0E0,0E0,0E0,0E0,0E0,0E0,0E0,0E0,0E0,0E0,0E0,0E0,0E0,0E0,0E0],"parents":[2147483647,0,0,1,1,2,2,3,3,4,4,5,5,6,6,7,7,8,8,9,9,10,10,11,11,12,12,13,13,14,14,15,15,16,16,17,17,18,18,20,20,21,21,22,22,23,23,24,24,25,25,26,26,27,27,28,28,29,29,30,30],"right_children":[2,4,6,8,10,12,14,16,18,20,22,24,26,28,30,32,34,36,38,-1,40,42,44,46,48,50,52,54,56,58,60,-1,-1,-1,-1,-1,-1,-1,-1,-1,-1,-1,-1,-1,-1,-1,-1,-1,-1,-1,-1,-1,-1,-1,-1,-1,-1,-1,-1,-1,-1],"split_conditions":[3.8E1,2.5E1,6.3E1,1.2E1,9.19939E0,3.2E1,7.7498336E0,1.9E1,2.2214009E2,1.6E1,2.9559268E2,5.2E1,2.4014996E1,2.1322214E1,8.5E1,-9.808499E0,1E1,4.3674377E1,-6.709998E-1,1.319563E0,2.0395668E1,5.8885357E1,1.3246826E1,1.0685391E1,1.4408997E1,2.644823E1,1.9540001E0,9.864942E1,6.8E1,7.6E1,8E1,3.256739E-1,-3.3639616E-1,-2.599346E-1,1.4828175E-2,-2.705303E-1,-7.427157E-3,-1.9948697E-2,-2.1511078E-1,5.564048E-1,-7.0756815E-2,-1.5893039E-1,1.4871788E-1,1.517184E-1,-3.7465525E-1,8.5651475E-1,1.5878956E-1,6.0998727E-2,-9.151651E-1,-1.764183E-1,5.612177E-1,-1.1703781E0,-7.748852E-2,-6.183243E-3,7.9600316E-1,4.0278245E-2,-4.626665E-1,8.699004E-1,1.7964814E0,3.2277164E-1,-6.3496016E-2],"split_indices":[0,0,0,0,5,2,3,1,6,2,6,1,5,5,2,3,0,6,3,0,3,6,5,5,5,6,3,6,1,0,0,0,0,0,0,0,0,0,0,0,0,0,0,0,0,0,0,0,0,0,0,0,0,0,0,0,0,0,0,0,0],"split_type":[0,0,0,0,0,0,0,0,0,0,0,0,0,0,0,0,0,0,0,0,0,0,0,0,0,0,0,0,0,0,0,0,0,0,0,0,0,0,0,0,0,0,0,0,0,0,0,0,0,0,0,0,0,0,0,0,0,0,0,0,0],"sum_hessian":[2.681E3,2.196E3,4.85E2,1.576E3,6.2E2,4.33E2,5.2E1,3.38E2,1.238E3,2.3E1,5.97E2,1.8E2,2.53E2,2.7E1,2.5E1,2.78E2,6E1,5.79E2,6.59E2,2E0,2.1E1,5.3E2,6.7E1,1.68E2,1.2E1,2.38E2,1.5E1,2.3E1,4E0,2.3E1,2E0,3E0,2.75E2,2.9E1,3.1E1,7.5E1,5.04E2,1.24E2,5.35E2,2E1,1E0,7.4E1,4.56E2,1.3E1,5.4E1,1.7E1,1.51E2,1E0,1.1E1,1.3E1,2.25E2,2E0,1.3E1,4E0,1.9E1,3E0,1E0,1.6E1,7E0,1E0,1E0],"tree_param":{"num_deleted":"0","num_feature":"7","num_nodes":"61","size_leaf_vector":"1"}},{"base_weights":[1.9252589E-2,-8.8928705E-1,3.1199112E0,-1.855383E0,-3.6249228E-2,2.4256759E0,6.240853E0,-1.3731426E0,-2.7060394E0,2.3237987E0,-4.5683804E-1,2.9057121E0,-9.4260305E-1,8.189959E0,3.2434783E0,-2.7929063E0,-1.0496732E0,-1.8619505E0,-3.3194418E0,5.4695134E0,1.4482718E0,5.550857E-1,-1.1730157E0,3.2929482E0,-1.369622E0,-1.2866195E0,-1.3198684E-1,1.0591991E1,3.5450678E0,1.738093E0,1.1167271E1,-5.517559E-2,-3.474262E-1,3.1873353E-3,-1.6725819E-1,3.9157024E-1,-2.1721552E-1,-3.5381705E-1,-8.869856E-2,1.1921612E0,3.200285E-1,9.4935656E-2,7.440102E-1,1.7762134E-2,3.4366444E-1,-4.4584878E-2,-2.764272E-1,-3.9552853E-1,3.5848624E-1,-4.4442892E-1,5.4062927E-1,3.2889876E-1,-2.3474303E-1,1.2005954E0,2.9051644E-1,5.6184834E-1,-3.6115924E-1,3.6214507E-1,-4.9421498E-1,1.1975839E0,3.1579325E-1],"categories":[],"categories_nodes":[],"categories_segments":[],"categories_sizes":[],"default_left":[0,0,0,0,0,0,0,0,0,0,0,0,0,0,0,0,0,0,0,0,0,0,0,0,0,0,0,0,0,0,0,0,0,0,0,0,0,0,0,0,0,0,0,0,0,0,0,0,0,0,0,0,0,0,0,0,0,0,0,0,0],"id":16,"left_children":[1,3,5,7,9,11,13,15,17,19,21,23,25,27,29,31,33,35,37,39,41,43,45,47,49,-1,51,53,55,57,59,-1,-1,-1,-1,-1,-1,-1,-1,-1,-1,-1,-1,-1,-1,-1,-1,-1,-1,-1,-1,-1,-1,-1,-1,-1,-1,-1,-1,-1,-1],"loss_changes":[7.558159E3,1.7099745E3,1.3021958E3,3.9542896E2,1.09591E3,8.095703E2,6.1607764E2,2.8318127E2,1.7555518E2,4.52023E2,6.797111E2,7.2799146E2,6.0722565E2,6.988252E2,5.173665E2,1.7369037E2,3.4296906E2,2.773438E2,1.04335205E2,4.8893372E2,3.875395E2,4.2249933E2,6.3402045E2,8.6263916E2,7.9487335E2,0E0,4.6245917E2,4.3248242E2,3.764212E2,5.0856796E2,7.513733E0,0E0,0E0,0E0,0E0,0E0,0E0,0E0,0E0,0E0,0E0,0E0,0E0,0E0,0E0,0E0,0E0,0E0,0E0,0E0,0E0,0E0,0E0,0E0,0E0,0E0,0E0,0E0,0E0,0E0,0E0],"parents":[2147483647,0,0,1,1,2,2,3,3,4,4,5,5,6,6,7,7,8,8,9,9,10,10,11,11,12,12,13,13,14,14,15,15,16,16,17,17,18,18,19,19,20,20,21,21,22,22,23,23,24,24,26,26,27,27,28,28,29,29,30,30],"right_children":[2,4,6,8,10,12,14,16,18,20,22,24,26,28,30,32,34,36,38,40,42,44,46,48,50,-1,52,54,56,58,60,-1,-1,-1,-1,-1,-1,-1,-1,-1,-1,-1,-1,-1,-1,-1,-1,-1,-1,-1,-1,-1,-1,-1,-1,-1,-1,-1,-1,-1,-1],"split_conditions":[3.4E1,1.8E1,5.6E1,2.7060217E2,1.2287555E1,2.3313995E1,1.9862242E2,8.377698E1,3.270667E0,-2.1683335E-1,2.0259427E2,7E0,2.3469128E1,6E-1,6.8E1,-2.2500183E-3,2.0515506E2,1.1726277E1,1.6739416E1,1.7E1,4E1,1.9272749E1,9E-1,2.3323118E1,1.2976914E1,-1.2866195E0,3.2E1,6.6E1,1.8128368E2,2.0188908E1,8.5E1,-5.517559E-2,-3.474262E-1,3.1873353E-3,-1.6725819E-1,3.9157024E-1,-2.1721552E-1,-3.5381705E-1,-8.869856E-2,1.1921612E0,3.200285E-1,9.4935656E-2,7.440102E-1,1.7762134E-2,3.4366444E-1,-4.4584878E-2,-2.764272E-1,-3.9552853E-1,3.5848624E-1,-4.4442892E-1,5.4062927E-1,3.2889876E-1,-2.3474303E-1,1.2005954E0,2.9051644E-1,5.6184834E-1,-3.6115924E-1,3.6214507E-1,-4.9421498E-1,1.1975839E0,3.1579325E-1],"split_indices":[0,0,0,6,5,5,6,6,3,3,6,4,5,4,2,3,6,5,3,2,2,3,4,6,3,0,1,2,6,5,1,0,0,0,0,0,0,0,0,0,0,0,0,0,0,0,0,0,0,0,0,0,0,0,0,0,0,0,0,0,0],"split_type":[0,0,0,0,0,0,0,0,0,0,0,0,0,0,0,0,0,0,0,0,0,0,0,0,0,0,0,0,0,0,0,0,0,0,0,0,0,0,0,0,0,0,0,0,0,0,0,0,0,0,0,0,0,0,0,0,0,0,0,0,0],"sum_hessian":[2.681E3,2.074E3,6.07E2,9.72E2,1.102E3,4.98E2,1.09E2,6.22E2,3.5E2,1.66E2,9.36E2,4.36E2,6.2E1,6.5E1,4.4E1,1.14E2,5.08E2,1.49E2,2.01E2,3.5E1,1.31E2,3.88E2,5.48E2,4E2,3.6E1,3E0,5.9E1,4.2E1,2.3E1,3.8E1,6E0,2.7E1,8.7E1,1.86E2,3.22E2,7E0,1.42E2,1.84E2,1.7E1,8E0,2.7E1,1.22E2,9E0,3.44E2,4.4E1,3.77E2,1.71E2,1.5E1,3.85E2,2.5E1,1.1E1,2.3E1,3.6E1,3.5E1,7E0,1.8E1,5E0,3E1,8E0,5E0,1E0],"tree_param":{"num_deleted":"0","num_feature":"7","num_nodes":"61","size_leaf_vector":"1"}},{"base_weights":[1.8630845E-2,-1.1337122E0,2.0503433E0,-1.983739E0,-6.102898E-1,1.0638824E0,3.9544854E0,-3.359584E0,-1.6797136E0,1.0793648E0,-8.453164E-1,2.1907125E0,2.5357664E-1,5.3436093E0,2.1357222E0,-3.5347624E0,4.475444E-1,-1.1684357E0,-2.4678478E0,2.8223119E0,-9.854046E-3,-5.398853E-1,-1.8675579E0,2.430154E0,-8.669923E-1,3.2315252E0,-4.0686008E-1,1.4068233E1,4.3883924E0,-3.7307405E0,3.0499566E0,-2.4373083E-1,-4.257454E-1,-1.6341859E-1,5.3390574E-2,-2.766928E-1,6.843236E-2,2.0322204E-1,5.7794565E-1,-4.6369176E-2,6.981218E-1,-3.2073483E-2,-2.9859626E-1,-8.301448E-2,-3.158316E-1,1.5070464E-1,4.8121187E-1,9.342522E-1,2.2610168E-1,1.8067703E-2,-4.4489273E-1,1.7592491E0,1.3866581E-1,4.784232E-1,-9.6311647E-1,-8.350925E-1,8.085848E-2,4.030067E-1,-1.7664771E-1],"categories":[],"categories_nodes":[],"categories_segments":[],"categories_sizes":[],"default_left":[0,0,0,0,0,0,0,0,0,0,0,0,0,0,0,0,0,0,0,0,0,0,0,0,0,0,0,0,0,0,0,0,0,0,0,0,0,0,0,0,0,0,0,0,0,0,0,0,0,0,0,0,0,0,0,0,0,0,0],"id":17,"left_children":[1,3,5,7,9,11,13,15,17,19,21,23,25,27,29,31,-1,33,35,37,39,41,43,45,-1,47,49,51,53,55,57,-1,-1,-1,-1,-1,-1,-1,-1,-1,-1,-1,-1,-1,-1,-1,-1,-1,-1,-1,-1,-1,-1,-1,-1,-1,-1,-1,-1],"loss_changes":[6.2815024E3,7.604978E2,1.8196816E3,2.67083E2,4.2225018E2,5.847268E2,8.24855E2,1.7640515E2,2.1310071E2,2.4682642E2,2.899848E2,7.179994E2,7.368779E2,1.4967031E3,7.890601E2,8.083215E1,0E0,2.6013968E2,1.9987146E2,1.0507562E2,2.6023492E2,3.844687E2,2.839348E2,5.710348E2,0E0,3.8216895E2,7.2988727E2,7.800823E2,9.894922E2,4.2620276E2,6.019192E2,0E0,0E0,0E0,0E0,0E0,0E0,0E0,0E0,0E0,0E0,0E0,0E0,0E0,0E0,0E0,0E0,0E0,0E0,0E0,0E0,0E0,0E0,0E0,0E0,0E0,0E0,0E0,0E0],"parents":[2147483647,0,0,1,1,2,2,3,3,4,4,5,5,6,6,7,7,8,8,9,9,10,10,11,11,12,12,13,13,14,14,15,15,17,17,18,18,19,19,20,20,21,21,22,22,23,23,25,25,26,26,27,27,28,28,29,29,30,30],"right_children":[2,4,6,8,10,12,14,16,18,20,22,24,26,28,30,32,-1,34,36,38,40,42,44,46,-1,48,50,52,54,56,58,-1,-1,-1,-1,-1,-1,-1,-1,-1,-1,-1,-1,-1,-1,-1,-1,-1,-1,-1,-1,-1,-1,-1,-1,-1,-1,-1,-1],"split_conditions":[2.7E1,1.5E1,4.3E1,9E0,1.2181625E1,1.8128368E2,1.9223994E2,3.5468704E2,1.9164717E1,1.9019166E0,2.814175E2,1.48E1,1.29249525E1,2.9E1,2E1,4.837333E0,4.475444E-1,1.7447933E1,1.5543583E1,2.83815E2,1.2074766E1,7.3999996E0,3.487333E0,1.5043593E2,-8.669923E-1,1.5E1,4.5E1,2.1841648E1,2.4717085E1,5E1,2.2999997E0,-2.4373083E-1,-4.257454E-1,-1.6341859E-1,5.3390574E-2,-2.766928E-1,6.843236E-2,2.0322204E-1,5.7794565E-1,-4.6369176E-2,6.981218E-1,-3.2073483E-2,-2.9859626E-1,-8.301448E-2,-3.158316E-1,1.5070464E-1,4.8121187E-1,9.342522E-1,2.2610168E-1,1.8067703E-2,-4.4489273E-1,1.7592491E0,1.3866581E-1,4.784232E-1,-9.6311647E-1,-8.350925E-1,8.085848E-2,4.030067E-1,-1.7664771E-1],"split_indices":[0,0,0,0,5,6,6,6,5,3,6,4,5,1,2,3,0,5,3,6,5,4,3,6,0,2,1,5,5,0,4,0,0,0,0,0,0,0,0,0,0,0,0,0,0,0,0,0,0,0,0,0,0,0,0,0,0,0,0],"split_type":[0,0,0,0,0,0,0,0,0,0,0,0,0,0,0,0,0,0,0,0,0,0,0,0,0,0,0,0,0,0,0,0,0,0,0,0,0,0,0,0,0,0,0,0,0,0,0,0,0,0,0,0,0,0,0,0,0,0,0],"sum_hessian":[2.681E3,1.711E3,9.7E2,6.51E2,1.06E3,6.4E2,3.3E2,1.16E2,5.35E2,1.29E2,9.31E2,2.67E2,3.73E2,1.86E2,1.44E2,1.14E2,2E0,3.26E2,2.09E2,4.9E1,8E1,7.18E2,2.13E2,2.62E2,5E0,6.7E1,3.06E2,1.7E1,1.69E2,1.9E1,1.25E2,4.7E1,6.7E1,2.56E2,7E1,1.91E2,1.8E1,4E1,9E0,7.6E1,4E0,6.6E2,5.8E1,1.19E2,9.4E1,1.9E2,7.2E1,8E0,5.9E1,2.68E2,3.8E1,1.3E1,4E0,1.65E2,4E0,9E0,1E1,1.04E2,2.1E1],"tree_param":{"num_deleted":"0","num_feature":"7","num_nodes":"59","size_leaf_vector":"1"}},{"base_weights":[1.7344464E-2,-6.11315E-1,3.0875359E0,-1.1362641E0,6.6127485E-1,1.1687819E0,4.052554E0,-7.40853E-1,-1.9525696E0,5.44173E0,4.6961194E-1,5.2084804E0,-1.0647402E0,6.624667E0,3.0357409E0,-1.2293777E0,-2.2741689E-1,-9.1946954E-1,-2.7794485E0,1.1049324E0,4.4737077E0,7.88012E-1,-2.0752003E0,1.8400341E0,7.7569537E0,4.40641E0,-1.5883881E0,-3.4978385E0,7.5779414E0,4.123468E0,1.0166001E0,-2.9023448E-1,-9.888105E-2,2.3750104E-2,-1.4666878E-1,1.7213063E-1,-1.5890186E-1,-2.515278E-1,-5.5474997E-1,4.783176E-1,-1.1672974E-1,1.10369794E-1,-1.850576E-1,7.44495E-2,-3.2179686E-1,-9.9276906E-1,2.7440098E-1,-4.5134264E-1,1.0882381E0,1.3283073E0,-2.7360916E-3,-2.9252145E-1,1.7382391E-1,2.0118904E-1,-9.5105404E-1,-3.652771E-1,8.564567E-1,4.658683E-1,-3.4072414E-1,-1.7263883E-1,3.803855E-1],"categories":[],"categories_nodes":[],"categories_segments":[],"categories_sizes":[],"default_left":[0,0,0,0,0,0,0,0,0,0,0,0,0,0,0,0,0,0,0,0,0,0,0,0,0,0,0,0,0,0,0,0,0,0,0,0,0,0,0,0,0,0,0,0,0,0,0,0,0,0,0,0,0,0,0,0,0,0,0,0,0],"id":18,"left_children":[1,3,5,7,9,11,13,15,17,19,21,23,25,27,29,31,33,35,37,-1,39,41,43,45,47,49,51,53,55,57,59,-1,-1,-1,-1,-1,-1,-1,-1,-1,-1,-1,-1,-1,-1,-1,-1,-1,-1,-1,-1,-1,-1,-1,-1,-1,-1,-1,-1,-1,-1],"loss_changes":[5.1784287E3,1.4884873E3,8.396084E2,5.075714E2,5.939142E2,1.39505E3,7.723428E2,2.6659955E2,4.365282E2,8.627551E1,5.0967365E2,4.5786877E2,2.9349478E2,8.467156E2,4.76792E2,2.1647131E2,2.9995117E2,4.094048E2,1.9444922E2,0E0,4.573474E1,4.6683688E2,2.2795377E2,2.9318512E2,1.2379729E3,3.5457727E2,4.1422006E2,2.84161E2,8.9556396E2,5.882114E2,6.029087E2,0E0,0E0,0E0,0E0,0E0,0E0,0E0,0E0,0E0,0E0,0E0,0E0,0E0,0E0,0E0,0E0,0E0,0E0,0E0,0E0,0E0,0E0,0E0,0E0,0E0,0E0,0E0,0E0,0E0,0E0],"parents":[2147483647,0,0,1,1,2,2,3,3,4,4,5,5,6,6,7,7,8,8,9,9,10,10,11,11,12,12,13,13,14,14,15,15,16,16,17,17,18,18,20,20,21,21,22,22,23,23,24,24,25,25,26,26,27,27,28,28,29,29,30,30],"right_children":[2,4,6,8,10,12,14,16,18,20,22,24,26,28,30,32,34,36,38,-1,40,42,44,46,48,50,52,54,56,58,60,-1,-1,-1,-1,-1,-1,-1,-1,-1,-1,-1,-1,-1,-1,-1,-1,-1,-1,-1,-1,-1,-1,-1,-1,-1,-1,-1,-1,-1,-1],"split_conditions":[3.9E1,2.5E1,3.5831668E0,2.6893295E2,9.19939E0,1.3779114E1,1.4217165E2,1.7E1,2.8290002E0,1.6E1,2.4315327E1,1.3963792E2,2.4E1,2.3323118E1,5E1,1E1,2.0000002E0,1.4277983E1,2.3E1,1.1049324E0,4E1,2.9796274E2,2.8290002E0,7.2E0,4.1E1,4E-1,4.4E1,1.2737334E1,1.0239453E1,3.002615E2,1.7447933E1,-2.9023448E-1,-9.888105E-2,2.3750104E-2,-1.4666878E-1,1.7213063E-1,-1.5890186E-1,-2.515278E-1,-5.5474997E-1,4.783176E-1,-1.1672974E-1,1.10369794E-1,-1.850576E-1,7.44495E-2,-3.2179686E-1,-9.9276906E-1,2.7440098E-1,-4.5134264E-1,1.0882381E0,1.3283073E0,-2.7360916E-3,-2.9252145E-1,1.7382391E-1,2.0118904E-1,-9.5105404E-1,-3.652771E-1,8.564567E-1,4.658683E-1,-3.4072414E-1,-1.7263883E-1,3.803855E-1],"split_indices":[0,0,3,6,5,5,6,0,3,2,5,6,1,6,1,2,4,5,0,0,1,6,3,5,0,4,2,3,5,6,5,0,0,0,0,0,0,0,0,0,0,0,0,0,0,0,0,0,0,0,0,0,0,0,0,0,0,0,0,0,0],"split_type":[0,0,0,0,0,0,0,0,0,0,0,0,0,0,0,0,0,0,0,0,0,0,0,0,0,0,0,0,0,0,0,0,0,0,0,0,0,0,0,0,0,0,0,0,0,0,0,0,0,0,0,0,0,0,0,0,0,0,0,0,0],"sum_hessian":[2.681E3,2.226E3,4.55E2,1.576E3,6.5E2,1.53E2,3.02E2,1.063E3,5.13E2,2.4E1,6.26E2,5.4E1,9.9E1,8.4E1,2.18E2,5.44E2,5.19E2,2.29E2,2.84E2,2E0,2.2E1,5.57E2,6.9E1,2.4E1,3E1,8E0,9.1E1,7E0,7.7E1,1.41E2,7.7E1,6.7E1,4.77E2,3.78E2,1.41E2,4.6E1,1.83E2,2.61E2,2.3E1,2.1E1,1E0,4.98E2,5.9E1,2E1,4.9E1,1E0,2.3E1,6E0,2.4E1,2E0,6E0,6.5E1,2.6E1,4E0,3E0,6E0,7.1E1,1.32E2,9E0,3.9E1,3.8E1],"tree_param":{"num_deleted":"0","num_feature":"7","num_nodes":"61","size_leaf_vector":"1"}},{"base_weights":[1.5997078E-2,-5.502559E-1,2.7814124E0,-1.1613641E0,3.4872374E-1,2.4010177E0,7.2884164E0,-1.3542669E0,5.226923E-1,5.701315E-1,-2.8244436E0,3.0707376E0,-3.461558E-2,1.1004815E0,8.796098E0,-1.0224981E0,-2.2726007E0,-9.5808154E-1,3.472877E0,-1.8448303E0,7.909224E-1,1.2204245E0,-4.49071E0,4.0097327E0,3.9114478E-1,-7.742212E0,1.2183015E0,-3.7873268E-1,3.3609722E0,1.1430412E1,3.685756E0,-2.7894804E-2,-1.927229E-1,-2.445275E-1,2.2912036E-1,3.0130622E-1,-1.6497009E-1,4.8072618E-2,5.379234E-1,-4.3411255E-1,-2.1435088E-2,1.8366922E-1,2.206314E-2,4.5032898E-1,-3.4460685E-1,-5.237135E-1,3.909617E-1,5.611422E-1,2.2383264E-1,-7.102768E-2,4.3704578E-1,9.640522E-2,-8.548072E-1,-7.205192E-2,3.6079857E-1,5.7782507E-1,-9.823901E-2,4.0270072E-1,1.2642626E0,-3.774519E-2,5.2566403E-1],"categories":[],"categories_nodes":[],"categories_segments":[],"categories_sizes":[],"default_left":[0,0,0,0,0,0,0,0,0,0,0,0,0,0,0,0,0,0,0,0,0,0,0,0,0,0,0,0,0,0,0,0,0,0,0,0,0,0,0,0,0,0,0,0,0,0,0,0,0,0,0,0,0,0,0,0,0,0,0,0,0],"id":19,"left_children":[1,3,5,7,9,11,13,15,17,19,21,23,25,27,29,31,33,35,37,39,41,43,45,47,49,51,53,-1,55,57,59,-1,-1,-1,-1,-1,-1,-1,-1,-1,-1,-1,-1,-1,-1,-1,-1,-1,-1,-1,-1,-1,-1,-1,-1,-1,-1,-1,-1,-1,-1],"loss_changes":[4.2013403E3,1.2238605E3,7.6428516E2,4.314712E2,6.3532294E2,6.884695E2,3.168501E2,3.6023877E2,6.018196E2,4.5148123E2,4.0313034E2,8.3126904E2,8.9787445E2,1.0111986E2,3.3481348E2,5.887586E2,2.5383923E2,2.5765045E2,2.5980298E2,2.8805072E2,4.6120303E2,2.9126907E2,2.838244E2,6.8256396E2,3.8441666E2,9.9449036E1,3.7325314E2,0E0,6.867118E1,1.1062915E2,7.219527E1,0E0,0E0,0E0,0E0,0E0,0E0,0E0,0E0,0E0,0E0,0E0,0E0,0E0,0E0,0E0,0E0,0E0,0E0,0E0,0E0,0E0,0E0,0E0,0E0,0E0,0E0,0E0,0E0,0E0,0E0],"parents":[2147483647,0,0,1,1,2,2,3,3,4,4,5,5,6,6,7,7,8,8,9,9,10,10,11,11,12,12,13,13,14,14,15,15,16,16,17,17,18,18,19,19,20,20,21,21,22,22,23,23,24,24,25,25,26,26,28,28,29,29,30,30],"right_children":[2,4,6,8,10,12,14,16,18,20,22,24,26,28,30,32,34,36,38,40,42,44,46,48,50,52,54,-1,56,58,60,-1,-1,-1,-1,-1,-1,-1,-1,-1,-1,-1,-1,-1,-1,-1,-1,-1,-1,-1,-1,-1,-1,-1,-1,-1,-1,-1,-1,-1,-1],"split_conditions":[3.9E1,2.2E1,6.6E1,1.7122747E1,2.6282465E1,5.2E1,2.9E1,1.1008167E1,5E-1,4.3674377E1,2.8290002E0,1.7E0,3.2E1,7.5141365E1,6.4E1,1.8847641E1,2.8019936E1,1.16480225E2,1.5E1,1E-1,1.8347433E2,2.349115E2,1.5945666E1,1.9862242E2,1.5687332E1,1.4408997E1,5.4E1,-3.7873268E-1,3.3998337E0,6.7E1,5.487334E0,-2.7894804E-2,-1.927229E-1,-2.445275E-1,2.2912036E-1,3.0130622E-1,-1.6497009E-1,4.8072618E-2,5.379234E-1,-4.3411255E-1,-2.1435088E-2,1.8366922E-1,2.206314E-2,4.5032898E-1,-3.4460685E-1,-5.237135E-1,3.909617E-1,5.611422E-1,2.2383264E-1,-7.102768E-2,4.3704578E-1,9.640522E-2,-8.548072E-1,-7.205192E-2,3.6079857E-1,5.7782507E-1,-9.823901E-2,4.0270072E-1,1.2642626E0,-3.774519E-2,5.2566403E-1],"split_indices":[0,0,0,3,5,1,2,3,4,6,3,4,2,6,2,5,5,6,0,4,6,6,3,6,3,5,0,0,3,0,3,0,0,0,0,0,0,0,0,0,0,0,0,0,0,0,0,0,0,0,0,0,0,0,0,0,0,0,0,0,0],"split_type":[0,0,0,0,0,0,0,0,0,0,0,0,0,0,0,0,0,0,0,0,0,0,0,0,0,0,0,0,0,0,0,0,0,0,0,0,0,0,0,0,0,0,0,0,0,0,0,0,0,0,0,0,0,0,0,0,0,0,0,0,0],"sum_hessian":[2.681E3,2.226E3,4.55E2,1.325E3,9.01E2,4.21E2,3.4E1,1.189E3,1.36E2,8.43E2,5.8E1,3.3E2,9.1E1,7E0,2.7E1,8.75E2,3.14E2,9.1E1,4.5E1,7E1,7.73E2,1.7E1,4.1E1,2.44E2,8.6E1,1.2E1,7.9E1,2E0,5E0,1.7E1,1E1,4.81E2,3.94E2,3.03E2,1.1E1,1.3E1,7.8E1,1.8E1,2.7E1,2.7E1,4.3E1,2.72E2,5.01E2,1E1,7E0,3.8E1,3E0,1.27E2,1.17E2,6.8E1,1.8E1,1E0,1.1E1,4.4E1,3.5E1,3E0,2E0,3E0,1.4E1,3E0,7E0],"tree_param":{"num_deleted":"0","num_feature":"7","num_nodes":"61","size_leaf_vector":"1"}},{"base_weights":[1.5570711E-2,-8.386263E-1,1.5216157E0,-1.8938783E0,-5.77659E-1,5.344489E-1,2.711732E0,-2.1988058E0,-4.681633E-1,1.290095E0,-7.189692E-1,7.385419E0,2.5240824E-1,3.3401976E0,-9.6541905E-1,3.4985557E0,-2.2734094E0,-1.665777E0,6.6922957E-1,4.6949825E0,7.541698E-1,-2.558738E0,-5.988852E-1,4.2820334E0,9.356122E0,1.144534E0,-1.6996456E0,3.0226207E0,1.0781708E1,1.489476E0,-1.7053415E0,7.574336E-2,5.860961E-1,-2.5149694E-1,-5.9315037E-2,1.9771712E-1,-2.1437776E-1,-1.3557357E-2,4.1793057E-1,4.769587E-2,8.2422954E-1,3.406809E-2,6.14166E-1,-1.0520834E-1,-5.2116185E-1,2.1761378E-2,-1.0479771E-1,6.1700654E-1,1.9950013E-1,1.084438E0,5.103686E-1,3.939234E-2,5.2794975E-1,-8.66074E-2,-6.199633E-1,3.4042785E-1,-5.2806664E-2,1.4048146E0,5.0417584E-1,-2.7194467E-1,4.6814498E-1],"categories":[],"categories_nodes":[],"categories_segments":[],"categories_sizes":[],"default_left":[0,0,0,0,0,0,0,0,0,0,0,0,0,0,0,0,0,0,0,0,0,0,0,0,0,0,0,0,0,0,0,0,0,0,0,0,0,0,0,0,0,0,0,0,0,0,0,0,0,0,0,0,0,0,0,0,0,0,0,0,0],"id":20,"left_children":[1,3,5,7,9,11,13,15,17,19,21,23,25,27,29,31,33,35,37,39,41,43,45,47,49,51,53,55,57,-1,59,-1,-1,-1,-1,-1,-1,-1,-1,-1,-1,-1,-1,-1,-1,-1,-1,-1,-1,-1,-1,-1,-1,-1,-1,-1,-1,-1,-1,-1,-1],"loss_changes":[3.4515598E3,4.703672E2,1.1393237E3,1.4634729E2,3.635711E2,1.026094E3,1.0200481E3,1.2654114E2,8.420638E1,1.7346136E2,2.8081213E2,8.836963E1,8.935818E2,8.5599365E2,7.8819525E2,2.1463276E1,1.1053198E2,5.647856E1,9.0964035E1,1.9058319E2,1.872594E2,3.0628094E2,4.4061435E2,3.087062E1,2.0598267E1,1.0904393E3,5.9855164E2,4.9236133E2,2.1041052E2,0E0,4.2077417E2,0E0,0E0,0E0,0E0,0E0,0E0,0E0,0E0,0E0,0E0,0E0,0E0,0E0,0E0,0E0,0E0,0E0,0E0,0E0,0E0,0E0,0E0,0E0,0E0,0E0,0E0,0E0,0E0,0E0,0E0],"parents":[2147483647,0,0,1,1,2,2,3,3,4,4,5,5,6,6,7,7,8,8,9,9,10,10,11,11,12,12,13,13,14,14,15,15,16,16,17,17,18,18,19,19,20,20,21,21,22,22,23,23,24,24,25,25,26,26,27,27,28,28,30,30],"right_children":[2,4,6,8,10,12,14,16,18,20,22,24,26,28,30,32,34,36,38,40,42,44,46,48,50,52,54,56,58,-1,60,-1,-1,-1,-1,-1,-1,-1,-1,-1,-1,-1,-1,-1,-1,-1,-1,-1,-1,-1,-1,-1,-1,-1,-1,-1,-1,-1,-1,-1,-1],"split_conditions":[2.7E1,1.2E1,3.2E1,1.9E1,1.0990322E1,8.759178E0,2.2734219E1,-9.808499E0,1E1,-2.221E0,4.3674377E1,1.2928316E2,3.2E1,7.2E1,1.6E1,9E0,3.3000002E0,1.3E1,1.3643581E1,9.9571085E0,8E0,4.1144176E0,2.0912935E2,-2.8558326E-1,2.6606888E2,4.1E1,2.6962558E2,3.0697516E2,6.4E1,1.489476E0,7.7000003E0,7.574336E-2,5.860961E-1,-2.5149694E-1,-5.9315037E-2,1.9771712E-1,-2.1437776E-1,-1.3557357E-2,4.1793057E-1,4.769587E-2,8.2422954E-1,3.406809E-2,6.14166E-1,-1.0520834E-1,-5.2116185E-1,2.1761378E-2,-1.0479771E-1,6.1700654E-1,1.9950013E-1,1.084438E0,5.103686E-1,3.939234E-2,5.2794975E-1,-8.66074E-2,-6.199633E-1,3.4042785E-1,-5.2806664E-2,1.4048146E0,5.0417584E-1,-2.7194467E-1,4.6814498E-1],"split_indices":[0,0,2,1,5,5,5,3,0,3,6,6,1,0,1,0,4,2,3,5,4,3,6,3,6,0,6,6,2,0,4,0,0,0,0,0,0,0,0,0,0,0,0,0,0,0,0,0,0,0,0,0,0,0,0,0,0,0,0,0,0],"split_type":[0,0,0,0,0,0,0,0,0,0,0,0,0,0,0,0,0,0,0,0,0,0,0,0,0,0,0,0,0,0,0,0,0,0,0,0,0,0,0,0,0,0,0,0,0,0,0,0,0,0,0,0,0,0,0,0,0,0,0,0,0],"sum_hessian":[2.681E3,1.711E3,9.7E2,3.38E2,1.373E3,5.31E2,4.39E2,2.78E2,6E1,9.6E1,1.277E3,2E1,5.11E2,3.75E2,6.4E1,3E0,2.75E2,2.9E1,3.1E1,1.2E1,8.4E1,7.7E1,1.2E3,9E0,1.1E1,3.51E2,1.6E2,3.61E2,1.4E1,2E0,6.2E1,2E0,1E0,2.4E2,3.5E1,3E0,2.6E1,2.6E1,5E0,6E0,6E0,7.9E1,5E0,5E1,2.7E1,4.26E2,7.74E2,4E0,5E0,7E0,4E0,2.98E2,5.3E1,1.36E2,2.4E1,3.26E2,3.5E1,8E0,6E0,5.4E1,8E0],"tree_param":{"num_deleted":"0","num_feature":"7","num_nodes":"61","size_leaf_vector":"1"}},{"base_weights":[1.6886184E-2,-8.4455615E-1,1.2451662E0,-5.14394E-1,-1.5263615E0,8.560236E-1,3.7582915E0,-1.8809273E0,-3.69118E-1,-6.34586E-1,-2.2406843E0,7.181156E-1,4.8286033E0,3.8711312E-1,4.87853E0,-3.4789276E-1,-3.893839E0,-4.0995693E-1,4.557276E0,1.6116644E0,-1.2049077E0,-2.6249588E0,-4.260732E-1,9.307761E-1,-2.0286224E0,-1.4862032E0,6.0530567E0,-2.543874E0,5.593368E0,-7.091845E0,5.163233E0,8.8914365E-2,-4.7934943E-1,-5.3548515E-1,-2.1894243E-1,-3.0438224E-2,-2.167809E-1,-1.3526835E-1,6.75271E-1,6.0257684E-3,6.6835177E-1,-1.5656585E-1,1.1520938E-1,-2.3059618E-1,-5.7658815E-1,-1.3798074E-1,2.7885473E-1,3.2272246E-2,2.1227896E-1,-8.05545E-1,-1.1912352E-1,-7.474184E-3,-2.8727505E-1,4.3659654E-1,1.0249609E0,-5.7657075E-1,3.8244638E-1,1.1180798E0,5.196095E-4,-1.0224377E0,-4.133911E-2,7.01904E-1,3.1430775E-1],"categories":[],"categories_nodes":[],"categories_segments":[],"categories_sizes":[],"default_left":[0,0,0,0,0,0,0,0,0,0,0,0,0,0,0,0,0,0,0,0,0,0,0,0,0,0,0,0,0,0,0,0,0,0,0,0,0,0,0,0,0,0,0,0,0,0,0,0,0,0,0,0,0,0,0,0,0,0,0,0,0,0,0],"id":21,"left_children":[1,3,5,7,9,11,13,15,17,19,21,23,25,27,29,31,33,35,37,39,41,43,45,47,49,51,53,55,57,59,61,-1,-1,-1,-1,-1,-1,-1,-1,-1,-1,-1,-1,-1,-1,-1,-1,-1,-1,-1,-1,-1,-1,-1,-1,-1,-1,-1,-1,-1,-1,-1,-1],"loss_changes":[2.8388555E3,3.5420752E2,1.078411E3,2.105358E2,3.2600415E2,5.21921E2,5.5703735E2,3.134034E2,1.9561304E2,2.9659152E2,1.9761438E2,5.43954E2,2.5642603E2,5.940886E2,4.149048E2,3.2872498E2,9.7843445E1,1.7675917E2,1.12933655E2,3.694171E2,1.582572E2,2.2216125E2,1.6020825E2,6.240997E2,3.2853888E2,1.1527632E1,1.4640967E2,5.3499384E2,4.3707117E2,5.8534744E1,3.865813E2,0E0,0E0,0E0,0E0,0E0,0E0,0E0,0E0,0E0,0E0,0E0,0E0,0E0,0E0,0E0,0E0,0E0,0E0,0E0,0E0,0E0,0E0,0E0,0E0,0E0,0E0,0E0,0E0,0E0,0E0,0E0,0E0],"parents":[2147483647,0,0,1,1,2,2,3,3,4,4,5,5,6,6,7,7,8,8,9,9,10,10,11,11,12,12,13,13,14,14,15,15,16,16,17,17,18,18,19,19,20,20,21,21,22,22,23,23,24,24,25,25,26,26,27,27,28,28,29,29,30,30],"right_children":[2,4,6,8,10,12,14,16,18,20,22,24,26,28,30,32,34,36,38,40,42,44,46,48,50,52,54,56,58,60,62,-1,-1,-1,-1,-1,-1,-1,-1,-1,-1,-1,-1,-1,-1,-1,-1,-1,-1,-1,-1,-1,-1,-1,-1,-1,-1,-1,-1,-1,-1,-1,-1],"split_conditions":[2.5E1,2.6893295E2,5.3E1,4.3674377E1,2.8290002E0,2.1943583E1,3E1,4.1144176E0,2.2558167E1,1.4277983E1,3.3924277E2,5.3E1,2.9E1,6.3E1,-4.5626664E0,2.1188072E1,1.2976914E1,2.4E1,1.4E1,2.8E1,2.2E1,2.3E1,1.5081084E1,3.2E1,5.4E1,2.9E1,1.9991878E2,8.926917E0,1E-1,5.6E1,1.6707675E2,8.8914365E-2,-4.7934943E-1,-5.3548515E-1,-2.1894243E-1,-3.0438224E-2,-2.167809E-1,-1.3526835E-1,6.75271E-1,6.0257684E-3,6.6835177E-1,-1.5656585E-1,1.1520938E-1,-2.3059618E-1,-5.7658815E-1,-1.3798074E-1,2.7885473E-1,3.2272246E-2,2.1227896E-1,-8.05545E-1,-1.1912352E-1,-7.474184E-3,-2.8727505E-1,4.3659654E-1,1.0249609E0,-5.7657075E-1,3.8244638E-1,1.1180798E0,5.196095E-4,-1.0224377E0,-4.133911E-2,7.01904E-1,3.1430775E-1],"split_indices":[0,6,0,6,3,3,2,3,3,5,6,1,0,0,3,5,3,0,0,2,0,0,3,2,1,2,6,3,4,0,6,0,0,0,0,0,0,0,0,0,0,0,0,0,0,0,0,0,0,0,0,0,0,0,0,0,0,0,0,0,0,0,0],"split_type":[0,0,0,0,0,0,0,0,0,0,0,0,0,0,0,0,0,0,0,0,0,0,0,0,0,0,0,0,0,0,0,0,0,0,0,0,0,0,0,0,0,0,0,0,0,0,0,0,0,0,0,0,0,0,0,0,0,0,0,0,0,0,0],"sum_hessian":[2.681E3,1.576E3,1.105E3,1.063E3,5.13E2,9.58E2,1.47E2,1.01E2,9.62E2,2.29E2,2.84E2,9.27E2,3.1E1,3.7E1,1.1E2,5.8E1,4.3E1,9.55E2,7E0,4.6E1,1.83E2,2.34E2,5E1,8.61E2,6.6E1,5E0,2.6E1,2.4E1,1.3E1,2E0,1.08E2,4.6E1,1.2E1,2.2E1,2.1E1,9.02E2,5.3E1,2E0,5E0,3.6E1,1E1,1.59E2,2.4E1,2.14E2,2E1,3.9E1,1.1E1,5.71E2,2.9E2,7E0,5.9E1,3E0,2E0,2E1,6E0,1.6E1,8E0,6E0,7E0,1E0,1E0,5.5E1,5.3E1],"tree_param":{"num_deleted":"0","num_feature":"7","num_nodes":"63","size_leaf_vector":"1"}},{"base_weights":[1.5375667E-2,-4.1186374E-1,2.1018817E0,-9.134145E-1,2.2032477E-1,-7.453197E0,2.22434E0,-2.386807E0,-7.595066E-1,6.962927E-1,-7.19372E-1,-1.09845735E-1,-8.504454E-1,6.816237E0,1.8809358E0,-2.5439808E0,4.4337937E-1,-9.275468E-1,6.838162E-1,1.4897995E0,-5.868409E-1,8.7793267E-1,-1.8743113E0,1.7936931E0,1.0846938E1,3.1955101E0,7.105489E-1,-2.7982256E-1,-3.338894E-2,-5.8703985E-2,-1.8573527E-1,5.231811E-1,-1.3348788E-2,-1.1739135E-1,2.2875534E-1,7.7016944E-1,-8.561911E-2,-6.499405E-2,3.7286755E-1,1.9808826E-1,-2.513294E-1,-2.9063353E-1,9.328125E-1,1.3518212E0,-1.21425055E-1,5.422246E-1,1.574695E-1,-8.25093E-2,3.3292308E-1],"categories":[],"categories_nodes":[],"categories_segments":[],"categories_sizes":[],"default_left":[0,0,0,0,0,0,0,0,0,0,0,0,0,0,0,0,0,0,0,0,0,0,0,0,0,0,0,0,0,0,0,0,0,0,0,0,0,0,0,0,0,0,0,0,0,0,0,0,0],"id":22,"left_children":[1,3,5,7,9,11,13,15,17,19,21,-1,-1,23,25,27,-1,29,31,33,35,37,39,41,43,45,47,-1,-1,-1,-1,-1,-1,-1,-1,-1,-1,-1,-1,-1,-1,-1,-1,-1,-1,-1,-1,-1,-1],"loss_changes":[2.3917017E3,7.0632654E2,5.501422E2,2.7983142E2,4.415047E2,3.0740967E1,6.983506E2,1.3670587E2,2.737301E2,6.677791E2,6.141158E2,0E0,0E0,6.081196E2,6.454634E2,6.3684692E1,0E0,3.1836444E2,4.3931552E2,8.633052E2,5.669562E2,6.122036E2,4.8041498E2,5.582913E2,5.641328E2,7.060686E2,9.0353094E2,0E0,0E0,0E0,0E0,0E0,0E0,0E0,0E0,0E0,0E0,0E0,0E0,0E0,0E0,0E0,0E0,0E0,0E0,0E0,0E0,0E0,0E0],"parents":[2147483647,0,0,1,1,2,2,3,3,4,4,5,5,6,6,7,7,8,8,9,9,10,10,13,13,14,14,15,15,17,17,18,18,19,19,20,20,21,21,22,22,23,23,24,24,25,25,26,26],"right_children":[2,4,6,8,10,12,14,16,18,20,22,-1,-1,24,26,28,-1,30,32,34,36,38,40,42,44,46,48,-1,-1,-1,-1,-1,-1,-1,-1,-1,-1,-1,-1,-1,-1,-1,-1,-1,-1,-1,-1,-1,-1],"split_conditions":[3.9E1,2.1E1,1.1E1,9E0,9.000001E-1,1.5E1,2.4E1,3.5468704E2,1.7122747E1,1.0579001E1,1.8128368E2,-1.09845735E-1,-8.504454E-1,2E1,1E-1,2.8019936E1,4.4337937E-1,1.1008167E1,1.205515E2,1.19162315E2,1.2E1,1.16165E1,1.3104198E1,7.245667E0,3.6E1,4.1E1,4.4E1,-2.7982256E-1,-3.338894E-2,-5.8703985E-2,-1.8573527E-1,5.231811E-1,-1.3348788E-2,-1.1739135E-1,2.2875534E-1,7.7016944E-1,-8.561911E-2,-6.499405E-2,3.7286755E-1,1.9808826E-1,-2.513294E-1,-2.9063353E-1,9.328125E-1,1.3518212E0,-1.21425055E-1,5.422246E-1,1.574695E-1,-8.25093E-2,3.3292308E-1],"split_indices":[0,0,2,0,4,1,1,6,3,3,6,0,0,1,4,5,0,3,6,6,1,3,5,3,2,1,2,0,0,0,0,0,0,0,0,0,0,0,0,0,0,0,0,0,0,0,0,0,0],"split_type":[0,0,0,0,0,0,0,0,0,0,0,0,0,0,0,0,0,0,0,0,0,0,0,0,0,0,0,0,0,0,0,0,0,0,0,0,0,0,0,0,0,0,0,0,0,0,0,0,0],"sum_hessian":[2.681E3,2.226E3,4.55E2,1.241E3,9.85E2,5E0,4.5E2,1.16E2,1.125E3,6.54E2,3.31E2,1E0,4E0,3E1,4.2E2,1.14E2,2E0,1.008E3,1.17E2,4.04E2,2.5E2,1.39E2,1.92E2,1.4E1,1.6E1,1.97E2,2.23E2,1.02E2,1.2E1,7.39E2,2.69E2,1.7E1,1E2,9.3E1,3.11E2,7E0,2.43E2,9.1E1,4.8E1,2.7E1,1.65E2,9E0,5E0,1.3E1,3E0,8.2E1,1.15E2,1.41E2,8.2E1],"tree_param":{"num_deleted":"0","num_feature":"7","num_nodes":"49","size_leaf_vector":"1"}},{"base_weights":[1.507171E-2,-3.0781507E-1,2.3093758E0,-6.956651E-1,4.807768E-1,-1.9393702E0,2.6779227E0,-2.6681134E-1,-1.1258146E0,3.3290358E0,3.0502212E-1,-3.2939491E0,4.679567E0,4.115289E0,1.0634815E0,-1.6907254E-1,-4.026188E0,-3.1009844E-1,-1.4641606E0,6.4465184E0,-1.2762839E0,6.103531E-1,-2.0262666E0,-7.2832036E-1,-8.013463E0,-4.14283E-1,7.920874E-1,1.2581199E1,3.2234259E0,-3.8492668E0,1.8348424E0,-2.3293233E-2,4.2700383E-1,-4.975596E-1,3.0123222E-1,5.0901253E-2,-1.7593536E-1,-1.5523629E-1,1.6096865E-1,1.7095579E-1,7.445393E-1,2.2398582E-2,-5.521836E-1,1.160259E-1,-4.7964584E-2,3.0726245E-1,-2.906531E-1,9.977922E-1,-3.966524E-1,-9.101578E-1,-3.1660792E-1,1.5378366E0,5.822388E-1,3.6357427E-1,-9.21352E-1,-7.985425E-1,2.6081035E-2,2.6181486E-1,-1.9870661E-1],"categories":[],"categories_nodes":[],"categories_segments":[],"categories_sizes":[],"default_left":[0,0,0,0,0,0,0,0,0,0,0,0,0,0,0,0,0,0,0,0,0,0,0,0,0,0,0,0,0,0,0,0,0,0,0,0,0,0,0,0,0,0,0,0,0,0,0,0,0,0,0,0,0,0,0,0,0,0,0],"id":23,"left_children":[1,3,5,7,9,11,13,15,17,19,21,23,25,27,29,31,33,35,37,39,41,43,45,47,49,-1,-1,51,53,55,57,-1,-1,-1,-1,-1,-1,-1,-1,-1,-1,-1,-1,-1,-1,-1,-1,-1,-1,-1,-1,-1,-1,-1,-1,-1,-1,-1,-1],"loss_changes":[1.9875378E3,7.197063E2,5.234938E2,2.9061078E2,3.874462E2,2.574928E2,7.0338916E2,2.8996188E2,2.1675348E2,6.542927E2,5.222851E2,2.726596E2,1.7579532E2,1.1750657E3,5.5654065E2,2.1984164E2,1.4863647E2,2.763029E2,1.5324158E2,1.1502576E2,1.22256805E2,3.8896567E2,3.9044238E2,5.942815E2,1.3379761E1,0E0,0E0,1.9404395E2,7.873082E2,3.4208124E2,3.8241174E2,0E0,0E0,0E0,0E0,0E0,0E0,0E0,0E0,0E0,0E0,0E0,0E0,0E0,0E0,0E0,0E0,0E0,0E0,0E0,0E0,0E0,0E0,0E0,0E0,0E0,0E0,0E0,0E0],"parents":[2147483647,0,0,1,1,2,2,3,3,4,4,5,5,6,6,7,7,8,8,9,9,10,10,11,11,12,12,13,13,14,14,15,15,16,16,17,17,18,18,19,19,20,20,21,21,22,22,23,23,24,24,27,27,28,28,29,29,30,30],"right_children":[2,4,6,8,10,12,14,16,18,20,22,24,26,28,30,32,34,36,38,40,42,44,46,48,50,-1,-1,52,54,56,58,-1,-1,-1,-1,-1,-1,-1,-1,-1,-1,-1,-1,-1,-1,-1,-1,-1,-1,-1,-1,-1,-1,-1,-1,-1,-1,-1,-1],"split_conditions":[4.3E1,2.5E1,5.2076275E1,2.3922253E2,9.676569E0,5.6E1,1.9223994E2,3.00767E1,1.5629971E1,8.712333E0,2.9559268E2,1.7533146E1,2.4895403E0,2.9E1,2E1,2.858545E1,9.599999E0,8.818584E0,1.8239416E1,5.3965557E1,3.5E1,1E0,-4.1085E0,2.8E1,3E1,-4.14283E-1,7.920874E-1,2.1E1,2.4717085E1,5E1,2.2999997E0,-2.3293233E-2,4.2700383E-1,-4.975596E-1,3.0123222E-1,5.0901253E-2,-1.7593536E-1,-1.5523629E-1,1.6096865E-1,1.7095579E-1,7.445393E-1,2.2398582E-2,-5.521836E-1,1.160259E-1,-4.7964584E-2,3.0726245E-1,-2.906531E-1,9.977922E-1,-3.966524E-1,-9.101578E-1,-3.1660792E-1,1.5378366E0,5.822388E-1,3.6357427E-1,-9.21352E-1,-7.985425E-1,2.6081035E-2,2.6181486E-1,-1.9870661E-1],"split_indices":[0,0,6,6,5,2,6,5,5,3,6,5,6,1,2,5,4,3,3,6,1,4,3,2,2,0,0,2,5,0,4,0,0,0,0,0,0,0,0,0,0,0,0,0,0,0,0,0,0,0,0,0,0,0,0,0,0,0,0],"split_type":[0,0,0,0,0,0,0,0,0,0,0,0,0,0,0,0,0,0,0,0,0,0,0,0,0,0,0,0,0,0,0,0,0,0,0,0,0,0,0,0,0,0,0,0,0,0,0,0,0,0,0,0,0,0,0,0,0,0,0],"sum_hessian":[2.681E3,2.351E3,3.3E2,1.576E3,7.75E2,2.6E1,3.04E2,7.9E2,7.86E2,4.4E1,7.31E2,2.2E1,4E0,1.6E2,1.44E2,7.71E2,1.9E1,2.31E2,5.55E2,2.6E1,1.8E1,6.47E2,8.4E1,1.5E1,7E0,1E0,3E0,1.4E1,1.46E2,1.9E1,1.25E2,7.61E2,1E1,1.7E1,2E0,1.48E2,8.3E1,5.4E2,1.5E1,5E0,2.1E1,1.4E1,4E0,4.3E2,2.17E2,1.2E1,7.2E1,3E0,1.2E1,5E0,2E0,9E0,5E0,1.42E2,4E0,9E0,1E1,1.04E2,2.1E1],"tree_param":{"num_deleted":"0","num_feature":"7","num_nodes":"59","size_leaf_vector":"1"}},{"base_weights":[1.3998376E-2,-2.7679613E-1,2.0802665E0,-1.0926206E0,3.6075316E-2,-1.7546118E0,2.412927E0,-2.0498226E0,-8.816407E-1,-3.5179164E-2,4.145478E0,-2.9917555E0,4.2871714E0,3.313448E0,1.1836328E-1,-2.1945124E0,4.1798854E-1,7.594002E-1,-9.1167736E-1,8.1650816E-2,-1.9985429E0,1.8471748E0,7.7384124E0,5.5619507E0,-4.071249E0,-3.935688E-1,7.326808E-1,4.3779964E0,7.792974E-1,-4.453748E0,9.817579E-1,-1.2544714E-1,-2.8257984E-1,-4.9457397E-2,-1.5806995E-1,-1.5946921E-2,1.3469699E-1,3.4420606E-1,-3.8094717E-1,5.5719536E-2,4.5492646E-1,3.691002E-1,1.0496087E0,-5.032919E-1,1.3375845E0,-2.2876637E-1,-1.1079571E0,4.9833226E-1,-2.5707948E-1,-1.974941E-2,1.0580128E0,3.7016115E-1,-7.014448E-1,1.5275912E-1,-6.856259E-1],"categories":[],"categories_nodes":[],"categories_segments":[],"categories_sizes":[],"default_left":[0,0,0,0,0,0,0,0,0,0,0,0,0,0,0,0,0,0,0,0,0,0,0,0,0,0,0,0,0,0,0,0,0,0,0,0,0,0,0,0,0,0,0,0,0,0,0,0,0,0,0,0,0,0,0],"id":24,"left_children":[1,3,5,7,9,11,13,15,17,19,21,23,25,27,29,31,-1,-1,33,35,37,39,41,43,45,-1,-1,47,49,51,53,-1,-1,-1,-1,-1,-1,-1,-1,-1,-1,-1,-1,-1,-1,-1,-1,-1,-1,-1,-1,-1,-1,-1,-1],"loss_changes":[1.6120807E3,6.003832E2,4.2649463E2,1.298645E2,4.982213E2,2.1463911E2,6.298301E2,1.14633514E2,1.4337842E2,3.839155E2,2.2517776E2,2.3501848E2,1.5380855E2,5.8739014E2,3.4780817E2,6.4700134E1,0E0,0E0,1.4851077E2,4.8226294E2,9.3925165E2,6.369232E1,8.403473E1,3.1568112E2,2.3715234E2,0E0,0E0,6.6057886E2,6.339318E2,3.1833273E2,3.2706406E2,0E0,0E0,0E0,0E0,0E0,0E0,0E0,0E0,0E0,0E0,0E0,0E0,0E0,0E0,0E0,0E0,0E0,0E0,0E0,0E0,0E0,0E0,0E0,0E0],"parents":[2147483647,0,0,1,1,2,2,3,3,4,4,5,5,6,6,7,7,8,8,9,9,10,10,11,11,12,12,13,13,14,14,15,15,18,18,19,19,20,20,21,21,22,22,23,23,24,24,27,27,28,28,29,29,30,30],"right_children":[2,4,6,8,10,12,14,16,18,20,22,24,26,28,30,32,-1,-1,34,36,38,40,42,44,46,-1,-1,48,50,52,54,-1,-1,-1,-1,-1,-1,-1,-1,-1,-1,-1,-1,-1,-1,-1,-1,-1,-1,-1,-1,-1,-1,-1,-1],"split_conditions":[4.3E1,1.5E1,5.2076275E1,9E0,2.1943583E1,5.6E1,1.7E0,3.5468704E2,5E0,4.6E1,1E-1,2.4E1,2.4895403E0,2.4158144E2,7.900004E-2,4.837333E0,4.1798854E-1,7.594002E-1,1.933639E1,3.5E1,1.4408847E2,3.3E1,1.9921053E2,4.4E1,9E-1,-3.935688E-1,7.326808E-1,2.2380884E1,8.000001E-1,1.3049689E1,3.030676E2,-1.2544714E-1,-2.8257984E-1,-4.9457397E-2,-1.5806995E-1,-1.5946921E-2,1.3469699E-1,3.4420606E-1,-3.8094717E-1,5.5719536E-2,4.5492646E-1,3.691002E-1,1.0496087E0,-5.032919E-1,1.3375845E0,-2.2876637E-1,-1.1079571E0,4.9833226E-1,-2.5707948E-1,-1.974941E-2,1.0580128E0,3.7016115E-1,-7.014448E-1,1.5275912E-1,-6.856259E-1],"split_indices":[0,0,6,0,3,2,4,6,1,1,4,1,6,6,3,3,0,0,5,2,6,0,6,0,4,0,0,5,4,5,6,0,0,0,0,0,0,0,0,0,0,0,0,0,0,0,0,0,0,0,0,0,0,0,0],"split_type":[0,0,0,0,0,0,0,0,0,0,0,0,0,0,0,0,0,0,0,0,0,0,0,0,0,0,0,0,0,0,0,0,0,0,0,0,0,0,0,0,0,0,0,0,0,0,0,0,0,0,0,0,0,0,0],"sum_hessian":[2.681E3,2.351E3,3.3E2,6.51E2,1.7E3,2.6E1,3.04E2,1.16E2,5.35E2,1.672E3,2.8E1,2.2E1,4E0,2.18E2,8.6E1,1.14E2,2E0,1E0,5.34E2,1.579E3,9.3E1,1.8E1,1E1,2E0,2E1,1E0,3E0,1.53E2,6.5E1,1.3E1,7.3E1,4.7E1,6.7E1,3.3E2,2.04E2,1.327E3,2.52E2,2.3E1,7E1,1.3E1,5E0,5E0,5E0,1E0,1E0,1.7E1,3E0,1.41E2,1.2E1,6E1,5E0,3E0,1E1,6.9E1,4E0],"tree_param":{"num_deleted":"0","num_feature":"7","num_nodes":"55","size_leaf_vector":"1"}},{"base_weights":[1.3651994E-2,-5.220193E-1,9.580965E-1,-2.974966E-1,-1.174404E0,8.0793065E-1,4.9508767E0,-1.6158523E-1,-1.9839576E0,-1.5650048E0,1.11191206E-1,1.4915924E0,7.419142E-2,4.0647984E-1,6.0724587E0,-1.5773641E0,-2.0515535E-2,-3.0477543E0,2.7360473E0,1.6682028E0,-1.7749174E0,8.013856E-1,-1.8612591E0,-1.0729599E0,2.0548813E0,-3.343562E0,3.6836588E-1,2.2823403E0,-3.4807345E-1,8.42061E0,1.6779865E0,-1.6112966E-2,-3.6014923E-1,-7.7549624E-3,4.307393E-1,-3.327336E-1,9.2400247E-1,6.1548615E-1,-2.306828E-1,5.245444E-1,-9.3667194E-2,-1.4989793E-1,-3.815126E-1,-2.9845739E-2,2.4430382E-1,-9.719768E-2,-4.811751E-1,1.8525153E-2,-5.3601414E-1,2.2451101E-1,-7.499409E-1,8.7395966E-1,-4.3113828E-1,1.5787996E-1,-6.472534E-2,-1.8379727E-1,3.4739977E-1,9.4375575E-1,2.5019094E-1,-3.019087E-1,2.4496026E-1],"categories":[],"categories_nodes":[],"categories_segments":[],"categories_sizes":[],"default_left":[0,0,0,0,0,0,0,0,0,0,0,0,0,0,0,0,0,0,0,0,0,0,0,0,0,0,0,0,0,0,0,0,0,0,0,0,0,0,0,0,0,0,0,0,0,0,0,0,0,0,0,0,0,0,0,0,0,0,0,0,0],"id":25,"left_children":[1,3,5,7,9,11,13,15,17,19,21,23,25,27,29,31,33,35,37,39,41,43,45,47,49,51,53,55,-1,57,59,-1,-1,-1,-1,-1,-1,-1,-1,-1,-1,-1,-1,-1,-1,-1,-1,-1,-1,-1,-1,-1,-1,-1,-1,-1,-1,-1,-1,-1,-1],"loss_changes":[1.3573556E3,2.504161E2,5.781915E2,2.9192117E2,2.2011768E2,4.699162E2,1.7592365E2,2.3584106E2,4.8534567E2,2.3100104E2,1.4171312E2,7.028279E2,4.56685E2,6.62792E1,2.7479932E2,3.0615018E2,2.6568524E2,2.9870898E2,3.245299E2,2.0059683E2,1.7218011E2,1.3975728E2,6.616623E1,4.756809E2,7.402024E2,4.5867572E2,5.148859E2,3.5845116E1,0E0,8.472998E1,4.7263264E1,0E0,0E0,0E0,0E0,0E0,0E0,0E0,0E0,0E0,0E0,0E0,0E0,0E0,0E0,0E0,0E0,0E0,0E0,0E0,0E0,0E0,0E0,0E0,0E0,0E0,0E0,0E0,0E0,0E0,0E0],"parents":[2147483647,0,0,1,1,2,2,3,3,4,4,5,5,6,6,7,7,8,8,9,9,10,10,11,11,12,12,13,13,14,14,15,15,16,16,17,17,18,18,19,19,20,20,21,21,22,22,23,23,24,24,25,25,26,26,27,27,29,29,30,30],"right_children":[2,4,6,8,10,12,14,16,18,20,22,24,26,28,30,32,34,36,38,40,42,44,46,48,50,52,54,56,-1,58,60,-1,-1,-1,-1,-1,-1,-1,-1,-1,-1,-1,-1,-1,-1,-1,-1,-1,-1,-1,-1,-1,-1,-1,-1,-1,-1,-1,-1,-1,-1],"split_conditions":[2.7E1,2.8303546E2,6.6E1,7.3999996E0,3.3807037E2,1.9862242E2,2.9E1,4.568013E1,1.5543583E1,1.191812E1,8.000001E-1,5.2076275E1,1.8E1,2.6000001E0,6.4E1,4.1144176E0,6.799999E0,3.3161064E1,2.6E1,1.9019166E0,1.3826916E1,2.2E1,2.226477E1,1.8847641E1,1.48E1,1.1119281E1,1E-1,4.198713E1,-3.4807345E-1,2.538354E2,1.0086427E1,-1.6112966E-2,-3.6014923E-1,-7.7549624E-3,4.307393E-1,-3.327336E-1,9.2400247E-1,6.1548615E-1,-2.306828E-1,5.245444E-1,-9.3667194E-2,-1.4989793E-1,-3.815126E-1,-2.9845739E-2,2.4430382E-1,-9.719768E-2,-4.811751E-1,1.8525153E-2,-5.3601414E-1,2.2451101E-1,-7.499409E-1,8.7395966E-1,-4.3113828E-1,1.5787996E-1,-6.472534E-2,-1.8379727E-1,3.4739977E-1,9.4375575E-1,2.5019094E-1,-3.019087E-1,2.4496026E-1],"split_indices":[0,6,0,4,6,6,2,6,3,5,4,6,1,4,2,3,4,5,1,3,3,2,5,5,4,5,4,6,0,6,5,0,0,0,0,0,0,0,0,0,0,0,0,0,0,0,0,0,0,0,0,0,0,0,0,0,0,0,0,0,0],"split_type":[0,0,0,0,0,0,0,0,0,0,0,0,0,0,0,0,0,0,0,0,0,0,0,0,0,0,0,0,0,0,0,0,0,0,0,0,0,0,0,0,0,0,0,0,0,0,0,0,0,0,0,0,0,0,0,0,0,0,0,0,0],"sum_hessian":[2.681E3,1.711E3,9.7E2,1.274E3,4.37E2,9.36E2,3.4E1,1.18E3,9.4E1,3.35E2,1.02E2,4.84E2,4.52E2,7E0,2.7E1,1.06E2,1.074E3,7.7E1,1.7E1,2E1,3.15E2,7.6E1,2.6E1,8.7E1,3.97E2,3.5E1,4.17E2,5E0,2E0,1.7E1,1E1,6.3E1,4.3E1,1.061E3,1.3E1,7.6E1,1E0,1E1,7E0,8E0,1.2E1,2.79E2,3.6E1,4.6E1,3E1,2.1E1,5E0,6.8E1,1.9E1,3.9E2,7E0,2E0,3.3E1,1.9E2,2.27E2,1E0,4E0,1.4E1,3E0,1E0,9E0],"tree_param":{"num_deleted":"0","num_feature":"7","num_nodes":"61","size_leaf_vector":"1"}},{"base_weights":[1.2661373E-2,-2.3025936E-1,1.7387547E0,3.062236E-1,-5.959309E-1,3.1515408E0,1.0116148E0,-1.3763916E0,6.6502047E-1,5.600808E-1,-8.274153E-1,3.7661703E0,-6.605927E0,-9.3174195E-1,2.668848E0,-6.7631054E-1,-4.574221E0,3.810628E-1,2.3210073E0,2.878057E-1,9.348458E0,-6.2115866E-1,-2.9500332E0,6.2088127E0,1.0102067E0,-8.132079E-1,1.2754917E-1,-1.656738E0,4.159134E0,-2.5156782E0,3.8054883E0,7.490819E-2,-2.740017E-1,1.2716632E-1,-5.0372005E-1,7.693821E-2,-2.1429323E-1,5.7565945E-1,6.825551E-2,3.7419555E-1,-2.608313E-3,6.9130614E-2,1.5668496E0,-7.314861E-2,4.8932686E-1,-3.2313934E-1,7.505768E-1,-6.048497E-2,8.2828236E-1,-3.934088E-1,3.1796098E-1,-1.3080558E-1,-1.1332505E0,-2.8156948E-1,4.975011E-1,-4.8169962E-1,2.1137524E-1,-6.580639E-1,4.090414E-1],"categories":[],"categories_nodes":[],"categories_segments":[],"categories_sizes":[],"default_left":[0,0,0,0,0,0,0,0,0,0,0,0,0,0,0,0,0,0,0,0,0,0,0,0,0,0,0,0,0,0,0,0,0,0,0,0,0,0,0,0,0,0,0,0,0,0,0,0,0,0,0,0,0,0,0,0,0,0,0],"id":26,"left_children":[1,3,5,7,9,11,13,15,17,19,21,23,25,27,29,31,33,35,37,39,41,43,45,47,49,-1,-1,51,53,55,57,-1,-1,-1,-1,-1,-1,-1,-1,-1,-1,-1,-1,-1,-1,-1,-1,-1,-1,-1,-1,-1,-1,-1,-1,-1,-1,-1,-1],"loss_changes":[1.1249733E3,4.615897E2,3.3684583E2,5.7686145E2,3.7483395E2,6.965686E2,7.110177E2,3.7301474E2,3.6918677E2,5.572379E2,5.0864697E2,7.0730225E2,9.457004E1,3.833588E2,7.1083325E2,4.109337E2,8.760138E1,6.612667E2,6.4341113E2,2.4729955E2,3.7216296E2,6.5090894E2,3.2726422E2,7.963799E2,5.595434E2,0E0,0E0,2.8881555E2,8.798593E1,2.4456534E2,3.1692664E2,0E0,0E0,0E0,0E0,0E0,0E0,0E0,0E0,0E0,0E0,0E0,0E0,0E0,0E0,0E0,0E0,0E0,0E0,0E0,0E0,0E0,0E0,0E0,0E0,0E0,0E0,0E0,0E0],"parents":[2147483647,0,0,1,1,2,2,3,3,4,4,5,5,6,6,7,7,8,8,9,9,10,10,11,11,12,12,13,13,14,14,15,15,16,16,17,17,18,18,19,19,20,20,21,21,22,22,23,23,24,24,27,27,28,28,29,29,30,30],"right_children":[2,4,6,8,10,12,14,16,18,20,22,24,26,28,30,32,34,36,38,40,42,44,46,48,50,-1,-1,52,54,56,58,-1,-1,-1,-1,-1,-1,-1,-1,-1,-1,-1,-1,-1,-1,-1,-1,-1,-1,-1,-1,-1,-1,-1,-1,-1,-1,-1,-1],"split_conditions":[4.3E1,2.0515506E2,4E1,4.3674377E1,-7.897499E-1,9.599999E0,5.3E1,2.167487E1,1.9392032E2,5.4E1,3.8E1,1.9010706E2,2.7E1,1.9412334E1,3E1,4.4165E0,1.2E1,1.8347433E2,1.9862242E2,-8.495997E0,2.9E1,4E1,2.1943583E1,7.247434E1,2E1,-8.132079E-1,1.2754917E-1,6.6E1,1.0587918E1,6.3E1,-4.5626664E0,7.490819E-2,-2.740017E-1,1.2716632E-1,-5.0372005E-1,7.693821E-2,-2.1429323E-1,5.7565945E-1,6.825551E-2,3.7419555E-1,-2.608313E-3,6.9130614E-2,1.5668496E0,-7.314861E-2,4.8932686E-1,-3.2313934E-1,7.505768E-1,-6.048497E-2,8.2828236E-1,-3.934088E-1,3.1796098E-1,-1.3080558E-1,-1.1332505E0,-2.8156948E-1,4.975011E-1,-4.8169962E-1,2.1137524E-1,-6.580639E-1,4.090414E-1],"split_indices":[0,6,1,6,3,4,0,5,6,2,1,6,2,3,2,3,1,6,6,3,0,0,3,6,2,0,0,1,5,0,3,0,0,0,0,0,0,0,0,0,0,0,0,0,0,0,0,0,0,0,0,0,0,0,0,0,0,0,0],"split_type":[0,0,0,0,0,0,0,0,0,0,0,0,0,0,0,0,0,0,0,0,0,0,0,0,0,0,0,0,0,0,0,0,0,0,0,0,0,0,0,0,0,0,0,0,0,0,0,0,0,0,0,0,0,0,0,0,0,0,0],"sum_hessian":[2.681E3,2.351E3,3.3E2,9.53E2,1.398E3,1.11E2,2.19E2,1.67E2,7.86E2,2.33E2,1.165E3,1.05E2,6E0,1.01E2,1.18E2,1.38E2,2.9E1,6.72E2,1.14E2,2.27E2,6E0,1.063E3,1.02E2,5.5E1,5E1,5E0,1E0,8.9E1,1.2E1,2.1E1,9.7E1,8.2E1,5.6E1,2E0,2.7E1,5.83E2,8.9E1,3.6E1,7.8E1,1.8E1,2.09E2,3E0,3E0,1.043E3,2E1,1E2,2E0,1.3E1,4.2E1,1.5E1,3.5E1,8.7E1,2E0,1E0,1.1E1,1.4E1,7E0,2E0,9.5E1],"tree_param":{"num_deleted":"0","num_feature":"7","num_nodes":"59","size_leaf_vector":"1"}},{"base_weights":[1.1850586E-2,-4.9316067E-1,7.319147E-1,-1.7281917E0,-3.9391917E-1,1.4396043E-1,1.5184497E0,-1.8588122E0,3.8549933E-1,-1.0624907E-1,-8.4082913E-1,5.606316E0,-6.15594E-2,1.1112782E1,1.3504816E0,9.226818E-1,-2.020387E0,3.1983498E-1,-8.030486E-1,-9.884329E-1,3.2824566E0,6.908893E0,2.8124301E0,5.689949E-1,-1.6268473E0,-1.8718481E-1,1.3235135E1,1.8461901E0,-1.7920334E0,-1.674235E-1,2.2962956E-1,-2.287213E-1,1.2596123E-2,8.975743E-2,-2.5489837E-2,-4.806911E-1,-4.8171226E-2,-2.6185894E-1,-7.350578E-2,3.7725833E-1,-3.0149767E-1,6.5637685E-2,7.308617E-1,9.1146536E-2,4.9607697E-1,1.1620219E-2,3.7783173E-1,-9.453534E-2,-5.5221826E-1,1.4544518E0,2.6894188E-1,1.6328308E-1,7.657901E-1,-2.6064155E-1,3.4743482E-1],"categories":[],"categories_nodes":[],"categories_segments":[],"categories_sizes":[],"default_left":[0,0,0,0,0,0,0,0,0,0,0,0,0,0,0,0,0,0,0,0,0,0,0,0,0,0,0,0,0,0,0,0,0,0,0,0,0,0,0,0,0,0,0,0,0,0,0,0,0,0,0,0,0,0,0],"id":27,"left_children":[1,3,5,7,9,11,13,15,-1,17,19,21,23,25,27,29,31,33,35,37,39,41,43,45,47,-1,49,51,53,-1,-1,-1,-1,-1,-1,-1,-1,-1,-1,-1,-1,-1,-1,-1,-1,-1,-1,-1,-1,-1,-1,-1,-1,-1,-1],"loss_changes":[9.756447E2,1.926063E2,5.1124738E2,9.249133E1,1.8774068E2,7.1208765E2,7.472512E2,5.3547363E1,0E0,2.6449353E2,3.5137082E2,6.4272095E1,6.04969E2,2.452381E2,7.292298E2,2.881466E1,6.2712616E1,1.8385025E2,4.3255078E2,2.2648688E2,7.310506E1,3.2691956E1,3.223369E1,6.345908E2,4.6199747E2,0E0,5.7542236E1,4.8720886E2,2.835418E2,0E0,0E0,0E0,0E0,0E0,0E0,0E0,0E0,0E0,0E0,0E0,0E0,0E0,0E0,0E0,0E0,0E0,0E0,0E0,0E0,0E0,0E0,0E0,0E0,0E0,0E0],"parents":[2147483647,0,0,1,1,2,2,3,3,4,4,5,5,6,6,7,7,9,9,10,10,11,11,12,12,13,13,14,14,15,15,16,16,17,17,18,18,19,19,20,20,21,21,22,22,23,23,24,24,26,26,27,27,28,28],"right_children":[2,4,6,8,10,12,14,16,-1,18,20,22,24,26,28,30,32,34,36,38,40,42,44,46,48,-1,50,52,54,-1,-1,-1,-1,-1,-1,-1,-1,-1,-1,-1,-1,-1,-1,-1,-1,-1,-1,-1,-1,-1,-1,-1,-1,-1,-1],"split_conditions":[2.5E1,9E0,3.2E1,3.5468704E2,1.894024E1,8.759178E0,1.9E1,3.9980667E1,3.8549933E-1,1.1820667E1,1.8095667E1,2.9373333E0,3.2E1,5.04775E0,2.2734219E1,1.4E1,2.8019936E1,2.4158144E2,1.2843582E1,1.98E1,2.4E1,1.1691704E1,3.5E1,4.1E1,2.6962558E2,-1.8718481E-1,3.7999992E0,7.3E1,7.7000003E0,-1.674235E-1,2.2962956E-1,-2.287213E-1,1.2596123E-2,8.975743E-2,-2.5489837E-2,-4.806911E-1,-4.8171226E-2,-2.6185894E-1,-7.350578E-2,3.7725833E-1,-3.0149767E-1,6.5637685E-2,7.308617E-1,9.1146536E-2,4.9607697E-1,1.1620219E-2,3.7783173E-1,-9.453534E-2,-5.5221826E-1,1.4544518E0,2.6894188E-1,1.6328308E-1,7.657901E-1,-2.6064155E-1,3.4743482E-1],"split_indices":[0,0,2,6,5,5,1,6,0,3,3,3,1,3,5,1,5,6,3,5,0,6,0,0,6,0,4,0,4,0,0,0,0,0,0,0,0,0,0,0,0,0,0,0,0,0,0,0,0,0,0,0,0,0,0],"split_type":[0,0,0,0,0,0,0,0,0,0,0,0,0,0,0,0,0,0,0,0,0,0,0,0,0,0,0,0,0,0,0,0,0,0,0,0,0,0,0,0,0,0,0,0,0,0,0,0,0,0,0,0,0,0,0],"sum_hessian":[2.681E3,1.576E3,1.105E3,1.16E2,1.46E3,6.33E2,4.72E2,1.14E2,2E0,8.89E2,5.71E2,2.2E1,6.11E2,7E0,4.65E2,6E0,1.08E2,5.52E2,3.37E2,5.52E2,1.9E1,1.4E1,8E0,4.36E2,1.75E2,1E0,6E0,4.02E2,6.3E1,2E0,4E0,9.6E1,1.2E1,2.75E2,2.77E2,2.4E1,3.13E2,7.3E1,4.79E2,1.8E1,1E0,1E0,1.3E1,5E0,3E0,3.83E2,5.3E1,1.5E2,2.5E1,5E0,1E0,3.89E2,1.3E1,5.5E1,8E0],"tree_param":{"num_deleted":"0","num_feature":"7","num_nodes":"55","size_leaf_vector":"1"}},{"base_weights":[1.185339E-2,-4.44157E-1,6.620492E-1,-3.9050412E-1,-2.6068225E0,1.3134165E-1,1.3719996E0,4.2809424E-1,-5.367639E-1,-5.190046E0,-6.964577E-1,5.1058455E0,-5.5823278E-2,1.403959E0,1.2612711E0,2.15477E0,-4.0888876E-2,-2.746652E-1,-1.2047964E0,-1.3289592E0,-5.978838E-1,-1.5032918E0,8.526947E-1,2.893714E0,6.584892E0,5.1298726E-1,-1.4678369E0,1.7228776E0,-1.6413977E0,1.6146451E-1,7.9625446E-1,-1.3453515E-1,5.96016E-2,-3.552189E-2,3.448566E-1,-1.5868147E-1,2.3587143E-2,1.2217569E-2,-1.8533961E-1,-4.1968456E-1,3.3565633E-2,1.4088361E-1,5.140042E-1,8.2350665E-1,3.2871774E-1,1.0461288E-2,3.4074834E-1,-8.514436E-2,-4.9912038E-1,1.5251599E-1,6.775044E-1,-2.4728923E-1,2.6652935E-1],"categories":[],"categories_nodes":[],"categories_segments":[],"categories_sizes":[],"default_left":[0,0,0,0,0,0,0,0,0,0,0,0,0,0,0,0,0,0,0,0,0,0,0,0,0,0,0,0,0,0,0,0,0,0,0,0,0,0,0,0,0,0,0,0,0,0,0,0,0,0,0,0,0],